id,dim_0,dim_1,dim_2,dim_3,dim_4,dim_5,dim_6,dim_7,dim_8,dim_9,dim_10,dim_11,dim_12,dim_13,dim_14,dim_15,dim_16,dim_17,dim_18,dim_19,dim_20,dim_21,dim_22,dim_23,dim_24,dim_25,dim_26,dim_27,dim_28,dim_29,dim_30,dim_31,dim_32,dim_33,dim_34,dim_35,dim_36,dim_37,dim_38,dim_39,dim_40,dim_41,dim_42,dim_43,dim_44,dim_45,dim_46,dim_47,dim_48,dim_49,dim_50,dim_51,dim_52,dim_53,dim_54,dim_55,dim_56,dim_57,dim_58,dim_59,dim_60,dim_61,dim_62,dim_63
task_00000,-0.1977137178182602,0.20327742397785187,-0.2243419885635376,-0.457457035779953,-0.4069271683692932,0.14488691091537476,-0.15100601315498352,0.33464813232421875,0.2622738778591156,0.37182915210723877,-0.39991527795791626,0.12962570786476135,0.0930083692073822,-0.046308733522892,-0.5879606008529663,0.017955554649233818,-0.32459986209869385,-0.10454308986663818,0.5015531778335571,0.1708824187517166,-0.259442538022995,-0.27014344930648804,0.6163325309753418,0.11730921268463135,0.29490926861763,-0.4022630751132965,-0.04568735882639885,0.43398886919021606,-0.619589626789093,0.2985915243625641,0.35032039880752563,0.08633067458868027,0.02917202189564705,0.08785788714885712,0.41815876960754395,0.2784159183502197,0.28282493352890015,0.05989493429660797,0.40597736835479736,0.13489094376564026,0.10768669843673706,-0.2262641340494156,-0.7727659940719604,-0.09109990298748016,0.1449316442012787,-0.4214904010295868,-0.14325742423534393,0.3997986912727356,-0.754792332649231,0.17683392763137817,0.3492186367511749,-0.4738208055496216,0.3690272271633148,0.3447008728981018,0.32160013914108276,0.8648235201835632,0.41866907477378845,0.07660429179668427,-0.43085595965385437,0.2944944500923157,-0.3998171091079712,0.12713608145713806,-0.2569734752178192,0.01935667172074318
task_00001,0.3682725727558136,0.23665671050548553,0.13065031170845032,0.36394187808036804,0.37249523401260376,0.11148703843355179,-0.11427658051252365,0.13416384160518646,-0.6396522521972656,-0.3696642220020294,-0.013160907663404942,0.017541373148560524,-0.17397230863571167,-0.07085662335157394,0.1126895323395729,0.2984831929206848,0.7515758872032166,0.019611312076449394,-0.31415149569511414,0.3612569272518158,-0.3687749207019806,-0.41377201676368713,0.1262587606906891,-0.224680095911026,-0.1876441091299057,0.2569615840911865,-0.4197998642921448,0.021985771134495735,0.08295530080795288,-0.12529632449150085,-0.1484154909849167,-0.25260069966316223,-0.17797209322452545,-0.07993494719266891,0.5940940976142883,-0.13428720831871033,0.4335770308971405,0.24094507098197937,0.1363266259431839,0.04838130250573158,-0.3591274321079254,-0.06443895399570465,0.13458524644374847,-0.26348429918289185,0.36217615008354187,-0.18848639726638794,-0.17965251207351685,0.07285073399543762,-0.3021204471588135,-0.16682474315166473,0.2872506082057953,-0.34787681698799133,0.033467087894678116,0.24524468183517456,-0.1727718561887741,0.07366269081830978,0.7949868440628052,-0.1880112737417221,-0.07965739071369171,-0.06893476843833923,-0.018580250442028046,0.10328923910856247,-0.18853476643562317,0.10309594869613647
task_00002,0.06250910460948944,0.014861354604363441,0.01271824911236763,-0.2694222033023834,0.13749051094055176,0.08631385117769241,0.4811379015445709,-0.021982276812195778,0.16582070291042328,-0.445125013589859,0.3431045413017273,-0.31872451305389404,0.1895679384469986,0.274009644985199,0.10253585129976273,-0.35294684767723083,-0.1066160500049591,-0.37035244703292847,-0.2131589651107788,0.0814051553606987,-0.012868191115558147,-0.27684006094932556,0.40452051162719727,-0.039455756545066833,0.3520350158214569,-0.07303456217050552,0.13689352571964264,-0.15323196351528168,0.1920592486858368,0.15921132266521454,0.25660911202430725,0.08650900423526764,0.04110350087285042,0.08877795189619064,0.4111899733543396,0.02555028721690178,0.014574126340448856,-0.3649091124534607,-0.07159391045570374,-0.04896140843629837,-0.3910544216632843,-0.5534796714782715,-0.10695517808198929,0.08121851086616516,0.4314388632774353,0.014610283076763153,-0.1634649634361267,0.5832306742668152,0.30254611372947693,-0.266733855009079,0.15226656198501587,-0.1775394231081009,0.021329227834939957,0.38431623578071594,0.4272710382938385,-0.15021617710590363,0.7374334335327148,-0.1363263577222824,0.02626018412411213,0.4037061035633087,0.31096190214157104,0.18171674013137817,-0.36522963643074036,0.22708144783973694
task_00003,0.07947424799203873,-0.3863428831100464,0.13187026977539062,0.1126149520277977,0.1293167769908905,-0.13286268711090088,0.12775547802448273,0.14353862404823303,0.46221643686294556,0.32731059193611145,-0.008287391625344753,0.005120869260281324,-0.164490208029747,-0.46800893545150757,-0.005452971905469894,-0.27955925464630127,-0.026653435081243515,0.0031734099611639977,0.8106497526168823,0.10016032308340073,-0.4756360352039337,-0.4822528660297394,-0.19444797933101654,-0.32038310170173645,0.1762639284133911,0.3814127743244171,-0.17068730294704437,-0.2837551236152649,-0.43437954783439636,-0.6307883262634277,0.036960192024707794,0.1092512235045433,0.15305578708648682,0.312075674533844,0.025500446557998657,0.26190102100372314,0.11951957643032074,-0.16239333152770996,-0.08355060964822769,0.022690286859869957,-0.15181095898151398,-0.09123863279819489,-0.15098004043102264,0.1297134906053543,0.18987303972244263,0.37707534432411194,0.2502768933773041,-0.1386730819940567,0.11077998578548431,0.2091454714536667,-0.18641602993011475,-0.1650453805923462,0.466876357793808,0.4681495726108551,0.546819269657135,-0.028074348345398903,0.41198864579200745,0.04988311976194382,-0.3185783624649048,0.009258769452571869,0.5141735672950745,0.46335721015930176,-0.6159058809280396,0.2621675133705139
task_00004,0.5996610522270203,-0.10986176878213882,0.09322396665811539,-0.600529134273529,-0.17590181529521942,-0.2444625198841095,0.207704097032547,0.1599627286195755,0.022930622100830078,-0.6910191178321838,0.03958858177065849,-0.30278924107551575,0.24386359751224518,0.04109041392803192,0.3002834618091583,0.3097137212753296,0.13293692469596863,0.08280612528324127,0.3580547571182251,-0.14052245020866394,0.14322838187217712,-0.11032158136367798,-0.31703799962997437,-0.24825352430343628,-0.01859143190085888,0.2752815783023834,0.2693331241607666,0.11427243053913116,-0.06772943586111069,0.18865253031253815,-0.4157356023788452,-0.10073195397853851,-0.20238324999809265,-0.1894758939743042,0.1861540526151657,0.22264468669891357,0.02530539408326149,-0.45343777537345886,0.2181425839662552,0.07205921411514282,0.03577491268515587,0.3007744252681732,-0.19436635076999664,-0.1172121986746788,0.6570664048194885,0.25623440742492676,-0.02077442780137062,0.297897607088089,-0.0887010246515274,0.5497276186943054,-0.20677539706230164,-0.20887187123298645,0.5525408983230591,-0.06455681473016739,0.1996360719203949,-0.09019779413938522,0.6465684175491333,0.31036126613616943,0.14295752346515656,0.3231983780860901,-0.060358837246894836,0.19029192626476288,-0.23975443840026855,-0.06324490904808044
task_00005,0.23484176397323608,0.002409498207271099,0.4290364384651184,-0.5089892148971558,-0.08978145569562912,0.17869462072849274,0.09018254280090332,-0.05080190673470497,-0.004079942591488361,0.03255224600434303,0.12431663274765015,-0.29984983801841736,0.09199655055999756,0.2787504196166992,-0.06303022056818008,-0.35460996627807617,0.22984281182289124,0.0653659775853157,0.252961665391922,-0.08057288080453873,-0.07542723417282104,-0.2262522429227829,-0.31463587284088135,0.33667871356010437,-0.17430046200752258,0.27039507031440735,0.13060709834098816,0.014399250037968159,-0.5697413086891174,-0.22493043541908264,-0.0497482568025589,0.4573923647403717,0.29527705907821655,-0.46218472719192505,0.0144107136875391,0.06834403425455093,0.230916365981102,-0.08221086859703064,0.5611778497695923,0.014210617169737816,-0.115421362221241,0.14385537803173065,-0.3651811182498932,-0.018705856055021286,0.0031823115423321724,-0.40141209959983826,-0.040703147649765015,0.1579834222793579,-0.20126156508922577,-0.01837957464158535,-0.2507985234260559,-0.06894269585609436,-0.1133158951997757,-0.05125362426042557,-0.15866908431053162,-0.20826761424541473,0.8669448494911194,0.32528242468833923,0.27554142475128174,-0.027321748435497284,-0.15825791656970978,0.7071443796157837,0.02005073055624962,-0.17221547663211823
task_00006,0.21656829118728638,-0.18608123064041138,0.06329916417598724,0.29881390929222107,0.17006735503673553,-0.3428325653076172,-0.10420882701873779,-0.13974995911121368,-0.4230301082134247,0.27269870042800903,-0.04660974070429802,0.056050047278404236,0.07178815454244614,0.12857988476753235,0.5388134717941284,0.11758338660001755,-0.1619359403848648,-0.3971128761768341,0.2671559751033783,0.16707353293895721,-0.10318515449762344,-0.5813592672348022,0.1665979027748108,-0.009507425129413605,0.1562151163816452,-0.28176459670066833,-0.1984306424856186,-0.2798531651496887,-0.5989110469818115,0.3877127170562744,-0.22134535014629364,-0.12013701349496841,0.09412308037281036,-0.094652459025383,0.21183444559574127,0.16120347380638123,-0.16305629909038544,-0.06432603299617767,0.4409428834915161,-0.531791090965271,-0.23052901029586792,0.027561016380786896,0.23306892812252045,0.17177295684814453,0.07326360046863556,0.5007996559143066,-0.11816155165433884,0.4845564663410187,0.368635892868042,0.11205507814884186,0.1403808444738388,-0.05275388062000275,0.12845474481582642,0.40797457098960876,0.029856177046895027,0.12449944019317627,0.10905440896749496,-0.025870300829410553,-0.4934614896774292,0.3868860602378845,-0.4224318563938141,0.38818085193634033,0.14228014647960663,-0.10623093694448471
task_00007,-0.1311131864786148,-0.4752059578895569,-0.11184608191251755,-0.4648650288581848,0.01574225164949894,-0.4474334120750427,0.31149187684059143,0.059776075184345245,0.4333215355873108,0.10919646173715591,0.07195521891117096,-0.031473468989133835,0.4144769310951233,0.25477731227874756,0.24659794569015503,0.009965723380446434,0.33722546696662903,-0.21986131370067596,-0.3398115634918213,0.37997063994407654,0.27321502566337585,-0.30358433723449707,-0.3504970669746399,0.15417355298995972,-0.15974685549736023,-0.13348858058452606,-0.21842525899410248,0.5203074812889099,-0.3806454837322235,-0.7240111827850342,-0.3860485851764679,-0.14392054080963135,0.09402532875537872,-0.4306308925151825,0.054043348878622055,0.3969140946865082,-0.10208224505186081,-0.22618302702903748,0.30051326751708984,-0.09468076378107071,0.16282543540000916,0.21455934643745422,0.09395314007997513,0.24177315831184387,0.577640950679779,0.41328099370002747,-0.39461272954940796,0.06298252940177917,-0.10617987811565399,0.25832653045654297,-0.016091467812657356,0.16197137534618378,-0.22845911979675293,0.10169254243373871,0.05020586773753166,-0.16475658118724823,0.4845087230205536,-0.296541690826416,-0.011142004281282425,0.2302713841199875,-0.22651328146457672,0.5951918363571167,-0.4521122872829437,-0.021215079352259636
task_00008,0.18992507457733154,-0.3459622263908386,0.012316551059484482,-0.2919275462627411,-0.4875880479812622,0.26103970408439636,0.09227204322814941,-0.14901334047317505,0.2742038071155548,-0.14551682770252228,0.13570119440555573,-0.5721322894096375,-0.05759633332490921,-0.6621541976928711,-0.5053156614303589,0.20518925786018372,-0.2522960901260376,-0.009881500154733658,0.41760486364364624,-0.1393798440694809,0.28152331709861755,-0.24301393330097198,0.5141811370849609,0.4641234874725342,0.1512168049812317,-0.18857355415821075,0.1791991889476776,0.32016369700431824,-0.11768074333667755,0.21241624653339386,0.1769872009754181,0.3749227523803711,-0.15323176980018616,-0.37832844257354736,-0.08008210361003876,0.018123671412467957,0.02423839271068573,-0.11292986571788788,0.3056650459766388,0.32217270135879517,-0.19545447826385498,-0.5003513097763062,0.20807039737701416,-0.5629011392593384,-0.10229301452636719,-0.03793372958898544,-0.4159640967845917,0.1527594029903412,-0.06693975627422333,0.08129781484603882,-0.28925615549087524,-0.22893023490905762,0.16436105966567993,0.5426583290100098,0.07747367769479752,-0.1420273780822754,0.6183054447174072,0.0737610012292862,0.2160838395357132,0.1384105086326599,-0.025973282754421234,0.33210858702659607,-0.08839773386716843,0.3641534745693207
task_00009,0.3747820258140564,-0.1933327466249466,0.00895964726805687,0.32220378518104553,0.13575364649295807,0.21303877234458923,0.10370120406150818,0.16763286292552948,0.0931946411728859,0.1710212528705597,-0.2464170604944229,-0.2986067831516266,0.2790377736091614,-0.18631425499916077,0.010774711146950722,-0.27253633737564087,0.3426669239997864,-0.06347932666540146,-0.26238417625427246,-0.1308118849992752,-0.11938866227865219,-0.42837223410606384,-0.2038627713918686,0.21541272103786469,0.30301398038864136,-0.19862502813339233,0.34354367852211,0.014513442292809486,-0.13835927844047546,0.2345360517501831,0.16643576323986053,-0.12469996511936188,0.3882121443748474,-0.22736413776874542,-0.02292456477880478,0.06913165748119354,-0.031400687992572784,-0.5100821256637573,0.28944388031959534,0.3909946382045746,-0.20405660569667816,-0.654872477054596,-0.020534595474600792,0.2296035885810852,0.27548331022262573,0.08495093882083893,-0.2636334002017975,-0.12160473316907883,0.2669079601764679,0.1922357678413391,0.36826255917549133,-0.22050274908542633,0.29135194420814514,0.4725901186466217,-0.5539756417274475,0.08773774653673172,0.6576405167579651,-0.062474582344293594,0.10014702379703522,-0.08256825804710388,-0.081174835562706,-0.14243468642234802,-0.4506852328777313,0.06565102189779282
task_00010,0.10041601210832596,-0.2790021300315857,-0.15344855189323425,-0.303649365901947,-0.030708760023117065,-0.22930707037448883,-0.4383198022842407,0.10241266340017319,0.21985770761966705,0.1289191097021103,0.10049324482679367,0.14621883630752563,-0.06845290213823318,0.295652836561203,-0.06751685589551926,-0.45486506819725037,-0.12844181060791016,-0.27619338035583496,0.4229184687137604,-0.011958585120737553,0.30291110277175903,0.005256275180727243,-0.13587521016597748,-0.02155199833214283,0.3609340488910675,0.4707556664943695,0.3343207538127899,0.025619810447096825,-0.40529656410217285,-0.32403311133384705,0.3244117796421051,-0.14364711940288544,-0.24644747376441956,-0.39651888608932495,0.19555380940437317,0.035825539380311966,0.1485966145992279,0.1827351450920105,-0.32449135184288025,-0.32292652130126953,-0.1874639242887497,-0.3439033329486847,-0.052870310842990875,0.06955178827047348,-0.03612297400832176,0.08597817271947861,0.3930022716522217,0.15387792885303497,-0.19008766114711761,-0.35387906432151794,0.2973264753818512,0.21864493191242218,0.28786933422088623,0.21605604887008667,-0.0635332316160202,-0.01449122279882431,0.5578778386116028,-0.14530570805072784,0.05775971710681915,0.46859243512153625,-0.5411283373832703,0.3717675507068634,-0.03778453543782234,0.192393958568573
task_00011,0.21961529552936554,0.22050225734710693,-0.4153103828430176,-0.15473322570323944,0.22699926793575287,-1.0408658981323242,-0.5771569609642029,-0.3190619647502899,-0.21452103555202484,-0.14245007932186127,0.08049160242080688,0.41280823945999146,0.3317036032676697,-0.6250624060630798,-0.046890757977962494,-0.13747110962867737,-0.38236212730407715,0.2550176680088043,0.10065044462680817,0.07353531569242477,0.14113473892211914,-0.5499597191810608,0.010316113010048866,0.0899243876338005,-0.07320976257324219,0.09012600779533386,-0.11051952093839645,0.19222085177898407,-0.11207062005996704,-0.18487098813056946,0.009546316228806973,0.9039944410324097,-0.09448188543319702,-0.3878665566444397,0.32941994071006775,-0.10502108186483383,-0.22838875651359558,0.5231322646141052,0.14342035353183746,-0.06943047046661377,-0.11140687018632889,-0.610316812992096,-0.24376143515110016,-0.4420298635959625,0.25141289830207825,-0.46847203373908997,-0.10533449053764343,-0.027804268524050713,0.42560845613479614,0.5286868214607239,0.19484655559062958,-0.07045002281665802,-0.4660981297492981,0.6244077086448669,-0.437044233083725,-0.08512427657842636,0.7643598318099976,-0.5876395106315613,-0.06315219402313232,0.35494253039360046,-0.38870054483413696,-0.3161911070346832,-0.8041455149650574,-0.29620352387428284
task_00012,0.3279556334018707,-0.17050129175186157,-0.18645510077476501,-0.04837232828140259,0.5368715524673462,0.11541499197483063,0.24039676785469055,0.4398711621761322,0.28689953684806824,0.0458497628569603,-0.08460450172424316,0.304034024477005,0.03443695232272148,-0.26318418979644775,-0.016582168638706207,-0.2905719578266144,-0.1552470177412033,-0.030507858842611313,-0.1971486657857895,0.04408051818609238,-0.504163384437561,-0.03936907276511192,-0.5076071619987488,-0.020984414964914322,-0.006112217903137207,0.7488297820091248,0.35103023052215576,0.4865718185901642,0.31484276056289673,-0.4686610698699951,0.49707385897636414,0.4156700372695923,0.12818941473960876,-0.01523434929549694,0.9037588834762573,-0.2834603190422058,0.20782898366451263,0.6550485491752625,0.36494508385658264,-0.06031985208392143,-0.27148017287254333,-0.2276030033826828,0.04212836176156998,-0.11877285689115524,0.42879757285118103,0.4093414545059204,0.053351595997810364,0.06511189043521881,-0.5313206315040588,0.42016705870628357,-0.31745198369026184,-0.14711761474609375,-0.006060924846678972,-0.1992126703262329,-0.221294566988945,-0.02699233777821064,0.4686014652252197,0.2915211617946625,-0.30824175477027893,0.10318058729171753,-0.3795040547847748,0.1790606826543808,-0.5092841386795044,0.24034596979618073
task_00013,-0.08794398605823517,0.11502555012702942,0.08683996647596359,0.24720977246761322,-0.2769252061843872,-0.2960593104362488,0.017613213509321213,0.2328750491142273,0.3411906361579895,-0.44484925270080566,-0.15730297565460205,-0.1709584891796112,0.4714356064796448,-0.24907474219799042,-0.1428082436323166,-0.5906991362571716,-0.1090390682220459,0.42047151923179626,0.036164093762636185,-0.1116039901971817,0.1152731254696846,-0.3333834409713745,0.3791806399822235,0.3655189871788025,-0.29962366819381714,0.27606096863746643,0.496118426322937,0.6740899682044983,-0.02015422098338604,-0.09404733031988144,0.24791394174098969,-0.06313443928956985,0.0003223734092898667,-0.13841082155704498,-0.16194704174995422,0.3673495650291443,0.2691110074520111,0.05278867855668068,-0.2028072476387024,-0.27086448669433594,0.04112114757299423,-0.3795749545097351,-0.08318516612052917,0.23781901597976685,-0.04634278267621994,0.2793193757534027,-0.10661106556653976,0.11817783862352371,-0.25845956802368164,0.14647744596004486,-0.05129861459136009,-0.713874876499176,0.4998936653137207,0.43635255098342896,0.506854236125946,-0.13215012848377228,0.41671183705329895,-0.35982921719551086,0.005832194350659847,0.13637393712997437,0.3713190257549286,-0.17191879451274872,-0.5883664488792419,-0.5059414505958557
task_00014,0.11073711514472961,-0.15170443058013916,-0.04300971329212189,-0.2724965810775757,0.002905031433328986,-0.1603095829486847,-0.17041471600532532,-0.0026135588996112347,0.20033985376358032,-0.3464019000530243,-0.1739000529050827,-0.4442116916179657,-0.08137205988168716,0.08083538711071014,0.09020557254552841,0.1281507909297943,-0.18087035417556763,0.14504364132881165,-0.35625913739204407,-0.32109421491622925,0.07405618578195572,-0.46810755133628845,-0.03671213984489441,-0.07253850996494293,-0.28030169010162354,-0.11687380075454712,-0.4442198872566223,0.10364096611738205,-0.48887765407562256,-0.09891387820243835,-0.14971256256103516,-0.014152895659208298,-0.2674388289451599,-0.18939021229743958,0.06394124776124954,-0.1904323399066925,0.038215700536966324,-0.11946732550859451,-0.07739870250225067,0.10294567048549652,0.05787082016468048,-0.9312859773635864,0.17050664126873016,0.5414816737174988,0.049382880330085754,0.23026038706302643,0.32159432768821716,0.5636225342750549,-0.005052190274000168,-0.16640926897525787,0.39830198884010315,-0.43159112334251404,-0.012358911335468292,0.07428490370512009,0.2516345679759979,-0.5040559768676758,0.627158522605896,0.30626294016838074,0.11254286020994186,-0.00641445629298687,0.06003833934664726,0.21256618201732635,-0.038280755281448364,0.35523441433906555
task_00015,-0.04934895411133766,-0.25320422649383545,-0.1391599327325821,-0.017719488590955734,-0.31158891320228577,-0.3292670249938965,-0.4350373446941376,0.39934733510017395,-0.36655789613723755,-0.07034888118505478,0.11984270066022873,0.9843447804450989,-0.04232245311141014,0.18892887234687805,-0.3261841833591461,-0.0028973608277738094,0.1611737608909607,-0.10898445546627045,0.053583648055791855,0.3092148005962372,0.003475172445178032,-0.5457366704940796,-0.2766135334968567,0.19689425826072693,-0.09916134178638458,-0.02203301712870598,-0.3290800154209137,0.04760022088885307,0.177875354886055,0.18970489501953125,0.2452792376279831,0.42827168107032776,0.0672030821442604,0.17881688475608826,0.04549355432391167,0.43237680196762085,0.8060360550880432,-0.10672585666179657,0.39778923988342285,0.6115445494651794,0.09168374538421631,-0.05466208606958389,-0.38477960228919983,0.3395944833755493,0.39525413513183594,0.43867307901382446,-0.19362783432006836,-0.12525410950183868,0.19075919687747955,-0.3898260295391083,-0.0315215028822422,-0.26531991362571716,0.25238698720932007,0.5783587098121643,0.4318792223930359,-0.1506466567516327,0.3104456663131714,-0.18731483817100525,0.36285093426704407,-0.5117365121841431,-0.04495491087436676,0.36586010456085205,-0.5245659947395325,0.02668297290802002
task_00016,-0.08133004605770111,-0.0791855901479721,0.25331172347068787,0.08783160150051117,-0.06115582212805748,-0.15919651091098785,0.08719697594642639,-0.5431078672409058,0.04148246720433235,-0.13809025287628174,0.7304899096488953,0.2435619980096817,-0.09136394411325455,-0.14613914489746094,-0.06789740920066833,0.16642232239246368,0.007478304207324982,0.07738687843084335,-0.1505773514509201,0.18187178671360016,0.25636497139930725,-0.7711905241012573,-0.4713710844516754,0.15408021211624146,-0.01314091682434082,0.023597320541739464,0.136321559548378,-0.13932381570339203,-0.6430612206459045,0.3722437918186188,0.37953677773475647,-0.057376500219106674,-0.23768550157546997,-0.2553163170814514,-0.03135652095079422,0.19842714071273804,-0.3495321273803711,-0.409274160861969,0.6584526300430298,-0.3292234539985657,0.40471404790878296,-0.1406427025794983,-0.4680826961994171,0.20036357641220093,0.837459146976471,0.22099538147449493,-0.32362642884254456,0.17186790704727173,0.018080782145261765,0.33043813705444336,0.3912912607192993,-0.44671204686164856,0.11239808797836304,0.3612157106399536,0.17422844469547272,-0.24823357164859772,0.03678141534328461,-0.14095374941825867,-0.145695760846138,0.056000567972660065,-0.42376893758773804,-0.04096104949712753,0.01088107842952013,0.19906790554523468
task_00017,0.6875675320625305,-0.08888666331768036,-0.012978535145521164,0.4157678484916687,-0.902584969997406,-0.39321082830429077,0.4727640151977539,0.24074910581111908,0.40170860290527344,0.14405079185962677,0.40726661682128906,0.24278070032596588,-0.3143005967140198,0.05751324072480202,-0.3806709349155426,0.19798114895820618,0.8561167120933533,-0.15901698172092438,-0.09095199406147003,-0.12634217739105225,0.6124664545059204,-0.16015194356441498,0.07127198576927185,-0.12016457319259644,0.26496651768684387,0.2765786051750183,-0.429821252822876,-0.4443491995334625,-0.7989403605461121,-0.20196649432182312,0.5895887017250061,-0.01595349982380867,-0.41536179184913635,0.2868998348712921,0.4767915904521942,0.31500905752182007,-0.14073772728443146,-0.027149289846420288,0.04299360513687134,0.28165188431739807,0.07795503735542297,0.3207584023475647,-0.12002015858888626,-0.38455063104629517,0.4484102427959442,0.6562131643295288,0.029616573825478554,0.7634574174880981,0.00980040617287159,0.7490105628967285,-0.19282793998718262,0.09415308386087418,0.21011383831501007,0.7998923659324646,0.1574578732252121,-0.4336819648742676,0.05853990465402603,-0.07882499694824219,0.4510636329650879,0.35001280903816223,-0.4220633804798126,0.5198582410812378,0.18723323941230774,-0.26365411281585693
task_00018,0.10492359846830368,0.5356989502906799,-0.032615743577480316,0.09280010312795639,0.05474822223186493,0.052379053086042404,-0.012315169908106327,0.2073647826910019,-0.36156514286994934,0.2895826995372772,0.10896189510822296,0.35474735498428345,0.3484629690647125,-0.3108192980289459,0.5377533435821533,0.25627952814102173,-0.08828695863485336,-0.0613764226436615,-0.30257683992385864,0.2603515386581421,0.3225586414337158,-0.38013380765914917,0.18414373695850372,-0.10675491392612457,0.17758099734783173,-0.06174074113368988,-0.05356045067310333,-0.09008777886629105,0.1313168704509735,0.21945175528526306,0.3307533860206604,-0.4221760630607605,-0.44096899032592773,-0.07567472010850906,-0.1443348079919815,0.3481450378894806,0.5174005031585693,0.3054867684841156,1.0560669898986816,0.07162076234817505,-0.3851765990257263,-0.15240532159805298,-0.5333980917930603,-0.145735964179039,0.5920705199241638,0.6425910592079163,-0.11561037600040436,0.18577389419078827,0.4268101751804352,-0.030043840408325195,0.28175127506256104,-0.26166975498199463,-0.27470383048057556,0.16614945232868195,-0.45108562707901,0.050845421850681305,0.3806048035621643,0.10242040455341339,-0.21799853444099426,0.5015843510627747,0.1013319343328476,0.2088029831647873,-0.29074037075042725,-0.08990807831287384
task_00019,-0.034652236849069595,0.03911008685827255,0.1504545956850052,0.09931264817714691,-0.21306155622005463,-0.019537461921572685,-0.21651017665863037,-0.2203216403722763,-0.06431702524423599,-0.21428021788597107,0.02341567911207676,-0.03542429953813553,0.40980982780456543,-0.108953557908535,-0.17232106626033783,-0.1761060655117035,0.6283241510391235,0.019768675789237022,0.30626997351646423,0.030086679384112358,-0.4391075670719147,-0.3261779248714447,-0.19506824016571045,-0.12814109027385712,-0.3846680223941803,0.24684861302375793,-0.5547493696212769,-0.28666144609451294,-0.10389195382595062,0.24996376037597656,-0.15902258455753326,-0.0701381117105484,-0.2803128659725189,-0.301457941532135,-0.3725111484527588,0.6158778071403503,-0.06347300857305527,0.028630049899220467,0.5026360750198364,-0.17178767919540405,-0.01838706247508526,-0.22962906956672668,-0.18372885882854462,0.2134685218334198,-0.1686064451932907,0.1752711832523346,-0.04708082228899002,0.2099635750055313,-0.483960896730423,0.0008837212808430195,0.18217550218105316,-0.2227184772491455,0.016142165288329124,0.23661170899868011,0.3426230549812317,0.22611016035079956,-0.00015174341388046741,0.5039665699005127,-0.716425359249115,0.2987656593322754,-0.04327094182372093,0.04062855243682861,-1.0577415227890015,-0.44334688782691956
task_00020,0.055115293711423874,-0.05900101363658905,-0.2398318648338318,-0.8051400184631348,0.10264148563146591,-0.7588547468185425,-0.0021161125041544437,-0.1077214926481247,-0.5956722497940063,-0.7238185405731201,0.1050131618976593,-0.24128411710262299,0.23942726850509644,0.189199298620224,0.0313233807682991,0.14304623007774353,-0.00423957034945488,0.04945620894432068,-0.27009153366088867,-0.135488823056221,-0.12886597216129303,-0.4225679337978363,0.6705779433250427,-0.012809215113520622,0.4254937469959259,0.2522887885570526,0.44377174973487854,-0.26232752203941345,-0.4639211893081665,0.23813895881175995,0.05467846244573593,0.15075412392616272,-1.1266518831253052,-0.14353004097938538,0.3750377595424652,0.23037782311439514,0.2924264073371887,0.2609359622001648,-0.3383379578590393,-0.27815085649490356,-0.4560295045375824,-0.386302649974823,-0.6097409129142761,-0.15083812177181244,-0.043891601264476776,0.820119321346283,0.6050586700439453,0.24958936870098114,-0.043518662452697754,-0.341443806886673,-0.266826868057251,0.21423125267028809,0.31256502866744995,0.5890770554542542,0.7179268002510071,0.5027890205383301,0.39385268092155457,0.06528861820697784,0.342162549495697,0.10902521759271622,0.27223220467567444,0.012130594812333584,0.3520008325576782,-0.3478655517101288
task_00021,0.45416006445884705,-0.22584466636180878,-0.04380974546074867,0.14941878616809845,-0.0960705354809761,0.037118446081876755,0.22002379596233368,0.1173001304268837,0.2729305028915405,-0.016853392124176025,0.33351680636405945,0.11385969817638397,0.45161330699920654,-0.2253502458333969,0.39658886194229126,-0.49389055371284485,-0.18015626072883606,-0.3845820128917694,-0.06635034084320068,0.08156557381153107,-0.40685132145881653,-0.6360970735549927,-0.25987353920936584,-0.006591429468244314,0.5717064142227173,0.46543559432029724,-0.5044631958007812,-0.18491829931735992,0.1360144317150116,0.27187880873680115,0.23826809227466583,-0.2077489048242569,-0.5519232153892517,-0.19693556427955627,0.04973892122507095,-0.5002536773681641,-0.24392056465148926,-0.29520657658576965,-0.028170624747872353,0.5039080381393433,-0.4851932227611542,-0.26272135972976685,0.19183866679668427,-0.6150578856468201,-0.11030673235654831,0.3399234414100647,-0.2629147469997406,0.022297630086541176,-0.49678105115890503,-0.2601926326751709,-0.16197042167186737,0.4820759892463684,-0.15178261697292328,0.1969485729932785,0.10299083590507507,-0.2285051941871643,0.6641598343849182,0.020158955827355385,0.35257306694984436,0.6828395128250122,-0.5918874740600586,0.30574139952659607,-0.5148460865020752,0.09903235733509064
task_00022,0.25379297137260437,0.037177711725234985,-0.28048866987228394,-0.10439777374267578,0.7377469539642334,-0.606863260269165,0.01778142713010311,-0.08769886195659637,-0.010172933340072632,-0.15789194405078888,0.20368467271327972,-0.3717763125896454,0.37136760354042053,0.2396528422832489,0.4391572177410126,0.45167645812034607,0.17394578456878662,0.27133676409721375,0.10325001925230026,0.4510464072227478,0.2698374092578888,-0.566715657711029,0.03064844012260437,0.31051671504974365,0.39305034279823303,0.6044861674308777,0.4040948152542114,0.44590914249420166,-0.15227729082107544,-0.08274281769990921,0.11827480792999268,0.04832093045115471,0.22192952036857605,0.2351248860359192,0.24475882947444916,-0.25867629051208496,0.1349790394306183,0.2151217758655548,0.044593263417482376,-0.42098861932754517,0.16320957243442535,-0.19491972029209137,-0.438554048538208,0.14681896567344666,0.1834939420223236,0.2843214273452759,0.09443852305412292,-0.3015015721321106,-0.3548228144645691,0.014853546395897865,-0.14514122903347015,-0.1963150054216385,-0.01743726059794426,0.17791393399238586,0.0929454043507576,-0.2787877023220062,0.551058292388916,-0.019136914983391762,-0.3538614809513092,0.16685277223587036,-0.045766595751047134,0.781613826751709,-0.4489423632621765,-0.27899718284606934
task_00023,0.4896381199359894,-0.15936177968978882,0.11826980859041214,-0.4701140224933624,0.25698140263557434,0.4233747124671936,0.7618000507354736,0.11338432133197784,-0.17867189645767212,0.39351212978363037,0.22704023122787476,-0.3476366102695465,0.1633545309305191,0.3036501705646515,-0.744635283946991,0.20945961773395538,0.43559783697128296,0.11696292459964752,0.011558000929653645,-0.025824252516031265,0.18586969375610352,-0.49195560812950134,-0.4986049234867096,0.5775508880615234,-0.2299882173538208,0.2629169821739197,-0.014776883646845818,-0.19172008335590363,-0.2800569236278534,0.092343270778656,0.6528180837631226,-0.07824062556028366,-0.32030439376831055,0.7047393321990967,-0.16239191591739655,0.3916740417480469,-0.131339892745018,-0.12717729806900024,0.4533301293849945,-0.1995876133441925,-0.05838484689593315,-0.876054048538208,0.14919358491897583,0.034810736775398254,0.48804399371147156,0.6596953868865967,0.5712112784385681,-0.10924123227596283,0.16396264731884003,-0.3483307957649231,0.1348266899585724,-0.4336918592453003,0.335489422082901,-0.1399563103914261,-0.026037510484457016,-0.25628459453582764,0.7659107446670532,-0.002531943842768669,-0.32775813341140747,-0.5628013610839844,0.27686333656311035,0.5507072806358337,-0.16982565820217133,-0.4250098168849945
task_00024,-0.17424768209457397,-0.4653182923793793,-0.6211580038070679,0.5154087543487549,0.45116060972213745,-0.02627408131957054,0.3306427299976349,0.29508596658706665,-0.25882488489151,0.06651727110147476,-0.6437252163887024,0.8909254670143127,0.9631733894348145,-0.4385497570037842,-0.007400507107377052,-0.029224254190921783,0.1516551822423935,-0.31986168026924133,0.00335142994299531,-0.36202675104141235,-0.38316625356674194,-0.518785297870636,0.21972043812274933,-0.35270780324935913,0.18241442739963531,-0.31453001499176025,-0.026079673320055008,0.268782377243042,-0.4874749779701233,0.36120691895484924,0.32306262850761414,0.2501835823059082,-0.6501302719116211,-0.6400389671325684,0.35452282428741455,0.20312686264514923,0.048136718571186066,0.07094983756542206,-0.08164899051189423,-0.4400535225868225,0.2901168465614319,-0.05724382400512695,0.4019549489021301,0.7575610876083374,-0.6309290528297424,0.6172621846199036,0.4159466624259949,-0.04753819853067398,-0.16528302431106567,-0.030672945082187653,0.10835597664117813,-0.02415575087070465,0.6717169880867004,0.12775178253650665,-0.04274173453450203,-0.33820033073425293,0.49345606565475464,0.11229851841926575,-1.0347046852111816,0.41205868124961853,0.6171556115150452,0.4517337679862976,0.7820852398872375,0.004258043132722378
task_00025,0.5599690079689026,-0.4392358958721161,0.5686048865318298,0.4127538204193115,-0.715743362903595,-0.1521500051021576,-0.7658184766769409,-0.14139313995838165,0.4910171329975128,0.4986168444156647,-0.22724659740924835,0.36602485179901123,0.21307428181171417,-0.5018851161003113,-0.7622750997543335,0.5173906683921814,-0.33454835414886475,-0.24083150923252106,0.14290225505828857,-0.27768638730049133,-0.3761383593082428,-0.30224794149398804,-0.2979564666748047,-0.011533977463841438,0.4377675950527191,0.33328479528427124,-0.6662404537200928,-0.05084509402513504,-0.6296564936637878,0.12234852463006973,0.18682412803173065,-0.13336052000522614,-0.4296669065952301,-0.14543986320495605,-1.1062891483306885,0.19739371538162231,-0.6147555708885193,0.5853433012962341,0.06563597172498703,-0.35619041323661804,-0.627444326877594,0.37143853306770325,-0.15629103779792786,-0.48823681473731995,0.3242308795452118,0.46896666288375854,-0.24256227910518646,-0.20508894324302673,-0.35931655764579773,0.11885722726583481,0.5568835735321045,-0.4535427391529083,0.5362229943275452,0.05926632508635521,0.3008562922477722,-0.023737942799925804,0.27174320816993713,-0.12351162731647491,-0.031614214181900024,0.6469296813011169,-0.035279374569654465,0.22886425256729126,-1.8770344257354736,0.3121708929538727
task_00026,-0.28148818016052246,-0.5961437225341797,-0.37242916226387024,0.23973065614700317,0.3524007797241211,0.12516209483146667,0.03714308515191078,0.3232601284980774,0.016353048384189606,-0.3697984218597412,0.3949306905269623,0.24545694887638092,0.3292688727378845,0.04693176597356796,-0.09825923293828964,-0.502996027469635,0.44665417075157166,0.18509621918201447,0.21150532364845276,-0.38165974617004395,0.3149793744087219,-0.2773911952972412,-0.34147149324417114,0.2726796269416809,-0.3101601004600525,0.07299146801233292,0.6261340975761414,0.13404694199562073,-0.37287840247154236,0.312438040971756,0.04749990254640579,-0.26904404163360596,0.025859873741865158,-0.3456462025642395,0.5805593729019165,-0.11362232267856598,0.03451918065547943,-0.05686389282345772,0.3500373959541321,-0.3541037440299988,0.2314956933259964,-0.20125915110111237,-0.1021321639418602,0.3890785872936249,-0.1218254417181015,0.35501524806022644,0.3710362911224365,0.16981086134910583,0.09504006803035736,0.08439651131629944,-0.3077182471752167,-0.4946958124637604,0.13524188101291656,0.3521870970726013,0.31093791127204895,-0.19542284309864044,0.24521023035049438,0.27851662039756775,-0.32753419876098633,0.2073899209499359,-0.08040627837181091,-0.24246472120285034,-0.4872693717479706,-0.0837680846452713
task_00027,0.20249049365520477,-0.1381501704454422,0.3541989028453827,-0.4366235136985779,-0.14185982942581177,0.11799348145723343,-0.06960585713386536,0.3123205602169037,-0.04692770168185234,-0.5521770715713501,-0.0737200453877449,-0.06857822835445404,0.1796887367963791,0.042847827076911926,0.40904146432876587,-0.6204023957252502,-0.1725197285413742,-0.20177505910396576,0.15708917379379272,0.08161784708499908,0.06888344138860703,-0.21164774894714355,0.2659763991832733,0.018543079495429993,0.01780286245048046,-0.2787861227989197,0.32953938841819763,0.09425030648708344,0.10757157951593399,-0.039679672569036484,-0.607051432132721,0.07659114897251129,-0.40259459614753723,-0.3385113477706909,0.47820237278938293,0.38163700699806213,-0.23468169569969177,0.46779757738113403,-0.4515766501426697,-0.20858539640903473,-0.1568419486284256,0.20430289208889008,-0.08862319588661194,0.2773634195327759,-0.34337812662124634,-0.025080014020204544,0.02378033846616745,0.18625862896442413,-0.1942061185836792,-0.3332480490207672,0.15467283129692078,0.291217178106308,0.09097511321306229,0.4629811942577362,0.03957725688815117,-0.03598126396536827,0.6521783471107483,-0.026799388229846954,0.032200828194618225,0.07785307615995407,0.14760631322860718,0.02408057078719139,-0.30596229434013367,0.16090211272239685
task_00028,-0.20833174884319305,0.20640194416046143,-0.07903230935335159,0.06318679451942444,-0.2326645851135254,0.06911323964595795,0.7024279236793518,-0.17793114483356476,-0.014829485677182674,0.71315598487854,-0.48123541474342346,0.6416743993759155,0.3130154311656952,-0.2402191162109375,0.25949159264564514,0.4711003601551056,-0.005612804554402828,0.09518098831176758,0.1909806728363037,0.0015556227881461382,-0.1761324256658554,-0.49206748604774475,-0.3967086672782898,-0.24224509298801422,0.22572743892669678,0.04878292977809906,0.26527178287506104,-0.3415258228778839,-0.11793521046638489,-0.06325533986091614,-0.7151523232460022,0.41035762429237366,-0.1523965299129486,-0.2542135715484619,0.017937220633029938,0.21139496564865112,0.06546948105096817,-1.0093882083892822,0.1809225082397461,-0.9879797101020813,-0.1634315550327301,-0.1978880614042282,-0.34803149104118347,0.11667392402887344,0.10654004663228989,0.7493125796318054,-0.07201752811670303,0.3902774453163147,-0.41929686069488525,0.1697119027376175,1.0070579051971436,-0.5257773399353027,0.6488165259361267,-0.0029364428482949734,-0.2764498293399811,0.11660376936197281,0.5709086656570435,0.7541929483413696,-1.1494017839431763,0.38351956009864807,0.6101307272911072,0.22935427725315094,-0.034193165600299835,-0.3294556140899658
task_00029,0.3207765817642212,0.19124259054660797,-0.26040810346603394,-0.5223603844642639,0.23764917254447937,-0.15221256017684937,-0.43936970829963684,0.5117100477218628,0.24940767884254456,0.03852202370762825,0.33776381611824036,-0.5706796646118164,-0.07684828341007233,-0.3293779492378235,0.07053159177303314,0.34092891216278076,0.1581873893737793,0.08961240202188492,0.23320695757865906,-0.43958741426467896,0.3843991160392761,-0.6882486343383789,-0.09728805720806122,0.16385453939437866,0.12864384055137634,0.29903098940849304,0.8101566433906555,0.07212874293327332,-0.3887365758419037,0.2254677563905716,-0.293308824300766,-1.0099883079528809,0.1458767205476761,-0.08348727971315384,0.2545039653778076,0.40772655606269836,-0.09408211708068848,-0.2456924319267273,0.09801321476697922,0.06484510004520416,0.493959903717041,0.5129411220550537,0.06110673025250435,0.004128805361688137,0.043256551027297974,-0.1409510225057602,0.31087395548820496,-0.0491984598338604,-0.10909080505371094,-0.048847682774066925,0.11665837466716766,0.23582813143730164,-0.08763916790485382,0.17055568099021912,0.47051626443862915,0.07065583765506744,0.5700874328613281,-0.445758193731308,0.5528079867362976,-0.10448064655065536,-0.06932633370161057,0.1890106350183487,-0.5530992150306702,0.266308456659317
task_00030,0.059073302894830704,0.07317683845758438,-0.04259663447737694,-0.16457302868366241,-0.12453986704349518,-0.4338930547237396,0.18435320258140564,0.11416520923376083,-0.019462645053863525,-0.11165741086006165,0.06884044408798218,-0.0343644842505455,-0.2045242041349411,0.45747050642967224,0.015005683526396751,-0.36543819308280945,-0.03165353462100029,-0.0750589668750763,0.29210352897644043,0.0012427670881152153,-0.05507758632302284,-0.11387122422456741,-0.27874717116355896,0.2687161862850189,0.05985488370060921,0.1292603462934494,0.48670023679733276,-0.009778554551303387,-0.031058311462402344,-0.07214242219924927,0.14107370376586914,0.2777271866798401,-0.3211308717727661,-0.018530772998929024,-0.12417791038751602,0.25785765051841736,-0.16809231042861938,-0.38525837659835815,0.43512022495269775,-0.4116031229496002,-0.21361540257930756,-0.1344364434480667,0.05474822223186493,0.1658204197883606,0.268786758184433,0.17739273607730865,0.24885007739067078,0.29937463998794556,0.322162389755249,0.10082105547189713,0.3906421661376953,-0.10724187642335892,-0.16950595378875732,0.0685393288731575,0.03045094572007656,-0.2943282425403595,0.5807897448539734,-0.4241010844707489,0.261653870344162,0.14732447266578674,-0.5405954122543335,-0.023634517565369606,-0.1473572999238968,-0.012574372813105583
task_00031,-0.2950309216976166,0.23026974499225616,-0.7315942645072937,-0.4319782853126526,-0.3589123487472534,-0.09657081961631775,-0.19959887862205505,0.27380117774009705,0.027960821986198425,0.008509978652000427,-0.13884378969669342,0.5117570757865906,-0.14389383792877197,-0.2908860146999359,-0.15648870170116425,0.21518093347549438,0.08847025781869888,-0.37952330708503723,0.6531155705451965,0.3786291778087616,-0.18523696064949036,-0.26635366678237915,0.3542504608631134,-0.052071910351514816,0.16875547170639038,0.1762675642967224,0.07499313354492188,0.024714522063732147,-0.7672083377838135,-0.06382326036691666,0.5253728628158569,0.015039457008242607,-0.5345101356506348,-0.40630632638931274,0.14092577993869781,-0.3456982970237732,-0.4491923153400421,0.22453573346138,0.22681482136249542,-0.021353192627429962,0.14264647662639618,-0.018377497792243958,0.14888440072536469,0.035452574491500854,0.4372718036174774,0.19421200454235077,0.38831374049186707,-0.27170059084892273,0.1937963366508484,0.22637265920639038,0.19015318155288696,0.11231055110692978,-0.34367427229881287,-0.03959789499640465,-0.09256906062364578,-0.34291452169418335,0.7120152711868286,0.1119789257645607,-0.34413665533065796,-0.048319365829229355,-0.1613423228263855,0.41901013255119324,-0.3075772225856781,0.055527783930301666
task_00032,-0.06134228780865669,-0.5697036981582642,-0.08189914375543594,-0.4424833357334137,0.11774711310863495,0.2558498680591583,0.2295742928981781,-0.29618334770202637,-0.38607755303382874,-0.19577930867671967,0.43473881483078003,-0.3152261972427368,0.2640375792980194,0.16337116062641144,0.21583084762096405,-0.363144189119339,0.6123926639556885,-0.1621628850698471,0.21148312091827393,-0.25405073165893555,-0.4145374000072479,-0.33576613664627075,-0.2816920280456543,0.13489529490470886,0.30571016669273376,0.06429143995046616,0.06318985670804977,-0.04031296446919441,0.04385357350111008,0.04905932769179344,0.17884960770606995,0.030736325308680534,0.15328741073608398,-0.4255489110946655,-0.24007847905158997,0.2323395311832428,0.4325096607208252,0.02845573052763939,0.7387300729751587,-0.3704591691493988,-0.5212135314941406,-0.2544574737548828,0.33123379945755005,-0.1927611529827118,0.002520974026992917,0.469484806060791,0.17320778965950012,0.1584845930337906,-0.35048621892929077,0.14380508661270142,0.02078033983707428,0.22574391961097717,0.4105057418346405,-0.11622834950685501,0.509392499923706,0.1574387103319168,0.7856120467185974,0.05280803143978119,-0.11767558753490448,0.145794078707695,0.14760154485702515,0.1076858714222908,0.423999547958374,-0.2536141872406006
task_00033,0.28655385971069336,0.17025962471961975,-0.026170015335083008,-0.09000586718320847,-0.2738456726074219,0.3702784776687622,0.2862888276576996,-0.41666659712791443,-0.2464986890554428,-0.12482785433530807,0.04945675656199455,0.11075430363416672,0.12147653102874756,0.019487617537379265,0.29019656777381897,-0.19018833339214325,0.3823031187057495,-0.21333950757980347,-0.3102215528488159,0.41986170411109924,-0.08574081212282181,-0.07920762151479721,-0.10683532804250717,0.33077120780944824,-0.31728872656822205,0.7437949180603027,0.10856981575489044,0.26394397020339966,-0.4900691509246826,0.3268827199935913,0.048057615756988525,0.44779396057128906,-0.5240243673324585,-0.13561202585697174,-0.001990862190723419,-0.1849658191204071,-0.14229892194271088,-0.35910162329673767,0.4730515480041504,-0.15474018454551697,0.01463379804044962,-0.259396493434906,0.07298515737056732,-0.22368161380290985,0.2601594924926758,-0.1844395399093628,0.33172547817230225,-0.03186725452542305,0.2931031286716461,-0.19593751430511475,0.3230302035808563,-0.12599264085292816,0.26830756664276123,0.1827116310596466,-0.19486339390277863,0.40066322684288025,0.6775868535041809,0.24451515078544617,-0.4457133114337921,0.08945297449827194,-0.2331310659646988,0.7283309102058411,-0.16277024149894714,0.03512127324938774
task_00034,0.41787949204444885,-0.020840412005782127,0.26901838183403015,-0.8854779005050659,-0.4107452929019928,0.13181345164775848,-0.22710822522640228,0.36682429909706116,-0.029429936781525612,0.013413638807833195,0.26516327261924744,-0.15145592391490936,0.35822737216949463,0.39718326926231384,-0.02442546747624874,-0.026140036061406136,-0.24350328743457794,-0.5356571674346924,-0.032413166016340256,0.24979425966739655,-0.2512037754058838,-0.4958665668964386,0.1730024218559265,0.2165420651435852,0.5540608167648315,-0.1498325914144516,0.37417927384376526,-0.11774516850709915,0.08958057314157486,0.056121550500392914,0.04048515856266022,0.12464544177055359,0.6403003931045532,-0.2840275764465332,-0.474709153175354,0.7025284767150879,-0.18649707734584808,0.2551340162754059,0.008012453094124794,0.47493860125541687,0.36117103695869446,-0.07333622872829437,-0.1790117621421814,-0.32820606231689453,-0.49766966700553894,0.5484670400619507,0.10316062718629837,0.4676888585090637,-0.03555329144001007,-0.313936322927475,0.5239940881729126,-0.1520850956439972,0.3855421841144562,-0.03208157420158386,0.1731414496898651,-0.24477146565914154,0.17121756076812744,-0.12700848281383514,-0.02772768959403038,-0.2400500327348709,-0.48800721764564514,0.22127236425876617,-0.016109872609376907,-0.1119476705789566
task_00035,-0.2316264659166336,-0.010767542757093906,0.20387013256549835,-0.4926952123641968,0.14867821335792542,-0.05247696861624718,0.15607833862304688,0.17385399341583252,0.1848532259464264,-0.6746014952659607,-0.211890310049057,0.2020593285560608,0.5388489365577698,0.03245427459478378,-0.37693682312965393,0.058756642043590546,0.02839701436460018,0.1417822390794754,0.18273119628429413,-0.14743883907794952,-0.1976768523454666,-0.29089754819869995,-0.21373304724693298,0.09938019514083862,0.06625118106603622,0.3006921410560608,0.3290117383003235,0.0771656408905983,0.20747026801109314,0.22182555496692657,-0.0005557488184422255,0.03874863684177399,0.22942963242530823,-0.26779884099960327,0.08818372339010239,0.0907558798789978,0.05275559797883034,0.06492245197296143,0.18718411028385162,0.4308178126811981,-0.5946141481399536,-0.0017206987831741571,-0.15252284705638885,0.03434048220515251,0.0649234801530838,0.31008490920066833,-0.22466060519218445,-0.11564839631319046,-0.004171149339526892,-0.11104877293109894,0.5437902808189392,-0.07605649530887604,0.1762651652097702,0.7410880327224731,-0.04247577115893364,-0.3141759932041168,0.5457509160041809,-0.1664079874753952,0.20116877555847168,-0.30169594287872314,-0.4822380840778351,0.25928449630737305,-0.33267033100128174,0.12937800586223602
task_00036,0.15929967164993286,0.10150158405303955,0.4545990228652954,0.240122988820076,-0.2653636336326599,0.18362678587436676,-0.5155790448188782,-0.5421785712242126,-0.1444810926914215,1.1223963499069214,-0.30154526233673096,-0.3245731294155121,0.5417404174804688,-0.6189512610435486,0.23723658919334412,-0.6189538836479187,-0.7009613513946533,-0.2542211711406708,-0.5151082873344421,-0.2579343318939209,0.2724933326244354,-0.6088857054710388,-0.01593692973256111,0.3148491382598877,0.1954329013824463,0.3374163806438446,0.40556657314300537,0.4446156322956085,-0.1634809821844101,-0.10335097461938858,-0.33794206380844116,0.4786451756954193,0.06391850858926773,-0.5411201119422913,-0.09601325541734695,0.482126384973526,0.06385404616594315,0.37035953998565674,0.5679571628570557,0.31733468174934387,0.03770823031663895,0.04398319870233536,-0.32639601826667786,-0.014166848734021187,0.058561839163303375,-0.7513932585716248,-0.3578897714614868,-0.0756763443350792,-0.81216961145401,-0.39382678270339966,0.9526198506355286,0.03772585093975067,0.5870257019996643,0.3164460062980652,-0.13083617389202118,0.19750487804412842,0.4416133165359497,-0.39493033289909363,-0.09373409301042557,0.9787366390228271,-0.45876920223236084,0.9949106574058533,0.08257727324962616,-0.32327020168304443
task_00037,-0.4367513060569763,0.07515165209770203,0.1572561264038086,0.02671080455183983,0.2977566719055176,0.07500497996807098,-0.22737954556941986,0.24846988916397095,0.21504175662994385,-0.20207417011260986,0.08745990693569183,0.1261887401342392,0.1069987416267395,-0.7000926733016968,-0.48260465264320374,0.07703830301761627,0.1687837690114975,0.16393233835697174,-0.35830390453338623,-0.20000271499156952,0.3987388610839844,-0.23629970848560333,0.10967531055212021,-0.05800396949052811,-0.06992767006158829,0.35891488194465637,0.01478824857622385,-0.240817591547966,0.11186864972114563,-0.4422784745693207,-0.3697216212749481,0.47908106446266174,0.34856855869293213,-0.282707154750824,-0.18184611201286316,0.17915743589401245,-0.05065230280160904,-0.12300387769937515,0.3884076774120331,-0.3288629353046417,0.18471243977546692,0.13706074655056,-0.8683575391769409,-0.0575166754424572,0.44994863867759705,-0.25473394989967346,-0.16819189488887787,-0.08345939964056015,-0.044002193957567215,0.10025136172771454,-0.002429775195196271,0.09324110299348831,0.6488789916038513,0.09171785414218903,0.34449392557144165,0.09436143189668655,0.8987894058227539,-0.12678518891334534,0.16045093536376953,0.4490656554698944,-0.5760894417762756,0.1550695300102234,-0.3567217290401459,0.10222721844911575
task_00038,0.2580162286758423,0.31275010108947754,0.20799200236797333,-0.7124868035316467,0.22784316539764404,-0.09875737875699997,0.5207633972167969,0.28533273935317993,-0.770514726638794,-0.27860772609710693,0.2128395140171051,0.2660941779613495,0.6808409094810486,0.525970995426178,0.3917403519153595,0.19024015963077545,0.2571927309036255,0.06389749050140381,-0.0020781136117875576,-0.14733922481536865,-0.6699661612510681,-0.4319917559623718,-0.42190656065940857,0.33908775448799133,0.3107075095176697,-0.1902121752500534,0.6893258690834045,0.35544729232788086,-0.7053215503692627,-0.5635754466056824,0.5951825380325317,-0.10236413776874542,0.08640332520008087,-0.42691659927368164,-0.48978811502456665,0.043828483670949936,-0.23999930918216705,-0.07917898148298264,0.05177509784698486,-0.6741763949394226,-0.5209056735038757,-0.2622222900390625,-0.27137866616249084,0.5477568507194519,-0.10969260334968567,-0.1984289139509201,-0.11200292408466339,0.6283000111579895,-0.4172059893608093,-0.05265947803854942,0.06842968612909317,0.04938151314854622,-0.1637391597032547,0.12116833031177521,-0.08256858587265015,-0.05545957013964653,0.4850502014160156,0.28890347480773926,-0.1816457360982895,-0.18528729677200317,-1.0327949523925781,0.32252800464630127,-0.15828336775302887,0.12583540380001068
task_00039,0.023071164265275,-0.18661418557167053,0.11329156160354614,0.12492480129003525,0.028648197650909424,-0.17860792577266693,0.009569734334945679,0.2298453450202942,-0.050467632710933685,-0.3711192309856415,-0.04332989081740379,-0.2943250834941864,0.1446855366230011,-0.27885711193084717,0.1682683676481247,-0.39929723739624023,0.2004835307598114,-0.14347904920578003,0.696850597858429,-0.05207938700914383,0.06543967127799988,-0.6356192827224731,-0.1735841929912567,0.22165286540985107,0.2758413851261139,0.053446605801582336,0.313034325838089,-0.14361819624900818,-0.26939061284065247,0.1312975287437439,-0.6409448385238647,0.4260604679584503,0.14131122827529907,0.06394342333078384,0.3688427209854126,0.03144549950957298,-0.17213518917560577,0.25609222054481506,0.4367815852165222,-0.10294981300830841,0.02349587343633175,-0.37140581011772156,0.28137072920799255,0.18045656383037567,0.2576363682746887,-0.25437793135643005,-0.15857753157615662,0.4602058529853821,-0.13319239020347595,-0.13972333073616028,0.5406805872917175,-0.06218017637729645,-0.3356233239173889,0.10236664116382599,0.13992737233638763,0.3031077980995178,0.6804583072662354,-0.22005590796470642,-0.12954933941364288,0.1448824554681778,-0.10184171795845032,-0.05544910207390785,-0.23623549938201904,0.021564774215221405
task_00040,0.18158583343029022,0.1498682200908661,0.29139283299446106,-0.13107092678546906,-0.7647780179977417,-0.029667573049664497,0.48554885387420654,-0.4989692270755768,-0.5661284327507019,-0.1424659639596939,-0.2553309202194214,-0.11301223188638687,0.2886306643486023,0.14652736485004425,0.08456885069608688,0.12655584514141083,-0.8896742463111877,-0.28059178590774536,0.49159619212150574,-0.11556335538625717,-0.14751039445400238,-0.6355882287025452,0.2595808506011963,0.44417521357536316,0.4256892502307892,-0.3218994140625,0.27636516094207764,-0.39675119519233704,0.051287367939949036,-0.34420767426490784,0.13651856780052185,-0.2897440195083618,-0.11492697149515152,-0.2414739429950714,0.37639662623405457,0.04142947867512703,0.25739365816116333,-0.4737303853034973,0.026402978226542473,-0.5527842044830322,-0.2585688531398773,0.12653806805610657,-0.09384341537952423,0.29510948061943054,-0.27153289318084717,-0.3770257532596588,0.3616122007369995,0.10659494251012802,-0.4363904297351837,0.13668283820152283,-0.4833970367908478,-0.14088642597198486,0.3997442424297333,0.730984628200531,0.14888346195220947,0.34395286440849304,0.4265136420726776,0.2128324657678604,-0.3128470778465271,0.31182241439819336,-0.6118036508560181,0.2001921683549881,-0.4822641611099243,0.524198591709137
task_00041,-0.5357432961463928,-0.16179387271404266,-0.5106595158576965,-0.024800656363368034,-0.4615609347820282,-0.2817290425300598,0.552788496017456,0.880997359752655,-0.23402394354343414,0.15393352508544922,0.1021365374326706,-0.44603997468948364,0.4647257924079895,-0.3502821624279022,-0.004004864953458309,-0.32088640332221985,0.8249837756156921,-0.22705891728401184,-0.4750598669052124,-0.15341557562351227,-0.03673577308654785,0.2806656062602997,0.5012704133987427,-0.16931352019309998,0.19403168559074402,0.16564559936523438,0.10330525785684586,-0.3015984296798706,0.32831263542175293,-0.14344044029712677,0.5127080082893372,0.5631438493728638,0.13663621246814728,-0.3411653935909271,0.2816772758960724,0.5798385143280029,-0.22350625693798065,-0.2742476463317871,0.5697683095932007,-0.07162956148386002,-0.03918446600437164,-0.20497450232505798,-0.09006819128990173,0.18461118638515472,-0.11876288056373596,0.17957527935504913,-0.36191684007644653,0.43046459555625916,-0.14280647039413452,0.37116843461990356,0.3257933557033539,0.15635892748832703,-0.3221830725669861,0.15502844750881195,0.753538191318512,-0.8488122224807739,0.20779471099376678,-0.12453418970108032,0.5976627469062805,0.1789490133523941,-0.051814086735248566,0.04373595491051674,-0.373585969209671,-0.20134951174259186
task_00042,-0.04893733933568001,-0.14257539808750153,-0.11816100776195526,-0.397638738155365,0.12475943565368652,-0.08198871463537216,0.5312473773956299,0.008181351236999035,0.015477675944566727,-0.01932534947991371,-0.24496331810951233,-0.0568392351269722,0.1998012363910675,-0.11297521740198135,0.009039610624313354,-0.12494105845689774,0.49800440669059753,-0.3532751500606537,0.26380032300949097,0.27384716272354126,-0.15139120817184448,0.20629790425300598,0.6235554218292236,0.14754419028759003,0.000993282301351428,-0.07195007801055908,-0.11953089386224747,0.12334536015987396,-0.03926103189587593,0.29752445220947266,0.06344623118638992,0.35362836718559265,-0.4416574537754059,-0.20466773211956024,0.18829219043254852,-0.2562239468097687,-0.07902580499649048,0.03991171717643738,0.45786213874816895,-0.24146685004234314,-0.13648578524589539,-0.32917797565460205,0.0837029442191124,-0.08223738521337509,-0.3091721832752228,0.017530199140310287,0.043197114020586014,0.38593775033950806,-0.3600676357746124,-0.016040325164794922,-0.0667385682463646,-0.16983918845653534,0.06939426064491272,0.5999743342399597,0.19138403236865997,0.05848046392202377,0.768329381942749,-0.2724420726299286,0.1544809639453888,-0.07048708945512772,-0.13374345004558563,0.6600107550621033,0.13630446791648865,0.34969601035118103
task_00043,0.141139954328537,0.20070531964302063,-0.3130481541156769,-0.3815322518348694,-0.19000332057476044,-0.42607632279396057,-0.019310563802719116,-0.4140726625919342,0.24219758808612823,-0.08649025857448578,-0.05414518341422081,0.11421609669923782,-0.04883689805865288,-0.1804516762495041,0.28591692447662354,0.019073808565735817,0.5599958300590515,-0.21243314445018768,0.0774468258023262,0.03614923357963562,-0.4085652828216553,-0.2555549144744873,0.3812407851219177,0.06247401610016823,-0.12874126434326172,0.13665151596069336,-0.06735223531723022,0.025813840329647064,-0.5026757121086121,0.2476149946451187,-0.2060685008764267,-0.0065924022346735,0.3324137330055237,0.11298690736293793,0.05958279222249985,0.21678082644939423,0.07332193106412888,0.1510510891675949,0.05906227231025696,-0.4641690254211426,0.3139115273952484,-0.19470937550067902,0.4806745946407318,0.3587363362312317,0.20123638212680817,-0.07151039689779282,0.2473866492509842,0.21372707188129425,0.02434660866856575,-0.34967419505119324,-0.04362858086824417,-0.012442382052540779,0.39640265703201294,0.7906751036643982,-0.17120832204818726,0.054187145084142685,0.6212300658226013,0.19682566821575165,0.015433885157108307,0.35220474004745483,0.43142545223236084,-0.07267320901155472,-0.3573840856552124,-0.10093177109956741
task_00044,0.4585597515106201,0.3583957254886627,-0.37933918833732605,0.05758367106318474,0.11265995353460312,-0.4412895739078522,0.5498549342155457,0.043901484459638596,-0.5730260610580444,0.3420984447002411,-0.10507214069366455,0.485252320766449,-0.1299857795238495,0.3315442204475403,0.008039141073822975,-0.061297740787267685,-0.3973114788532257,-0.3372592628002167,0.47909724712371826,0.19543784856796265,0.30632656812667847,0.09205105900764465,-0.3592613935470581,0.09226223081350327,0.6327436566352844,0.5739328265190125,0.034654680639505386,0.3964903950691223,0.07330717891454697,-0.4368211328983307,0.001450620125979185,0.35259494185447693,0.5041391849517822,-0.5414420366287231,0.21455852687358856,0.5163252353668213,-0.25978216528892517,-0.12100231647491455,0.8716810941696167,-0.28826549649238586,0.26847389340400696,-0.5200055837631226,-0.01872207596898079,-0.011908305808901787,0.226776123046875,-0.19017773866653442,0.40805333852767944,-0.4062293469905853,-0.556316614151001,-0.2840215563774109,0.5317777395248413,-0.38581767678260803,-0.3879435360431671,0.16444964706897736,0.3194119930267334,0.23762033879756927,0.9476383328437805,-0.1978517770767212,0.33166441321372986,-0.41259410977363586,-0.016061916947364807,0.2883644700050354,-0.20585410296916962,0.3775974214076996
task_00045,-0.1344609409570694,-0.1564754694700241,-0.15890324115753174,-0.5711543560028076,-0.48504918813705444,-0.055151086300611496,0.02236645109951496,-0.1386205404996872,-0.1628248244524002,-0.6500824093818665,-0.18132124841213226,-0.18404223024845123,-0.10962720960378647,0.944487452507019,0.33061689138412476,-0.05374491959810257,0.02313349023461342,-0.013253326527774334,-0.014800331555306911,-0.036400243639945984,0.2639879882335663,0.12811711430549622,-0.11351978033781052,-0.12999145686626434,0.7144365310668945,0.007267422042787075,0.3891788423061371,-0.33322790265083313,-0.28588011860847473,-0.2847464978694916,-0.150674968957901,0.15886278450489044,-0.28361475467681885,-0.02196040004491806,0.21420271694660187,0.2460542470216751,-0.460580974817276,-0.057315804064273834,0.44373878836631775,-0.7559227347373962,-0.3786427676677704,-0.8869733810424805,-0.20278505980968475,-0.2970501482486725,-0.16805438697338104,0.4578752815723419,-0.39031514525413513,0.15755881369113922,-0.5300585627555847,0.5386738777160645,-0.21562547981739044,-0.40929001569747925,0.2610659599304199,0.5200886130332947,-0.2893822491168976,-0.23650069534778595,0.8260515332221985,0.2239905148744583,-0.20312342047691345,0.21331332623958588,-0.28440994024276733,0.2704813480377197,0.21796223521232605,-0.04765748605132103
task_00046,0.5913384556770325,0.02498064935207367,0.019981171935796738,0.43933984637260437,0.38388165831565857,-0.07545206695795059,0.1819782555103302,-0.07013164460659027,0.14201144874095917,0.5351523756980896,-0.01661023497581482,0.09900622069835663,0.09844519197940826,-0.5227306485176086,0.009627507999539375,-0.06982407718896866,-0.029361462220549583,-0.3949986696243286,0.39321380853652954,-0.13511481881141663,-0.35027533769607544,-0.569741427898407,-0.1606810837984085,-0.1668916940689087,0.0785488560795784,0.10625395178794861,-0.48271599411964417,-0.1354859322309494,-0.3076624572277069,0.23571337759494781,0.04719897359609604,-0.3101922869682312,0.20057412981987,-0.3168801963329315,0.3298119902610779,0.07408526539802551,0.12132471799850464,0.6684895157814026,0.7719464302062988,0.1328064352273941,0.049632325768470764,-0.2755334973335266,-0.24885743856430054,-0.07609156519174576,0.6537118554115295,0.10197912156581879,-0.09279892593622208,0.39124494791030884,-0.0840577632188797,0.097640261054039,-0.06022791936993599,-0.07585521042346954,0.3756027817726135,-0.03699711710214615,0.6107115745544434,0.02814323827624321,0.5344951152801514,0.3023742437362671,0.6425952911376953,-0.23776917159557343,0.11239742487668991,0.061430804431438446,-0.4307863414287567,-0.356511652469635
task_00047,-0.0706695169210434,-0.4870961904525757,-0.19068379700183868,0.11051709949970245,0.06494447588920593,0.1513889580965042,-0.14224213361740112,0.013321398757398129,-0.11614196002483368,0.0003673972678370774,-0.2026875913143158,-0.29791224002838135,-0.01259085163474083,-0.029322180896997452,-0.37013864517211914,-0.1714695394039154,0.08875367045402527,-0.15288515388965607,0.3776424527168274,0.10099854320287704,0.13038712739944458,-0.5016462802886963,-0.10625869035720825,-0.1711507886648178,0.03307768329977989,-0.05989571288228035,0.1949998438358307,0.40992918610572815,-0.25046077370643616,-0.27497392892837524,0.29585543274879456,0.30497491359710693,-0.16173405945301056,-0.6467214822769165,-0.02708231844007969,-0.38118627667427063,0.18962956964969635,-0.293265163898468,0.11168503016233444,-0.27563485503196716,-0.17066527903079987,-0.029725532978773117,0.3629486560821533,0.13294531404972076,0.2676224410533905,-0.34521326422691345,0.21476371586322784,0.30387651920318604,0.40619996190071106,0.15351757407188416,-0.09874055534601212,-0.19997280836105347,-0.3228484094142914,0.4988008439540863,-0.05626076087355614,0.12520501017570496,0.6010940074920654,-0.39221665263175964,0.1387154906988144,0.10911914706230164,0.2143440842628479,0.0011440638918429613,-0.5768153071403503,-0.0011259266175329685
task_00048,0.1487681269645691,-0.38343000411987305,0.34150776267051697,-0.19549019634723663,-0.5171241164207458,-1.1406433582305908,0.9704523086547852,0.4990729093551636,-0.5908775925636292,-0.24676266312599182,0.3565695881843567,0.1890917420387268,-0.17907212674617767,-0.2745749056339264,-0.08882375061511993,-0.07823164761066437,0.8767831921577454,0.42800772190093994,-0.7764037251472473,-0.48724809288978577,-0.7989957332611084,-0.13373416662216187,0.023245573043823242,0.6928213238716125,0.5243664979934692,0.385513037443161,-0.38282352685928345,-0.0800737738609314,-0.43487048149108887,0.3140958845615387,0.35638052225112915,-0.3633284270763397,-0.6180890798568726,0.2629491686820984,0.0022805118933320045,-0.16173434257507324,0.8729410171508789,0.66969895362854,0.810221791267395,0.7160655856132507,-0.6643275022506714,-0.25753530859947205,0.27957093715667725,0.09054060280323029,-0.4422396123409271,0.07798153907060623,-0.22367843985557556,0.27649009227752686,0.1928982138633728,0.5133557319641113,-0.16106335818767548,0.7079331278800964,0.7925798892974854,0.04170888662338257,-0.1445424109697342,0.41873928904533386,1.1234573125839233,0.4835284948348999,-0.34293052554130554,0.9663428664207458,0.8511986136436462,0.08191055804491043,0.012500738725066185,-0.120595782995224
task_00049,-0.16880221664905548,-0.20037119090557098,0.2947159707546234,0.030900107696652412,-0.2502896785736084,0.11269541829824448,-0.4156385362148285,0.04716917499899864,-0.3762413561344147,0.05113848298788071,-0.03624871373176575,-0.2698807120323181,0.13324286043643951,-0.069577157497406,0.09257319569587708,-0.7255896925926208,-0.04235796630382538,0.32829761505126953,-0.2311132699251175,0.23310072720050812,-0.05252445116639137,-0.8289818167686462,-0.05052432790398598,0.02042371779680252,0.6817139983177185,-0.003829431254416704,-0.31296467781066895,0.18489065766334534,-0.04210587963461876,0.04829925671219826,-0.1936885118484497,-0.12837859988212585,-0.21732813119888306,-0.3568684756755829,0.08539357036352158,-0.266358345746994,-0.41018983721733093,-0.1650841236114502,-0.13713058829307556,0.030169034376740456,0.11267291009426117,-0.47293174266815186,0.025289952754974365,-0.05577714741230011,0.31128445267677307,0.02422778680920601,0.09559926390647888,0.18356530368328094,0.26838523149490356,0.013395411893725395,-0.014398867264389992,-0.20798718929290771,0.037755586206912994,0.44453391432762146,-0.07908280193805695,-0.22894340753555298,0.5421132445335388,0.15105223655700684,0.006423291750252247,0.04153857380151749,-0.007604364305734634,0.5085826516151428,-0.16910339891910553,0.4674316346645355
task_00050,0.2062067985534668,-0.04586006700992584,0.07208757102489471,-0.1482355147600174,0.3703559935092926,-0.06693859398365021,0.3241253197193146,-0.18474045395851135,0.35970109701156616,-0.15287744998931885,0.3301740288734436,-0.49743226170539856,-0.5845566987991333,0.2444372922182083,0.2850625216960907,0.14222292602062225,0.16319331526756287,-0.9389675855636597,0.3624967336654663,-0.27051618695259094,0.5024605393409729,-0.4393308460712433,0.12604299187660217,-0.08533777296543121,-0.31723275780677795,0.7231295704841614,0.03427774831652641,-0.13920679688453674,-0.6788337230682373,0.43812137842178345,-0.477264404296875,0.3406669497489929,-0.39619624614715576,0.7829838991165161,0.6272056102752686,-0.589357316493988,-0.14996330440044403,-0.08944744616746902,0.07463391870260239,0.36607232689857483,0.3084227442741394,-0.1993616372346878,0.26310044527053833,-0.32976317405700684,0.1932189017534256,0.18731261789798737,0.4646676182746887,0.3220627009868622,0.35155487060546875,0.5715629458427429,0.5604979991912842,-0.3576885461807251,0.4355159103870392,0.6117264628410339,0.03282998129725456,-0.2549649775028229,0.5356895923614502,-0.2116335779428482,-0.2590635120868683,0.39837971329689026,0.28819870948791504,0.2669874429702759,0.10694923996925354,0.023139500990509987
task_00051,0.12566307187080383,-0.048180192708969116,-0.044803690165281296,0.5550251603126526,-0.060880884528160095,-0.1198476031422615,-0.1736777275800705,0.41403862833976746,-0.12307094782590866,0.4161030352115631,0.12191910296678543,0.04369883984327316,0.6134859323501587,-0.4511622190475464,-0.21413175761699677,-0.34846144914627075,0.8697700500488281,0.22008585929870605,0.10198533535003662,0.015666034072637558,0.2862899899482727,-0.29363149404525757,0.1337556391954422,0.22730869054794312,-0.17668594419956207,0.24070684611797333,0.4625646471977234,0.14823541045188904,-0.1406279057264328,-0.09092351049184799,0.291353702545166,-0.07103617489337921,0.10971911996603012,-0.42549648880958557,-0.04027297720313072,-0.17731724679470062,0.009540954604744911,0.07061704248189926,0.30684834718704224,-0.6368364095687866,0.2764207422733307,0.06024578958749771,-0.17679786682128906,-0.2556498348712921,0.2031337320804596,0.23059022426605225,0.06676389276981354,0.2658090889453888,-0.11427078396081924,-0.08342435210943222,-0.15733543038368225,0.19564618170261383,0.5270366072654724,0.6877421736717224,-0.05188630521297455,-0.49644649028778076,0.05525302514433861,-0.006992891430854797,-0.4543919563293457,0.3300209939479828,0.1835712343454361,0.10487256944179535,0.1489730030298233,0.47072383761405945
task_00052,-0.32065877318382263,-0.7184815406799316,0.06571511924266815,-0.1197267696261406,-0.32868972420692444,-0.30377307534217834,0.12567895650863647,0.2517967224121094,0.06933634728193283,-0.30641427636146545,0.5072802305221558,-0.021149879321455956,-0.5291761755943298,-0.4065539240837097,-0.22185511887073517,0.03079531341791153,-0.07137890160083771,0.05924566090106964,-0.3102252185344696,-0.4077027142047882,0.2971080541610718,0.329399973154068,-0.12328889966011047,0.30941376090049744,-0.1531558483839035,0.4098660349845886,0.08921083807945251,-0.3200792670249939,-0.7171220779418945,-0.10884608328342438,0.6041892170906067,0.24416130781173706,0.4575466811656952,-0.1614188253879547,0.048797544091939926,0.1279519498348236,-0.4096425771713257,-0.3787636458873749,0.418966144323349,-0.6337974071502686,-0.6762505769729614,0.29188334941864014,0.29248300194740295,-0.3048439919948578,0.00423484668135643,0.3027820587158203,0.33470606803894043,-0.3249041438102722,-0.0712389275431633,0.2419089674949646,0.788188636302948,-0.13082444667816162,-0.5614759922027588,0.5812848806381226,0.20855621993541718,-0.15052518248558044,0.8907305002212524,-0.31929099559783936,-0.07982610166072845,0.3449298143386841,0.561950147151947,0.5921178460121155,0.2571743130683899,0.0939648449420929
task_00053,0.276809424161911,-0.3785156309604645,-0.10833746939897537,0.29826468229293823,0.039493970572948456,0.04382563754916191,-0.2555606961250305,0.5224913358688354,0.27109867334365845,-0.5373538732528687,0.26848310232162476,-0.015228777192533016,0.4384186565876007,0.06378474086523056,-0.08041156083345413,0.2863078713417053,0.12487272918224335,-0.08237163722515106,-0.1014198586344719,-0.19076849520206451,-0.2541445791721344,-0.5485038757324219,-0.3636547029018402,0.28900378942489624,-0.09431558847427368,0.0637568011879921,-0.4451185464859009,0.023266952484846115,-0.1663060039281845,0.2514646351337433,0.03366537019610405,0.3493974208831787,-0.45395657420158386,0.19354622066020966,0.18023177981376648,-0.3979703485965729,0.23017004132270813,-0.23386627435684204,0.1984357386827469,-0.32872024178504944,0.10102123022079468,-0.23510004580020905,0.14597713947296143,-0.030021362006664276,0.06693670898675919,0.17859119176864624,-0.008463447913527489,0.08181009441614151,0.24774637818336487,0.1428859680891037,0.2423919290304184,-0.04520589858293533,-0.16609831154346466,-0.17578615248203278,-0.01868782564997673,-0.37049490213394165,0.5889894962310791,-0.4756260812282562,-0.4316374957561493,0.5762162804603577,0.35831218957901,0.25157153606414795,-0.41816213726997375,-0.3212507665157318
task_00054,-0.35812753438949585,-0.2919721305370331,0.26546886563301086,-0.17586781084537506,0.20177017152309418,-0.1267496794462204,-0.502186119556427,0.07456213235855103,0.330150842666626,-0.043397411704063416,-0.07843050360679626,0.06493856757879257,-0.14307059347629547,0.24592679738998413,0.24174931645393372,-0.023483021184802055,-0.2978730797767639,-0.07875757664442062,0.09288830310106277,0.20855887234210968,0.2523958384990692,0.03946017846465111,0.40098074078559875,0.16483227908611298,-0.32657280564308167,-0.03666234761476517,0.004108987748622894,0.7897189855575562,0.3781731426715851,-0.12733498215675354,-0.14455467462539673,0.22569844126701355,0.1931885927915573,-0.26379019021987915,0.18277877569198608,0.0026879115030169487,-0.11102444678544998,0.013000181876122952,0.2264782339334488,0.2743915617465973,0.14164546132087708,0.029385386034846306,0.27062276005744934,0.1909521073102951,-0.016742059960961342,-0.010749217122793198,0.6063498854637146,0.48314082622528076,-0.0654691681265831,-0.16081015765666962,-0.2167361080646515,-0.47035497426986694,0.03184059262275696,0.5523567795753479,0.13245944678783417,-0.26227933168411255,0.6781289577484131,-0.7309558391571045,-0.408676415681839,0.9525183439254761,-0.2734466791152954,0.34113049507141113,-0.2896740138530731,-0.05992534011602402
task_00055,0.5811848044395447,-0.28633245825767517,0.8433759212493896,-0.21607361733913422,0.025182606652379036,0.30408626794815063,-0.8064653277397156,0.7120918035507202,-0.49722644686698914,-0.33933746814727783,0.6859028935432434,0.5412018299102783,-0.49011173844337463,0.9443812370300293,0.0028631221503019333,0.31721970438957214,-0.4268558919429779,-0.24602451920509338,-0.4489692747592926,1.2937602996826172,0.831092119216919,-0.6781954169273376,-0.29443907737731934,-0.9520441293716431,-0.03636409342288971,-0.4316043257713318,0.0263746976852417,-0.030049897730350494,0.10521410405635834,0.10152578353881836,-0.9350340366363525,-0.6862042546272278,-0.08680212497711182,-0.19991496205329895,-0.038505036383867264,0.3862476646900177,0.5203362703323364,0.06678461283445358,0.1577076017856598,-0.16584156453609467,-0.045442160218954086,0.3582315146923065,0.008624585345387459,0.4691306948661804,-0.21151606738567352,0.27557140588760376,-0.9082878828048706,-0.07566841691732407,-0.3276115953922272,0.5192210078239441,0.4389289319515228,0.46028488874435425,0.49558693170547485,0.10220030695199966,0.762067437171936,0.959201991558075,0.4239584803581238,-0.6597366333007812,0.17611651122570038,0.29271578788757324,0.49600741267204285,1.1401108503341675,0.5096157193183899,-0.9808306097984314
task_00056,0.14511238038539886,-0.07620764523744583,-0.04782402142882347,0.09847218543291092,0.31640079617500305,0.18566074967384338,0.34288838505744934,-0.0018108048243448138,0.17093682289123535,0.3729201555252075,-0.22934889793395996,0.18203674256801605,0.33169546723365784,0.1885254681110382,-0.2821848392486572,-0.21588335931301117,0.1757185012102127,-0.6322298645973206,0.685241162776947,-0.02103499323129654,-0.26705238223075867,-0.09399497509002686,0.1653253138065338,0.1831352263689041,-0.10956525802612305,-0.09152263402938843,-0.18752019107341766,0.04465526342391968,-0.29733508825302124,0.21008579432964325,-0.0034975260496139526,0.0890125036239624,-0.39471784234046936,0.07079676538705826,0.10272945463657379,0.33783552050590515,0.6709669828414917,0.41169473528862,-0.010889563709497452,-0.5917587876319885,0.322214275598526,-0.1530640721321106,-0.549537181854248,-0.22629261016845703,0.0036794443149119616,0.5651023387908936,-0.4462015926837921,0.0014786685351282358,0.20103414356708527,0.0066390736028552055,0.15235815942287445,-0.35396721959114075,0.12049110233783722,-0.025203045457601547,-0.2639930546283722,-0.19304336607456207,0.4886511564254761,0.24364648759365082,0.14366742968559265,0.12134033441543579,-0.5113058686256409,0.16008734703063965,-0.3598911464214325,-0.1338920146226883
task_00057,0.4588484764099121,-0.608693540096283,0.8362969756126404,-0.32250434160232544,0.14039196074008942,0.15721534192562103,-0.024039488285779953,0.3813960552215576,-0.3204971253871918,-0.06926938146352768,-0.21702319383621216,-0.5697246789932251,0.014223148114979267,0.30197790265083313,0.5344657897949219,-0.5276452302932739,0.43035340309143066,0.5005882382392883,-0.0713021531701088,-0.22349850833415985,0.33927100896835327,-1.3673245906829834,0.09096025675535202,-0.4303496479988098,0.6898396015167236,0.16777193546295166,-0.7307000160217285,-0.32919445633888245,-0.8662991523742676,-0.04464316740632057,-0.31690627336502075,0.21052347123622894,0.14077794551849365,0.6584847569465637,-0.019035063683986664,-0.010785075835883617,-0.061296191066503525,0.14883893728256226,0.13084721565246582,-0.4108380675315857,-0.30377650260925293,-0.24754580855369568,-0.1371680349111557,-0.10837145894765854,0.38237264752388,-0.2648133635520935,-0.08507698774337769,0.04701622202992439,-0.15840940177440643,-0.610435962677002,-0.4230225086212158,-0.1296931654214859,-1.1523821353912354,0.9325443506240845,-0.06464055925607681,-0.14223606884479523,0.7314958572387695,-0.09950753301382065,-0.04862517490983009,0.4818035066127777,0.2408544272184372,-0.17564202845096588,-0.5363079309463501,0.572236180305481
task_00058,0.04132141172885895,0.017449254170060158,-0.0342893972992897,-0.6386852264404297,-0.03297525644302368,0.05536220595240593,0.39221054315567017,-0.188080295920372,-0.07219067215919495,-0.17828291654586792,-0.26609861850738525,0.5082782506942749,-0.06152036041021347,-0.18273693323135376,-0.07735521346330643,0.2360500693321228,0.0077123381197452545,-0.26262331008911133,-0.7758404612541199,0.5343214869499207,-0.4429364800453186,-0.47170281410217285,-0.09254395961761475,-0.27015170454978943,0.14476564526557922,-0.419587641954422,0.19392389059066772,0.40659287571907043,-0.6660109758377075,0.041267573833465576,-0.07762157917022705,-0.09764646738767624,0.21511133015155792,-0.5290250182151794,-0.5638554692268372,-0.5846240520477295,-0.42498016357421875,-0.15030014514923096,0.3022553026676178,-0.4242188036441803,-0.026171023026108742,-0.28043195605278015,-0.41205891966819763,0.4202148914337158,0.12801513075828552,0.1381518393754959,-0.14968009293079376,0.02410232275724411,-0.4766691029071808,0.6969015002250671,0.5935449004173279,-0.5881761908531189,0.8591511249542236,0.13808582723140717,0.27881860733032227,-0.03506937623023987,0.2797565162181854,-0.28247934579849243,0.011961579322814941,0.2847828269004822,-0.3222960829734802,0.04820352420210838,-0.2061799019575119,0.33397752046585083
task_00059,0.053155262023210526,0.3389308750629425,0.012493194080889225,-0.20738498866558075,-0.1868382692337036,-0.3963710367679596,0.18304866552352905,0.38327983021736145,-0.06800881028175354,-0.22432434558868408,0.21718063950538635,0.5256564021110535,0.19569872319698334,0.3239209055900574,-0.03967089205980301,-0.0013160197995603085,0.16777996718883514,-0.25575411319732666,0.1623145490884781,0.010108279064297676,-0.20276227593421936,-0.3283117115497589,0.46061041951179504,0.021889163181185722,0.16266439855098724,-0.5191411375999451,0.1174188032746315,-0.3516574501991272,-0.2660176753997803,0.23350103199481964,-0.3862493634223938,-0.12219841033220291,-0.23034510016441345,-0.3078192174434662,-0.1486252248287201,0.37004563212394714,0.39658522605895996,-0.1661103516817093,0.5058512687683105,0.6042494177818298,-0.1423247754573822,0.14670106768608093,-0.09115742892026901,-0.01625610701739788,-0.014974106103181839,0.4002297818660736,0.06439243257045746,0.14960652589797974,-0.33549925684928894,0.1249673068523407,-0.2885235548019409,0.004881693050265312,-0.2203100323677063,0.5564408302307129,-0.3272503912448883,0.3653477728366852,0.412145733833313,-0.28837358951568604,-0.4513901174068451,0.09262636303901672,0.2360576093196869,0.6387351155281067,-0.019330350682139397,-0.14136169850826263
task_00060,0.18735221028327942,0.3114931881427765,-0.17720656096935272,0.46855804324150085,-0.2973722815513611,0.386932373046875,0.34880712628364563,-0.23906680941581726,-0.5333589315414429,-0.1664850264787674,-0.10160280019044876,-0.14535799622535706,0.17871122062206268,0.22033068537712097,-0.3821917474269867,-0.16419248282909393,0.06711161881685257,-0.18749147653579712,0.03050563670694828,-0.0689011886715889,0.24145948886871338,-0.1116320788860321,0.030388467013835907,0.20373833179473877,-0.32870590686798096,-0.04444914311170578,-0.0002438292431179434,0.10805608332157135,-0.0620797798037529,0.22364450991153717,-0.31929925084114075,-0.30590230226516724,0.3372764587402344,-0.08639208972454071,-0.25755831599235535,0.24165768921375275,0.09820695966482162,0.16268031299114227,0.056358274072408676,-0.40188369154930115,-0.45032837986946106,-0.4435901939868927,0.4090525507926941,-0.3339401185512543,0.44788241386413574,0.05807957798242569,-0.11294115334749222,0.12288779765367508,-0.051499973982572556,-0.15813495218753815,0.7408297657966614,-0.11486895382404327,0.14912919700145721,0.4422132968902588,0.36412331461906433,0.22925369441509247,0.5337345600128174,-0.360843300819397,-0.2568042278289795,-0.07145979255437851,0.2076674848794937,-0.0372798889875412,-0.5538731813430786,0.060467272996902466
task_00061,0.16413116455078125,-0.13720718026161194,0.26890119910240173,-0.3063366115093231,-0.31936755776405334,-0.31305113434791565,0.8125984072685242,0.3996484577655792,0.055585384368896484,0.10675417631864548,0.23716941475868225,-0.5035625100135803,0.014941148459911346,0.19941526651382446,-0.1785927414894104,-0.22989313304424286,-0.07093563675880432,0.09672614932060242,-0.07113160192966461,0.2975819408893585,-0.28735628724098206,-0.2854839265346527,-0.24242381751537323,-0.17401455342769623,0.020741650834679604,-0.21900056302547455,0.0018589976243674755,-0.14079387485980988,-0.25927212834358215,-0.17724837362766266,0.07195962220430374,-0.26331010460853577,0.23153063654899597,-0.20945391058921814,0.2328299880027771,-0.06734377145767212,0.10440652072429657,0.08567944169044495,0.04753667861223221,0.23388078808784485,0.35072702169418335,-0.06313301622867584,-0.2857874035835266,0.05939096957445145,0.060895007103681564,0.06252197176218033,0.30522432923316956,0.6767547726631165,-0.34174010157585144,0.06232200935482979,0.23012924194335938,0.1461431235074997,0.589959442615509,0.34577611088752747,-0.11022346466779709,-0.16569256782531738,0.5880714654922485,-0.14102379977703094,-0.07374389469623566,-0.13741959631443024,-0.020809346809983253,0.10706223547458649,-0.46752750873565674,-0.20617549121379852
task_00062,-0.003975885920226574,-0.0469091571867466,-0.1607028990983963,0.2585573196411133,-0.18777982890605927,-0.4211438000202179,0.5057966113090515,-0.32605814933776855,-0.12513571977615356,-0.5308911800384521,-0.12373102456331253,0.07486266642808914,0.1307716965675354,-0.0896570160984993,-0.350180447101593,-0.3605591058731079,-0.2430134117603302,0.20495788753032684,-0.06758424639701843,0.3387767970561981,0.155722513794899,0.0010201463010162115,-0.2915585935115814,0.25216034054756165,0.21550968289375305,-0.2141290307044983,0.37911680340766907,-0.1671072542667389,0.03288787975907326,0.18686552345752716,-0.3325614631175995,0.16742390394210815,0.1756017953157425,0.10522182285785675,-0.1717279553413391,0.10711687058210373,0.5516711473464966,0.07791983336210251,0.1532953828573227,0.18778492510318756,-0.18307164311408997,0.1553071141242981,-0.1394513100385666,0.20514771342277527,0.2944423258304596,0.2850029170513153,-0.1810295134782791,0.6989722847938538,0.09519589692354202,-0.24593766033649445,-0.029599323868751526,-0.1427811086177826,-0.03474397212266922,0.7490399479866028,0.08470945060253143,-0.41151854395866394,0.7593031525611877,-0.19897352159023285,-0.09062870591878891,-0.014723571948707104,0.007627477403730154,0.4736720323562622,0.28462332487106323,0.3671697676181793
task_00063,0.740484893321991,-0.34503400325775146,-0.04464735463261604,-0.024278700351715088,0.6624189615249634,0.6536121964454651,-0.030819647014141083,0.8536370396614075,0.3139664828777313,0.5554247498512268,-0.3988986611366272,-1.168257713317871,-0.34149035811424255,0.46123024821281433,-0.35525453090667725,-1.1046102046966553,0.1892087757587433,-0.20046399533748627,0.06550976634025574,0.11287015676498413,0.8046247363090515,-0.1080501601099968,0.012054986320436,-0.22705431282520294,0.21473564207553864,-0.061789076775312424,0.09743752330541611,-0.034798260778188705,-0.6221311092376709,-0.5090892314910889,0.05189158022403717,-0.6074646711349487,0.3283570408821106,0.20266073942184448,0.6254023313522339,0.37029150128364563,0.5876098275184631,0.5358185768127441,0.10961665213108063,-0.5191702842712402,-0.2605920135974884,0.27140504121780396,-0.3077746033668518,0.051803089678287506,-0.08009642362594604,1.1540402173995972,-0.2881854474544525,0.12445632368326187,0.5008493065834045,-0.5396836400032043,0.5940072536468506,-0.8435227870941162,-0.14634422957897186,0.23926737904548645,-0.18885737657546997,-0.672081708908081,0.8525390028953552,-0.5303641557693481,-0.005254447925835848,-0.2687159776687622,-0.24840831756591797,0.2206754982471466,-0.4912363588809967,0.46002891659736633
task_00064,0.20729544758796692,0.12610366940498352,0.008797424845397472,0.04340789094567299,-0.16781313717365265,-0.6910977363586426,-0.4901978671550751,0.09578870236873627,-0.2675473093986511,-0.02970406971871853,-0.16528043150901794,-0.08315131813287735,0.2966958284378052,-0.11653714627027512,0.02223898284137249,-0.20188142359256744,-0.0027405836153775454,-0.01668800786137581,-0.1991833597421646,0.5806021094322205,-0.25394782423973083,-0.09859152883291245,-0.4961611330509186,0.3193642199039459,-0.11986755579710007,0.09062609821557999,0.30237439274787903,-0.3181072771549225,0.1601833701133728,0.004579841159284115,-0.3643867075443268,0.003771919757127762,-0.006770510226488113,-0.41583704948425293,0.8514227867126465,0.26597997546195984,-0.06188563257455826,0.0869598314166069,0.5134873986244202,-0.07778013497591019,0.27488255500793457,0.02313755266368389,-0.5191791653633118,0.02276419848203659,-0.023498017340898514,0.0002502819988876581,0.2732917070388794,0.2351737767457962,0.13461463153362274,0.038443759083747864,0.11304707080125809,0.22444672882556915,0.5644484162330627,0.35551127791404724,-0.3769858181476593,0.25839170813560486,0.8562552332878113,-0.05720660835504532,0.011860080063343048,-0.18991145491600037,0.16049160063266754,-0.003340828465297818,-0.5638682246208191,-0.08546468615531921
task_00065,0.27471721172332764,0.19060321152210236,-0.0337899848818779,-0.3635662794113159,-0.09656275808811188,0.2616664171218872,0.14778722822666168,-0.10254675149917603,-0.5102741122245789,0.057814985513687134,-0.1725505143404007,-0.48726627230644226,0.00721411919221282,-0.09758728742599487,-0.012111094780266285,0.1592978835105896,0.10221710801124573,0.1218864768743515,-0.10208266228437424,0.00604130607098341,0.3969957232475281,-0.3508540093898773,-0.16342246532440186,-0.044817328453063965,-0.08240661025047302,0.1884990930557251,0.10673120617866516,-0.5293319821357727,0.09757857769727707,-0.23386530578136444,-0.311410129070282,0.2863524854183197,0.016412196680903435,0.06461738795042038,-0.05909644812345505,-0.12274640798568726,-0.05006978288292885,0.11866848915815353,0.3579791784286499,-0.3204251229763031,0.08985628187656403,-0.21107375621795654,-0.3125368058681488,0.42510873079299927,0.2749745547771454,0.1900315135717392,0.10322722047567368,0.22125029563903809,-0.29158926010131836,-0.1597488522529602,-0.16202658414840698,-0.0554824024438858,0.024668842554092407,0.6093880534172058,-0.04272089898586273,-0.4880536198616028,0.33439990878105164,-0.10284829139709473,-0.021389808505773544,0.08293738961219788,0.17478708922863007,0.22673779726028442,-0.28818973898887634,0.46650058031082153
task_00066,-0.1562809944152832,0.3438575863838196,0.01493062824010849,-0.4244157075881958,0.49945929646492004,-0.03658731281757355,0.041053637862205505,0.10910159349441528,0.3089028000831604,0.11877252161502838,-0.03425390273332596,-0.37751179933547974,0.4728564918041229,-0.0744096115231514,0.3312896192073822,-0.08758493512868881,-0.1077515184879303,-0.14679747819900513,-0.07822777330875397,0.1108022928237915,-0.05379670485854149,0.29788899421691895,-0.5404952764511108,0.5619661808013916,0.23657380044460297,-0.09349609911441803,0.05633322894573212,0.3108461797237396,-0.6105626225471497,-0.0839119479060173,0.10816225409507751,-0.23455296456813812,0.3243778347969055,0.37107640504837036,0.42780646681785583,0.10905375331640244,0.04231194406747818,-0.07823625206947327,0.20586402714252472,-0.45434024930000305,-0.21322306990623474,-0.11453427374362946,0.24800455570220947,-0.10271836072206497,-0.0897480770945549,0.470393568277359,-0.10536619275808334,0.1784922182559967,-0.10235102474689484,-0.057714201509952545,0.42969396710395813,0.25185129046440125,0.22094981372356415,0.464983731508255,0.2649994492530823,-0.5516794323921204,0.4592561721801758,0.34423744678497314,-0.3653869330883026,0.30559277534484863,0.2718135416507721,0.6186618208885193,-0.5274534225463867,0.31334659457206726
task_00067,-0.10060779005289078,-0.32854121923446655,0.14569751918315887,-0.4797508120536804,0.017498111352324486,-0.0036882476415485144,0.012382473796606064,-0.08546797186136246,-0.1829664409160614,-0.4644181728363037,0.46303099393844604,0.07919918745756149,-0.1919405609369278,-0.3111341893672943,-0.10803874582052231,0.41005566716194153,0.3919275999069214,0.023297695443034172,0.05553898960351944,-0.058519087731838226,-0.11085810512304306,0.14527404308319092,0.06252182275056839,0.021524513140320778,0.2863791286945343,0.6593345403671265,0.24378803372383118,-0.1964661031961441,-0.07979819178581238,-0.34156349301338196,-0.2532919943332672,-0.5127720832824707,-0.6156435608863831,0.1699581742286682,-0.01728072762489319,0.009400825016200542,0.044235408306121826,0.10505299270153046,0.49321258068084717,-0.0542314387857914,-0.06804852187633514,0.06854098290205002,0.0720844715833664,0.22708159685134888,-0.17282690107822418,0.3353446424007416,-0.3184991180896759,-0.03990442305803299,0.006555156782269478,-0.1881912350654602,0.12200368195772171,-0.2044644057750702,-0.035591475665569305,0.6023751497268677,0.2419118732213974,0.6247400641441345,0.8522099852561951,-0.027952129021286964,-0.19572097063064575,-0.1126621812582016,-0.2157464474439621,0.9075942039489746,0.22950254380702972,-0.03148043528199196
task_00068,0.22343140840530396,0.03533226251602173,0.44862100481987,0.25048795342445374,-0.27435770630836487,-0.06199009343981743,0.2867422103881836,-0.015241346322000027,-0.20396897196769714,-0.27377933263778687,-0.2720463275909424,0.21223613619804382,0.060442399233579636,-0.11043402552604675,0.15842756628990173,0.053885672241449356,0.14636361598968506,-0.2607097923755646,0.03161826357245445,0.04620537534356117,-0.012587448582053185,-0.2589118778705597,0.04980126768350601,-0.300152450799942,0.5411990284919739,0.1272280067205429,-0.06943468749523163,0.5189985036849976,-0.20762686431407928,-0.25045642256736755,0.3689982295036316,-0.15659232437610626,-0.47373104095458984,-0.47479766607284546,0.03319628909230232,0.20463120937347412,0.010590600781142712,0.3076637387275696,0.8007870316505432,-0.08113010972738266,-0.041744206100702286,-0.05341733992099762,-0.0864611566066742,0.03015707992017269,-0.23511487245559692,0.27489179372787476,0.24133051931858063,-0.2055816650390625,0.1099851131439209,-0.6316210031509399,-0.253231406211853,-0.19425059854984283,-0.0683063343167305,0.3172725439071655,-0.21837298572063446,0.14378882944583893,0.5643507242202759,-0.054096005856990814,0.13322660326957703,0.07672633975744247,0.3968313932418823,-0.19101890921592712,-0.8394389748573303,0.5026304125785828
task_00069,0.19435910880565643,0.2116369605064392,-0.33613303303718567,0.06933881342411041,-0.058400630950927734,0.15798647701740265,0.19580788910388947,0.7360097765922546,-0.09866273403167725,-0.0012289431178942323,-0.5760577917098999,0.016670050099492073,0.04534600302577019,-0.19928014278411865,0.15472081303596497,-0.2392381876707077,-0.16601604223251343,0.16385717689990997,0.10612275451421738,0.20232722163200378,-0.1869189292192459,-0.3372579514980316,-0.20984907448291779,-0.06847292184829712,-0.1324560046195984,0.07932678610086441,-0.32932522892951965,0.3983752727508545,0.04344348609447479,0.2304306924343109,-0.6325173377990723,-0.11268748342990875,-0.6433045268058777,0.26609349250793457,0.5283922553062439,-0.49497053027153015,-0.02964160405099392,0.6286611557006836,0.3497353494167328,0.0016328042838722467,0.1378277689218521,0.14998146891593933,0.042739953845739365,-0.06515275686979294,0.015440462157130241,-0.06998573988676071,-0.13339072465896606,-0.3128560483455658,0.3892638385295868,0.537756621837616,0.7680118083953857,-0.018104493618011475,0.0599430650472641,0.7532311677932739,-0.26649603247642517,-0.32601606845855713,0.8342851996421814,-0.38449764251708984,-0.06958237290382385,0.03482753783464432,-0.42153191566467285,-0.06854143738746643,-0.48688453435897827,-0.371918648481369
task_00070,0.32766008377075195,1.125710129737854,0.26996394991874695,-0.012188199907541275,-0.09521796554327011,-0.37116214632987976,-0.01561860740184784,-0.4120287299156189,-0.4665314555168152,0.6000007390975952,0.42092055082321167,1.621593713760376,0.8461230397224426,0.8533099293708801,-0.9611408114433289,-0.06959953904151917,1.321686863899231,-0.12108752876520157,-0.7377253770828247,0.4145946800708771,0.28895628452301025,-0.9305449724197388,-0.5690032243728638,0.2977820336818695,-0.05235789716243744,-0.24761269986629486,0.45340675115585327,-0.6208786964416504,-0.7688026428222656,-0.07735060900449753,0.5114015340805054,0.23710240423679352,-0.6739608645439148,0.5575961470603943,0.0238962322473526,0.23051439225673676,0.37649601697921753,0.07874207943677902,1.0025920867919922,-0.460628479719162,-0.5847728252410889,-0.30661702156066895,-0.599166750907898,0.35756543278694153,0.28918588161468506,0.6945242881774902,1.2328965663909912,-0.12670688331127167,-0.5195034742355347,-0.13461288809776306,0.9349980354309082,-0.437505304813385,-0.3072453737258911,0.07160333544015884,0.09010928124189377,-1.3051990270614624,0.5846814513206482,-0.2676342725753784,-1.3010528087615967,-0.10874033719301224,-0.1534954458475113,0.23818843066692352,0.14466172456741333,0.16805817186832428
task_00071,0.321683406829834,-0.48612144589424133,0.00350739061832428,0.3280474543571472,0.2056383192539215,0.18114642798900604,0.0327390618622303,0.4703672230243683,0.11515956372022629,-0.37989866733551025,0.24537043273448944,-0.06437452882528305,0.4255218505859375,-0.26032477617263794,-0.1705285906791687,-0.025954941287636757,-0.24017110466957092,0.33383241295814514,0.12430749088525772,-0.17059385776519775,-0.41062286496162415,0.17271441221237183,0.14964374899864197,-0.17057374119758606,0.12415511161088943,0.26962026953697205,-0.10399237275123596,-0.31743454933166504,-0.2572879195213318,0.013165177777409554,-0.06894639879465103,0.5029944777488708,0.346027135848999,-0.049142152070999146,-0.13215729594230652,-0.21150170266628265,0.018869424238801003,-0.13192735612392426,0.1083490327000618,-0.12350989133119583,-0.1610730141401291,-0.4639871418476105,-0.10345856100320816,0.32538896799087524,0.10981785506010056,0.4971701204776764,0.034185394644737244,0.34308722615242004,-0.2786158323287964,-0.0675714984536171,-0.287986695766449,0.06745485961437225,0.14852549135684967,-0.29392552375793457,-0.26075616478919983,-0.3916548192501068,0.9573982357978821,0.27133920788764954,0.16407816112041473,0.2172400802373886,-0.4408695101737976,0.47053658962249756,-0.378958135843277,0.010439147241413593
task_00072,0.3242615759372711,0.38021352887153625,-0.6003052592277527,-0.3746160566806793,-0.3762238025665283,0.28825628757476807,-0.27675753831863403,-0.05113106220960617,0.10528074949979782,-0.24151907861232758,0.3489803373813629,-0.5915552973747253,-0.2051144540309906,-0.16329345107078552,-0.019966600462794304,0.35419249534606934,0.010707328096032143,0.16362369060516357,0.7145862579345703,0.205846905708313,0.018329180777072906,-0.06777945160865784,-0.412501722574234,0.4436783492565155,-0.37217891216278076,-0.15810884535312653,0.41636890172958374,-0.6193930506706238,-0.046990685164928436,-0.22579871118068695,-0.3903283178806305,0.020750820636749268,-0.23362183570861816,0.019438376650214195,-0.27805641293525696,-0.08502192050218582,0.4896579086780548,-0.20970389246940613,0.5760570764541626,-0.06172269210219383,0.2064509391784668,0.43124523758888245,0.46933144330978394,-0.1784120351076126,0.19199787080287933,-0.17876316606998444,-0.11783777177333832,0.8964805603027344,-0.59317547082901,-0.2666900157928467,-0.36079248785972595,0.16216520965099335,0.5455692410469055,0.20990051329135895,-0.30707356333732605,-0.63218754529953,0.9256438612937927,0.4755604863166809,-0.3043469190597534,0.490749329328537,-0.4668630063533783,-0.20104557275772095,-0.6544538736343384,0.22502708435058594
task_00073,-0.20018278062343597,-0.26332393288612366,0.08126158267259598,-0.11792933195829391,0.23574198782444,0.7749983668327332,-0.04556528106331825,-0.002182187046855688,-0.4229344129562378,-0.28369060158729553,0.17412343621253967,0.4547201991081238,-0.01101275160908699,-0.19002677500247955,-0.27810144424438477,-0.19411246478557587,-0.08988319337368011,-0.14512264728546143,-0.34384578466415405,-0.2502754032611847,0.05580770596861839,-0.06401217728853226,0.09214265644550323,-0.19178174436092377,0.16033869981765747,0.08810704201459885,0.071092888712883,0.02630162239074707,0.06903867423534393,-0.1399824321269989,0.07343348860740662,-0.43895798921585083,0.27682438492774963,0.4118078947067261,0.8105489015579224,-0.372733473777771,0.7426379323005676,-0.22118374705314636,-0.11744984984397888,0.4011704921722412,-0.7502867579460144,-0.3349679112434387,-0.19594638049602509,0.6106757521629333,0.31756752729415894,0.1873769462108612,-0.09881889075040817,-0.025590524077415466,-0.39910849928855896,0.0714685395359993,0.6468099355697632,0.2328200489282608,0.34406086802482605,0.7928121089935303,-0.4222753047943115,-0.00443707499653101,0.753354012966156,-0.18640963733196259,-0.2884075343608856,0.126558318734169,0.1858912706375122,0.03712832182645798,-0.6123854517936707,-0.46392640471458435
task_00074,0.3988436162471771,-0.3767778277397156,-0.3826828598976135,-0.12477345019578934,-0.3736361861228943,-0.2342514991760254,0.23491959273815155,0.6900820732116699,0.12618544697761536,-0.18889246881008148,-0.7592326998710632,-0.03829531371593475,0.03072991780936718,0.4263262450695038,-0.030811522156000137,-0.2282422035932541,0.28246036171913147,0.3920322358608246,0.008583728224039078,0.14424802362918854,-0.15196804702281952,0.07605767250061035,-0.4306313097476959,-0.0008719308534637094,-0.208232581615448,0.18082374334335327,0.39380255341529846,0.24087566137313843,0.09134712815284729,-0.21440471708774567,-0.23190975189208984,-0.32454392313957214,0.013932046480476856,0.35991916060447693,0.8784885406494141,0.30890893936157227,0.004236094653606415,-0.3209485113620758,0.4400569200515747,0.04092063382267952,0.36029690504074097,0.01405527163296938,0.32692626118659973,0.0196039080619812,-0.19507761299610138,0.024696750566363335,0.1723259687423706,0.14383995532989502,0.06080608814954758,-0.12200964242219925,0.39934590458869934,-0.5987513065338135,0.04557845741510391,-0.2415258288383484,0.3814143240451813,-0.21949155628681183,1.1375350952148438,0.10638627409934998,0.06499206274747849,-0.11648634821176529,-0.2144227921962738,0.441137433052063,-0.5432317852973938,0.13022607564926147
task_00075,0.6107593178749084,0.03095456026494503,-0.16720017790794373,-0.3400721549987793,-0.4863213896751404,-0.22850695252418518,0.25362229347229004,0.21223944425582886,0.7191216349601746,-0.0900641456246376,0.5262362957000732,0.052371010184288025,0.274718314409256,0.19749179482460022,-0.035579197108745575,0.4178074300289154,0.20772334933280945,-0.568930447101593,0.13058815896511078,-0.22062531113624573,-0.34418609738349915,-0.06371836364269257,0.05950867757201195,-0.2808529734611511,0.2326582372188568,-0.36059704422950745,0.21850378811359406,0.019005868583917618,-0.1799464076757431,-0.5764701962471008,-0.24785980582237244,0.4485645294189453,0.07507351785898209,0.19670836627483368,0.19659435749053955,-0.0520741231739521,0.3196508586406708,-0.22553448379039764,0.12364096939563751,0.23747098445892334,0.016817089170217514,-0.7067515254020691,-0.07918614894151688,0.2903982698917389,0.1090969517827034,0.3270493149757385,-0.06267021596431732,-0.042475972324609756,0.6729665398597717,0.0786350816488266,0.12339803576469421,-0.19215907156467438,-0.2787030041217804,0.5028733015060425,-0.35957247018814087,0.12327024340629578,1.0233856439590454,0.08813288807868958,0.15980292856693268,0.41019517183303833,-0.22659356892108917,0.05374741926789284,0.051889702677726746,0.4430684745311737
