id,dim_0,dim_1,dim_2,dim_3,dim_4,dim_5,dim_6,dim_7,dim_8,dim_9,dim_10,dim_11,dim_12,dim_13,dim_14,dim_15,dim_16,dim_17,dim_18,dim_19,dim_20,dim_21,dim_22,dim_23,dim_24,dim_25,dim_26,dim_27,dim_28,dim_29,dim_30,dim_31,dim_32,dim_33,dim_34,dim_35,dim_36,dim_37,dim_38,dim_39,dim_40,dim_41,dim_42,dim_43,dim_44,dim_45,dim_46,dim_47,dim_48,dim_49,dim_50,dim_51,dim_52,dim_53,dim_54,dim_55,dim_56,dim_57,dim_58,dim_59,dim_60,dim_61,dim_62,dim_63
worker_00017,0.40676242113113403,0.24693083763122559,0.12883150577545166,0.348684698343277,0.1283043622970581,0.028390370309352875,-0.19662702083587646,0.3554021120071411,-0.17523230612277985,0.1814483404159546,-0.23254655301570892,0.5523555874824524,-0.022014165297150612,0.119036965072155,0.004780544899404049,0.13331958651542664,-0.10780255496501923,-0.08643780648708344,-0.004034851677715778,-0.30051493644714355,0.4875968098640442,-0.800035834312439,0.6046857237815857,0.3452521562576294,-0.043955300003290176,-0.21047906577587128,-0.10593365877866745,-0.17911192774772644,0.27509912848472595,-0.29272401332855225,-0.13273845613002777,0.22792035341262817,0.17991337180137634,-0.17968744039535522,0.5529711246490479,0.616017758846283,-0.14268825948238373,0.16731911897659302,0.04345704987645149,0.7117072343826294,0.5376709699630737,-0.14983800053596497,-0.6830857992172241,-0.5032634139060974,0.4144936800003052,0.21287932991981506,-0.166606605052948,-0.410735160112381,0.18654046952724457,0.08392003178596497,0.043593212962150574,0.08994483202695847,-0.260874480009079,0.5440124869346619,0.03737802803516388,0.04637984558939934,0.6952089071273804,0.1702965646982193,0.22004814445972443,0.3439668118953705,0.561733603477478,0.06253543496131897,-0.2784947454929352,0.10188988596200943
worker_00193,0.2246962934732437,-0.16345390677452087,0.4114869236946106,0.34191596508026123,-0.08784818649291992,-0.11451634019613266,-0.04101509228348732,0.48422518372535706,-0.05772017315030098,0.22148334980010986,-0.058656174689531326,0.02605568803846836,-0.16206534206867218,-0.23776598274707794,-0.0545201301574707,-0.01839769072830677,-0.08485168218612671,0.0385100357234478,-0.3340737521648407,-0.2989273965358734,-0.05832982063293457,-0.6048216223716736,0.26539579033851624,-0.0599018856883049,0.12821829319000244,0.09593536704778671,-0.3190522789955139,0.21901969611644745,-0.09010734409093857,0.08125776052474976,-0.27293911576271057,0.8687054514884949,-0.09703604131937027,0.15376444160938263,-0.3152589201927185,0.130524680018425,-0.07021241635084152,-0.346547931432724,-0.009470975026488304,-0.5449312329292297,0.07304046303033829,0.20253092050552368,-0.6007795333862305,-0.15327304601669312,-0.20082944631576538,0.423654705286026,0.4259091913700104,0.2804322838783264,-0.37032926082611084,-0.18715190887451172,0.5948090553283691,0.2315700203180313,-0.2683892846107483,-0.31574487686157227,0.06959249079227448,-0.03285856544971466,0.7798214554786682,0.4642208218574524,-0.31811657547950745,0.5102481245994568,-0.0037451398093253374,-0.22241264581680298,-0.5252510905265808,0.0730336457490921
worker_00062,0.18524837493896484,-0.34770363569259644,-0.5887754559516907,0.30240532755851746,-0.3242363929748535,-0.2722492814064026,-0.34372788667678833,0.8061901330947876,-0.07337240874767303,0.6114550828933716,-0.20615418255329132,0.49308305978775024,-0.343031108379364,0.22318816184997559,-0.5212076306343079,0.44304990768432617,0.0642932653427124,-0.09994015097618103,0.7519149780273438,0.3815003037452698,0.17602093517780304,-0.12264998257160187,-0.2400825172662735,0.16920597851276398,-0.24073608219623566,-0.25945788621902466,-0.11820518225431442,0.267188161611557,0.35723328590393066,-0.19582517445087433,0.1559107005596161,0.4534039795398712,-0.4180453419685364,0.08662576973438263,0.19687114655971527,0.1458682417869568,0.46409958600997925,-0.3802318871021271,-0.22040706872940063,-0.07789825648069382,-0.18011954426765442,0.4223037362098694,-0.15422464907169342,-0.16528773307800293,-0.05489441379904747,0.4505734145641327,-0.23094412684440613,0.07569193840026855,-0.6776298880577087,0.023172173649072647,0.14241796731948853,-0.15173597633838654,-0.1937251091003418,-0.10607271641492844,0.06970324367284775,0.3976057469844818,1.0699961185455322,0.25670427083969116,0.21910734474658966,0.15681855380535126,-0.4563463628292084,-0.12333349138498306,-0.297865092754364,0.00030474248342216015
worker_00077,0.42924344539642334,-0.3189675807952881,0.3664981722831726,0.6318072080612183,-0.5153398513793945,0.2622930407524109,0.13460324704647064,-0.05335860326886177,-0.4533616006374359,0.132924884557724,-0.09468917548656464,-0.14085841178894043,0.5890166759490967,0.4402134418487549,-0.25136879086494446,0.3732200562953949,-0.652835488319397,-0.13198015093803406,-0.3342404365539551,-0.33330464363098145,-0.42054176330566406,-0.3347680866718292,-0.09908892214298248,0.12619394063949585,-0.1732843518257141,0.339364618062973,-0.1088680550456047,-0.03980892151594162,-0.41137486696243286,-0.38081231713294983,0.6040297746658325,-0.035943713039159775,-0.36027005314826965,0.1996387541294098,0.28574851155281067,-0.26042014360427856,0.32881543040275574,-0.17720842361450195,0.3411480784416199,-0.14041322469711304,0.143221914768219,0.31702810525894165,-0.14853204786777496,0.08416971564292908,-0.15181948244571686,0.15904517471790314,0.08355509489774704,0.39894115924835205,-0.010519502684473991,0.08847890049219131,-0.20124444365501404,0.1208895742893219,0.34034135937690735,0.6963211297988892,0.2013060748577118,0.8257315158843994,0.5360337495803833,0.2348710596561432,0.2616684138774872,-0.05651150271296501,-0.23743636906147003,-0.07434957474470139,-0.5362744331359863,0.44012194871902466
worker_00090,-0.21669729053974152,0.04611419886350632,0.081614650785923,0.10583498328924179,-0.4132598638534546,0.1625257432460785,0.37776243686676025,0.06376680731773376,-0.10307987779378891,-0.02660166658461094,-0.12937022745609283,-0.3171459138393402,-0.10941725969314575,-0.08623643219470978,-0.05988314747810364,0.04333651810884476,0.03454092890024185,0.05883891507983208,-0.3519994020462036,-0.130425825715065,0.30730217695236206,-0.4095020592212677,0.6949686408042908,0.28933826088905334,0.06832511723041534,-0.23567044734954834,-0.06801824271678925,-0.15955135226249695,-0.4007924795150757,-0.32516512274742126,-0.004926414228975773,0.04763532802462578,-0.21995802223682404,-0.045764029026031494,0.4076416492462158,0.23542501032352448,0.16208672523498535,0.18052640557289124,-0.36058884859085083,0.21882416307926178,-0.00010921864304691553,0.17394845187664032,0.11653110384941101,-0.37261155247688293,-0.22404873371124268,0.24156120419502258,-0.35605588555336,-0.09475289285182953,0.3467389643192291,0.1045934334397316,0.254084050655365,0.378910094499588,0.27485740184783936,0.9383360147476196,-0.13540495932102203,0.3337416350841522,0.7429600954055786,0.47303107380867004,0.03776479884982109,0.2686496376991272,0.2504669427871704,0.10440073162317276,-0.2696499228477478,-0.02947358787059784
worker_00139,-0.34767425060272217,-0.4285546541213989,0.12270133942365646,-0.19523915648460388,-0.1388581395149231,0.008227983489632607,0.4679332971572876,-0.1436593383550644,-0.2148292511701584,0.15722180902957916,-0.15824413299560547,0.0559743270277977,-0.28727057576179504,0.15008530020713806,-0.4615996479988098,-0.19132374227046967,-0.14273791015148163,0.46592649817466736,0.5979815721511841,-0.20938372611999512,0.2491956353187561,-0.51101154088974,0.19977176189422607,0.22222308814525604,0.07311051338911057,0.13526974618434906,-0.03231627866625786,-0.4357697665691376,-0.07475727051496506,-0.40194928646087646,0.1450500637292862,0.3152005076408386,-0.171876922249794,-0.09841625392436981,0.2237495630979538,-0.2977955639362335,0.03558790311217308,0.011698342859745026,0.06309052556753159,0.10965432226657867,0.787925660610199,-0.002187096979469061,-0.37807586789131165,-0.0189465694129467,0.11204122006893158,0.14850279688835144,0.19405122101306915,0.5847694873809814,-0.2036672830581665,0.19630584120750427,0.26559650897979736,0.3408273160457611,0.21487165987491608,0.4415811598300934,0.02905173785984516,0.381394624710083,0.7746639251708984,-0.35260987281799316,-0.08251894265413284,0.12001973390579224,-0.0887090414762497,-0.19678142666816711,-0.04712009057402611,0.014148714020848274
worker_00116,0.14381547272205353,0.05656188353896141,0.033140506595373154,-0.05049505829811096,-0.14281967282295227,-0.29613226652145386,-0.033170390874147415,0.7167807221412659,-0.06150886043906212,0.32891255617141724,-0.31827512383461,0.4241282641887665,0.4759862720966339,-0.27173981070518494,-0.7358923554420471,0.2466423362493515,0.2980424761772156,0.41488975286483765,-0.05275144428014755,-0.09737040102481842,-0.04149245843291283,-0.6644231677055359,0.49509358406066895,0.07130896300077438,-0.3273950517177582,0.11690462380647659,0.11433006823062897,0.07861346751451492,-0.5168908834457397,0.15436841547489166,-0.06226300448179245,0.11432760953903198,-0.15042228996753693,-0.12115596234798431,0.24741403758525848,0.2532314658164978,0.22608570754528046,-0.07488837838172913,0.11683367192745209,0.17061981558799744,0.32687804102897644,0.2806657552719116,-0.21721665561199188,-0.4675087034702301,0.060184262692928314,0.4387317895889282,0.07368428260087967,-0.09036708623170853,0.350101113319397,0.11747626215219498,-0.1112208142876625,-0.5290098190307617,-0.26828113198280334,0.4982878863811493,0.29047176241874695,-0.13871075212955475,0.17621952295303345,-0.025781279429793358,-0.28349223732948303,0.1126321479678154,0.07064878195524216,-0.36568722128868103,-0.09834007173776627,0.05789624899625778
worker_00039,0.005111183039844036,0.23044344782829285,-0.14994816482067108,-0.15343888103961945,0.07609032839536667,0.044262830168008804,0.3214154541492462,-0.055751413106918335,0.019041426479816437,0.350831001996994,0.14507102966308594,0.34744739532470703,0.19685471057891846,0.5009557604789734,-0.23654954135417938,-0.23494896292686462,-0.5344842672348022,-0.18231992423534393,-0.12467020750045776,0.15767976641654968,0.07220137864351273,0.10846728831529617,0.26895877718925476,0.13149382174015045,0.24560409784317017,0.43427443504333496,0.04198778048157692,0.3107566833496094,0.06679695099592209,0.12421487271785736,0.15140652656555176,0.3528440594673157,0.31615743041038513,-0.00492238299921155,-0.21917320787906647,-0.20100347697734833,-0.006072612479329109,0.1016632616519928,0.46151694655418396,-0.28106608986854553,0.13859687745571136,0.27834540605545044,-0.5006956458091736,0.24281005561351776,0.1758599579334259,0.06629655510187149,0.3452836275100708,-0.027277259156107903,-0.05618776008486748,0.1824277639389038,0.12948940694332123,-0.08882540464401245,0.08916112780570984,0.44720014929771423,0.3356392979621887,0.10510508716106415,0.916486918926239,-0.30556002259254456,0.06602128595113754,0.05137256905436516,-0.012109708972275257,-0.30178987979888916,-0.30340147018432617,0.2596052885055542
worker_00049,-0.08874046802520752,-0.13362807035446167,0.18454916775226593,-0.09074971824884415,0.19752103090286255,0.1011243611574173,-0.146465465426445,-0.24072353541851044,-0.13537435233592987,0.42430248856544495,-0.13682831823825836,-0.06382912397384644,0.2756265699863434,-0.01608758047223091,0.13343825936317444,-0.044139355421066284,-0.2391604334115982,-0.46929189562797546,-0.06042603403329849,-0.2859356701374054,0.2864983379840851,-0.6700008511543274,-0.43619734048843384,-0.21047978103160858,-0.09864462912082672,0.2871713638305664,-0.5449140667915344,0.2407061755657196,0.14605355262756348,-0.14397791028022766,0.36102914810180664,0.12474232167005539,0.379260778427124,0.08961330354213715,-0.15817247331142426,0.14842653274536133,0.19679990410804749,0.29608646035194397,0.2229800522327423,0.036544132977724075,0.15344029664993286,-0.10666073113679886,-0.08586198836565018,0.3046729564666748,-0.4181400239467621,-0.1241496354341507,-0.591864824295044,0.20802147686481476,-0.1843922734260559,-0.10212201625108719,0.5541108846664429,0.6389908194541931,0.17134225368499756,0.3638893961906433,-0.3876919746398926,0.04907059669494629,0.6215261220932007,0.0016670236364006996,-0.054604992270469666,-0.06372280418872833,-0.3244918882846832,0.36434945464134216,-0.11359851062297821,-0.22823365032672882
worker_00045,0.03907210752367973,0.023036114871501923,-0.40386295318603516,0.28095799684524536,-0.27113083004951477,0.14699888229370117,0.3613337278366089,-0.08894097059965134,-0.37980467081069946,0.13600026071071625,0.1532103568315506,0.16703635454177856,-0.20673446357250214,0.09787838906049728,-0.08555325865745544,-0.051721200346946716,-0.23423565924167633,-0.47928866744041443,-0.07103613018989563,0.2637677788734436,0.1038627177476883,-0.4459713399410248,-0.038583166897296906,0.1362975537776947,-0.17747746407985687,0.44065821170806885,-0.28200292587280273,0.31597578525543213,0.32955604791641235,0.3691587746143341,0.2620440423488617,0.32833656668663025,0.2119665890932083,0.19646456837654114,0.30229365825653076,-0.004154921043664217,0.007106716278940439,0.027016794309020042,-0.3460041582584381,0.08094557374715805,0.22176824510097504,0.31446582078933716,-0.19003109633922577,0.22490786015987396,0.4473811984062195,0.3340035676956177,-0.7915130257606506,0.3298254609107971,0.4360341429710388,0.1364336907863617,-0.24961844086647034,-0.13976790010929108,0.06081729009747505,0.03965127840638161,0.2850165367126465,0.3050444722175598,0.8072002530097961,-0.0503438375890255,-0.1290440857410431,-0.1044922024011612,-0.48652803897857666,0.2951872944831848,-0.3543233275413513,-0.343999981880188
worker_00104,0.5845339894294739,0.3630598783493042,-0.015983885154128075,0.12891048192977905,0.01825050637125969,-0.13207505643367767,0.014140358194708824,0.3216627240180969,0.3519251048564911,0.2627864480018616,0.3973855972290039,-0.2809821665287018,0.28529220819473267,0.14870326220989227,-0.22178368270397186,-0.4249124228954315,-0.09343131631612778,-0.1953984647989273,-0.031221358105540276,-0.2867305874824524,0.07968641817569733,-0.23190060257911682,-0.14510703086853027,-0.07399988919496536,0.08889167755842209,-0.37467849254608154,0.15744416415691376,0.26381397247314453,0.11031504720449448,-0.22686472535133362,0.2703876793384552,0.5775583982467651,0.16229289770126343,0.16938285529613495,-0.1914971023797989,0.05707240104675293,-0.09761910885572433,-0.0985121876001358,-0.36349374055862427,0.15764187276363373,-0.1767357438802719,-0.1367153525352478,-0.17857573926448822,0.5742505788803101,-0.15399391949176788,0.33325931429862976,-0.19037578999996185,0.11635757237672806,0.00020636513363569975,-0.250447541475296,0.3388045132160187,-0.15710534155368805,-0.3408750891685486,0.5745036005973816,0.7065922021865845,0.10563167184591293,1.023451566696167,-0.010795441456139088,0.014007425867021084,0.6772785782814026,0.03690275549888611,-0.34957170486450195,0.3486414849758148,0.22068041563034058
worker_00160,-0.13587674498558044,0.454990953207016,0.15635083615779877,-0.2428581267595291,0.09980185329914093,-0.2092900276184082,0.020920192822813988,0.020692408084869385,-0.06448287516832352,0.3313049376010895,-0.0991300493478775,0.25591233372688293,0.26954397559165955,0.26403912901878357,-0.11048748344182968,0.38816237449645996,0.047181982547044754,-0.06423177570104599,0.022275429219007492,0.08345084637403488,-0.16123677790164948,-0.25187042355537415,0.1950909048318863,0.13051092624664307,0.5132433176040649,-0.09467575699090958,0.28274232149124146,-0.20828060805797577,-0.27867355942726135,0.22798492014408112,-0.17016960680484772,0.12522880733013153,0.3071017563343048,-0.46410006284713745,-0.4429242014884949,0.3110848367214203,0.003173381555825472,-0.34912529587745667,-0.2250625491142273,0.020222511142492294,-0.13994374871253967,0.10884776711463928,0.06235547736287117,-0.06718790531158447,-0.008363751694560051,0.24294604361057281,-0.22813698649406433,0.24415506422519684,-0.3420015573501587,0.2628389298915863,-0.24118025600910187,0.21631157398223877,-0.03215491399168968,0.08922652155160904,-0.37756550312042236,-0.09031418710947037,0.8520025014877319,0.3277131915092468,-0.5376997590065002,0.38204634189605713,-0.5253452062606812,-0.07139915227890015,-0.06208404153585434,-0.225511372089386
worker_00058,-0.15647847950458527,-0.1068350225687027,-0.3621681034564972,-0.45278507471084595,0.09563109278678894,0.216962993144989,0.3412531614303589,0.19172923266887665,-0.4520951509475708,-0.056634463369846344,-0.30876874923706055,-0.003253732807934284,0.6662914156913757,0.10846684128046036,-0.09305109083652496,0.26530128717422485,-0.24165429174900055,-0.42553767561912537,-0.4043312072753906,-0.32639673352241516,-0.03646156191825867,-0.46028590202331543,0.07462698966264725,-0.0783218964934349,-0.38605356216430664,0.37201860547065735,-0.1224144995212555,0.2728462815284729,-0.01534530334174633,0.14434489607810974,0.23148292303085327,-0.2551388740539551,-1.0964984893798828,0.04707922786474228,0.014663556590676308,-0.039124831557273865,-0.4393142759799957,-0.15793392062187195,-0.21925051510334015,0.2016928642988205,0.053485773503780365,0.5719902515411377,-0.5571331977844238,-0.03464300557971001,-0.05915917828679085,0.4007742702960968,-0.06334347277879715,0.11084045469760895,-0.06486795097589493,-0.220062717795372,-0.0977599173784256,-0.2195039540529251,-0.30061569809913635,-0.007590780965983868,0.5825628638267517,0.33117350935935974,0.672648012638092,-0.5689291954040527,-0.10793130099773407,0.11686810851097107,-0.2972617447376251,0.11336246877908707,-0.14957408607006073,-0.14521220326423645
worker_00108,0.14904560148715973,-0.2738530933856964,-0.012619376182556152,-0.12300758063793182,-0.06554416567087173,0.16786421835422516,-0.3711470067501068,0.6016414165496826,-0.17773735523223877,0.46792224049568176,0.11197426915168762,0.0704355239868164,-0.004141476470977068,-0.08306650072336197,-0.3742924928665161,0.4267706274986267,-0.34641146659851074,-0.2724687457084656,-0.13009849190711975,-0.03060596063733101,0.0965307429432869,-0.311789870262146,-0.3704790472984314,-0.3396254777908325,0.35933759808540344,0.23503471910953522,0.2746141254901886,0.3436584174633026,-0.07346803694963455,0.415987491607666,0.012309856712818146,-0.25074565410614014,0.0913839042186737,-0.008003916591405869,-0.02847873605787754,0.2588990032672882,0.5069150328636169,0.2933465838432312,-0.15739935636520386,0.1903853416442871,0.3852170407772064,0.5238471031188965,-0.16288496553897858,-0.2511240243911743,0.21411621570587158,0.7609056830406189,0.2330632507801056,0.28040704131126404,0.06430485844612122,-0.3478263318538666,-0.00829776469618082,-0.31343311071395874,0.17307452857494354,0.15212015807628632,0.001942013157531619,-0.04629635438323021,0.5271793603897095,-0.06300031393766403,-0.3271207809448242,-0.08589120209217072,-0.40215134620666504,0.19125671684741974,0.3492303192615509,-0.14022770524024963
worker_00100,0.18154895305633545,0.20757214725017548,0.4546118676662445,0.03129824995994568,-0.005647423677146435,0.27948981523513794,-0.04028213769197464,-0.22269387543201447,-0.165702223777771,0.768177330493927,-0.5083991885185242,-0.07132814079523087,-0.05523885414004326,-0.15498605370521545,-0.037644702941179276,0.06851083040237427,-0.39216798543930054,-0.6115624308586121,0.1866486519575119,-0.12147656828165054,0.31692761182785034,-0.3657471835613251,-0.2899341583251953,0.09248414635658264,-0.18926681578159332,0.177580788731575,-0.24049732089042664,-0.04393084719777107,-0.5199242830276489,0.15127329528331757,0.15290169417858124,0.2512829303741455,0.08005113154649734,-0.366209477186203,-0.025663845241069794,0.4947580397129059,0.123911052942276,0.355883926153183,-0.0751289650797844,-0.011950180865824223,0.05312853306531906,0.2456905096769333,-0.46937307715415955,-0.4337652325630188,-0.1314253956079483,-0.29852205514907837,-0.1213398277759552,-0.1729646623134613,-0.5420307517051697,-0.12788164615631104,0.22435328364372253,-0.047446899116039276,0.2167409062385559,-0.08085018396377563,0.2531130909919739,0.1882459819316864,0.6386733651161194,0.12782342731952667,-0.4022884964942932,0.7034569382667542,0.1788739413022995,0.1312313675880432,0.39580342173576355,-0.35109013319015503
worker_00188,-0.3520081639289856,-0.010736605152487755,-0.26589855551719666,-0.13234198093414307,-0.023922014981508255,0.07902185618877411,0.2810419797897339,0.18350084125995636,0.214420348405838,-0.020892634987831116,0.36590638756752014,-0.05827152356505394,-0.11849553883075714,0.011336561292409897,-0.2973935306072235,0.3941001892089844,-0.25596925616264343,0.4349852204322815,0.23843003809452057,-0.49250391125679016,-0.013890687376260757,-0.23718535900115967,-0.0768195241689682,0.11842264235019684,-0.5864744186401367,0.07568708062171936,-0.5354169607162476,0.10795221477746964,0.03465498611330986,0.3186657130718231,0.1376466304063797,-0.3048560619354248,-0.18478147685527802,-0.23200258612632751,-0.20531252026557922,0.18794116377830505,-0.19720828533172607,0.22734034061431885,0.40814805030822754,-0.09139157086610794,0.2065340280532837,-0.2990930378437042,-0.2992529273033142,-0.16717539727687836,-0.06794729083776474,0.32926544547080994,0.09073316305875778,-0.04076078534126282,-0.4493802487850189,0.25786685943603516,0.19173851609230042,0.0774938315153122,-0.07673893868923187,0.5928004384040833,0.1481017768383026,0.5418393611907959,1.1610788106918335,-0.050186071544885635,-0.5621174573898315,-0.493401437997818,0.04741349443793297,0.14540627598762512,0.062181808054447174,0.33962488174438477
worker_00211,0.09642132371664047,-0.06168224290013313,0.372562438249588,-0.25889256596565247,-0.07099857926368713,-0.2193826138973236,-0.2787293791770935,0.19887492060661316,-0.052917979657649994,0.2367451786994934,0.13454298675060272,0.6789928078651428,-0.23788441717624664,0.07831110805273056,-0.4061024487018585,-0.21285301446914673,-0.2886814475059509,-0.3641517758369446,-0.1954525262117386,0.2580382227897644,-0.4399856626987457,-0.005001340992748737,0.1849353164434433,-0.005359370727092028,0.30079352855682373,-0.09530435502529144,0.27630653977394104,0.25931036472320557,-0.13566823303699493,0.01886494643986225,0.1290339231491089,-0.2855084240436554,-0.016392024233937263,0.35233280062675476,-0.18297681212425232,0.0034521017223596573,0.09138119220733643,-0.1825602799654007,0.24355845153331757,0.15942971408367157,0.4140905439853668,0.12015175074338913,-0.46088001132011414,0.1841956228017807,-0.256136953830719,0.546962320804596,0.06381146609783173,0.1691596359014511,-0.509296715259552,0.4890707731246948,0.20063340663909912,-0.4227146804332733,0.15457770228385925,0.27074769139289856,-0.0065835993736982346,-0.20070645213127136,0.55305016040802,-0.4518861770629883,-0.24037520587444305,0.32126384973526,0.043316133320331573,0.10664068907499313,-0.10586841404438019,0.26910024881362915
worker_00182,0.08860065788030624,0.3121531903743744,0.0012946270871907473,-0.2577076554298401,-0.04141279682517052,0.4998447299003601,-0.07340513169765472,-0.14518938958644867,0.44565272331237793,0.2872474193572998,0.48306214809417725,0.17857669293880463,0.07659699767827988,0.19455097615718842,-0.30554476380348206,0.05461911857128143,0.39879095554351807,0.10761377960443497,0.027114246040582657,0.008719826117157936,-0.1753976047039032,-0.2702661156654358,0.004256485030055046,0.26413586735725403,-0.5019610524177551,0.16509820520877838,-0.6575228571891785,0.014674266800284386,-0.013713588006794453,0.37444767355918884,-0.3563934564590454,-0.08169414103031158,-0.11225640773773193,-0.0850500836968422,-0.06842910498380661,0.280671626329422,-0.09599855542182922,-0.11139407753944397,0.2018396556377411,-0.030894052237272263,-0.020344970747828484,-0.14913886785507202,-0.25334951281547546,-0.1847514808177948,0.0920906588435173,0.4361098110675812,-0.0037776411045342684,0.13454794883728027,-0.22260074317455292,0.23749448359012604,0.3777255415916443,0.2760675549507141,-0.2713678777217865,0.06808874756097794,0.08863489329814911,-0.1111457496881485,0.6329924464225769,-0.23680910468101501,-0.38689184188842773,0.6078000664710999,-0.04934608191251755,-0.3711113929748535,-0.7076089978218079,0.25574883818626404
worker_00223,0.6809805035591125,0.06303567439317703,-0.31489819288253784,0.08567731082439423,0.47567811608314514,0.12624461948871613,0.21383480727672577,0.06913898885250092,-0.14230546355247498,0.23467803001403809,0.060640767216682434,0.13846245408058167,0.44167324900627136,0.30482903122901917,-0.5187075138092041,-0.08205092698335648,0.11199837177991867,-0.12409136444330215,-0.21141642332077026,0.021613361313939095,-0.2097868174314499,-0.2733590602874756,0.06890163570642471,0.5379460453987122,0.3413686752319336,0.05206816643476486,-0.01664971560239792,-0.12501053512096405,-0.058406051248311996,-0.40285226702690125,-0.15597735345363617,0.19693464040756226,0.9539322257041931,0.10534936189651489,-0.2782139182090759,-0.4709681570529938,0.1769280731678009,0.15310367941856384,-0.053123705089092255,0.19631358981132507,0.3488085865974426,-0.2645502984523773,0.11369576305150986,-0.08519883453845978,0.13198593258857727,0.09333052486181259,-0.6025735139846802,0.07279133796691895,0.5675707459449768,-0.26607051491737366,0.1662498265504837,-0.4172111749649048,0.12226732075214386,0.5890469551086426,0.07755086570978165,0.32238832116127014,1.0168390274047852,0.015836035832762718,0.20759503543376923,0.24023130536079407,-0.34631380438804626,-0.18765020370483398,0.004783504642546177,0.16940860450267792
worker_00035,0.29394906759262085,-0.2551027834415436,-0.015483175404369831,-0.22647333145141602,-0.11374354362487793,0.021031279116868973,0.06443322449922562,0.09693265706300735,-0.2803517282009125,0.4173375368118286,0.2610796391963959,0.17965957522392273,0.2468666136264801,-0.3287624716758728,-0.39693185687065125,0.09052468836307526,0.23259402811527252,0.07534821331501007,-0.5579032301902771,0.23881569504737854,0.3184215724468231,0.06041090562939644,-0.11454299092292786,-0.1898723840713501,-0.18348407745361328,0.21786785125732422,-0.40499255061149597,0.17018839716911316,-0.3376859128475189,-0.38293734192848206,-0.3215164542198181,0.29046353697776794,-0.3123358190059662,-0.4064346253871918,0.3197421133518219,-0.08179774135351181,-0.0069676055572927,-0.3374311923980713,0.07937633991241455,-0.017066387459635735,-0.049980439245700836,-0.3849906325340271,-0.4021097421646118,0.04417562484741211,0.09970099478960037,0.02069857530295849,-0.25457003712654114,0.5719338059425354,0.03572205826640129,0.04311555251479149,0.3436189591884613,0.2011713981628418,-0.3214932680130005,0.5967389941215515,0.174442857503891,-0.31095120310783386,0.5262836813926697,-0.283258855342865,0.1417781412601471,0.06652948260307312,-0.11894701421260834,-0.4103661775588989,-0.056076690554618835,0.0952935591340065
worker_00044,0.22386029362678528,0.2030511498451233,-0.09244231879711151,0.3220628499984741,-0.0758436843752861,0.1348351389169693,-0.2416132688522339,-0.08919260650873184,0.2130144089460373,0.368556410074234,-0.3029862940311432,-0.3200991451740265,0.35713818669319153,-0.24353961646556854,-0.04819270968437195,-0.4623780846595764,-0.5457786917686462,-0.4728180170059204,0.0064574237912893295,-0.3859975039958954,0.23790277540683746,-0.20501282811164856,0.05653494596481323,0.03596166521310806,0.21270045638084412,-0.06657432019710541,-0.13855578005313873,0.2150903195142746,-0.23549021780490875,-0.430289626121521,-0.13522639870643616,0.357837975025177,0.15454398095607758,0.11547429114580154,0.27186691761016846,-0.040761273354291916,0.16008631885051727,0.27526164054870605,0.14782293140888214,-0.051367778331041336,0.0979749783873558,-0.1484568864107132,-0.5539193749427795,-0.1901276558637619,0.16706982254981995,-0.2858991026878357,-0.5330759286880493,0.4626491963863373,-0.7205119132995605,0.4173028767108917,0.34724655747413635,-0.3692898154258728,-0.39440757036209106,0.45749157667160034,0.6263265609741211,0.6145594716072083,1.113305687904358,-0.07472621649503708,-0.10120806097984314,-0.08081869781017303,0.5518239736557007,-0.4834579825401306,0.2804567515850067,-0.49877554178237915
worker_00053,-0.29194462299346924,0.2651877999305725,-0.15606261789798737,-0.3695437014102936,0.2275736778974533,0.1267470121383667,0.5278022289276123,-0.026720162481069565,0.016022248193621635,0.5155792236328125,-0.1496378779411316,0.021671051159501076,-0.050298839807510376,0.023140443488955498,-0.23637929558753967,-0.35344362258911133,0.2945561110973358,0.2029271274805069,0.38444089889526367,-0.11175978928804398,-0.2304348647594452,-0.04941492900252342,-0.005438582040369511,0.23108521103858948,0.37382227182388306,0.1371283233165741,-0.2771066725254059,0.2803991436958313,-0.30560752749443054,0.2900950014591217,-0.06351017951965332,0.13331499695777893,-0.1389806717634201,-0.5226252675056458,0.1757541298866272,-0.1913752406835556,0.05760500952601433,0.2975228726863861,0.12658268213272095,0.5006122589111328,-0.12088923901319504,-0.1910676509141922,0.028700387105345726,-0.17014920711517334,0.0527864471077919,0.025597048923373222,0.20625720918178558,-0.08960806578397751,-0.05630171298980713,-0.3262195885181427,-0.632360577583313,-0.6825893521308899,0.03827585652470589,0.2619032859802246,-0.16912873089313507,0.3201889097690582,1.113440752029419,0.05082521215081215,-0.03425715118646622,0.18670225143432617,-0.2908788323402405,0.045277517288923264,0.24250608682632446,0.3737119138240814
worker_00032,-0.0573887936770916,0.09611286222934723,-0.7337654829025269,0.21766744554042816,-0.07658929377794266,0.3011622726917267,-0.027850667014718056,0.18572057783603668,-0.3214983642101288,0.29250258207321167,-0.50634765625,-0.20882593095302582,0.1181691363453865,0.2837391197681427,-0.17072813212871552,0.293465256690979,0.02693856880068779,-0.0851215273141861,0.06153348833322525,-0.04487219452857971,-0.4137651324272156,-0.5761393904685974,0.28140881657600403,-0.44446513056755066,0.3195961117744446,0.1864362359046936,-0.3398885428905487,0.3744557797908783,-0.4148975908756256,0.01909833773970604,-0.013703001663088799,-0.15199948847293854,0.1727510243654251,0.2475317120552063,0.02350255474448204,0.34454458951950073,-0.1284482479095459,0.2950235903263092,0.2588738799095154,-0.07134321331977844,0.37464970350265503,0.3530105650424957,-0.4154151380062103,0.2537732422351837,0.32949742674827576,-0.2612808644771576,-0.10551606863737106,0.5830681324005127,-0.14003364741802216,0.42289260029792786,-0.04845939949154854,-0.06395789980888367,-0.0878305733203888,0.07100524008274078,0.2484596073627472,0.24286606907844543,0.8145429491996765,-0.02020801603794098,-0.34565821290016174,0.012459177523851395,0.3531489074230194,-0.40688538551330566,-0.2910974621772766,0.10493803769350052
worker_00034,-0.7432518005371094,-0.14330299198627472,-0.16638678312301636,-0.40262383222579956,0.08783931285142899,0.5311149954795837,-0.6272895336151123,-0.17399553954601288,-0.2128140777349472,0.38968735933303833,-0.06091412156820297,-0.11672524362802505,0.17633400857448578,0.02712239883840084,0.10754568129777908,0.593412458896637,0.036787766963243484,0.11081341654062271,-0.23157361149787903,-0.29848429560661316,-0.04977233707904816,-0.18983511626720428,0.3280630111694336,-0.14779901504516602,0.4066625237464905,-0.02352333441376686,-0.022623196244239807,0.22863999009132385,0.09260386973619461,-0.6358062624931335,-0.18610616028308868,0.0023375486489385366,-0.20528170466423035,-0.13962356746196747,-0.3364317715167999,-0.1481039971113205,-0.3892330229282379,0.1180490180850029,-0.03129268437623978,0.09466546028852463,0.4180859923362732,-0.24541594088077545,0.044020988047122955,-0.02409488894045353,0.33339953422546387,0.5068355798721313,-0.34133827686309814,0.33799508213996887,-0.5563567280769348,0.028568658977746964,-0.42609331011772156,-0.20294466614723206,0.4343372583389282,-0.06567348539829254,0.4008790850639343,-0.05284985527396202,0.5186536312103271,-0.37500572204589844,0.25915610790252686,0.4491954445838928,-0.07330832630395889,0.2166167050600052,-0.4979426860809326,0.25204160809516907
worker_00157,0.41104283928871155,-0.12506957352161407,-0.019929515197873116,-0.0769997388124466,0.05030212178826332,-0.2938973307609558,-0.3462960720062256,-0.034286417067050934,-0.28242480754852295,0.11219008266925812,0.049647074192762375,-0.47370645403862,0.1794470250606537,0.055180806666612625,0.02661496214568615,0.11825809627771378,-0.07593264430761337,-0.14374269545078278,0.1130148246884346,-0.07615754753351212,-0.19259262084960938,-0.1762343943119049,0.21213729679584503,-0.003783480729907751,-0.3684380054473877,-0.019356021657586098,0.2565354108810425,0.17049367725849152,0.19874578714370728,0.03586734086275101,0.2291242927312851,-0.10068546235561371,0.22736018896102905,0.13058753311634064,0.31633204221725464,0.05918027460575104,0.37577933073043823,0.1535908430814743,-0.06957904994487762,-0.34540608525276184,0.5946961641311646,0.07884299010038376,0.041406407952308655,-0.3877427875995636,0.28154730796813965,-0.07068753987550735,-0.06505899131298065,0.20337706804275513,-0.16070446372032166,-0.0809006541967392,0.13476961851119995,-0.20725619792938232,-0.06381426751613617,-0.24460919201374054,0.06956449151039124,-0.1236824318766594,1.285269856452942,0.027592835947871208,0.16601981222629547,0.5036490559577942,-0.1132940724492073,-0.0036355885677039623,-0.09781817346811295,0.08166863024234772
worker_00003,0.019884349778294563,0.17295590043067932,0.3291722238063812,0.1352759599685669,0.21872566640377045,0.004936878569424152,0.2709275186061859,-0.06810224801301956,0.27093496918678284,0.009256860241293907,-0.12144175171852112,-0.48898473381996155,-0.3183896243572235,-0.1356225460767746,0.08097277581691742,-0.15892206132411957,0.17873279750347137,0.3062589168548584,-0.18003612756729126,-0.11760914325714111,0.38312646746635437,-0.2661913335323334,-0.1565033197402954,-0.28003162145614624,0.11670160293579102,0.0372561514377594,-0.10612493753433228,-0.13993804156780243,-0.32154110074043274,0.42043954133987427,0.6394196152687073,-0.3935950994491577,-0.09740682691335678,0.08428309857845306,0.2786986827850342,0.041904330253601074,0.08940064162015915,-0.3372340202331543,-0.329621821641922,-0.058105215430259705,0.1352551281452179,-0.029140843078494072,-0.22024525701999664,-0.4293976128101349,0.3992389738559723,0.41279324889183044,-0.10505281388759613,0.30237656831741333,-0.1983060985803604,-0.0786091685295105,-0.17127099633216858,-0.3956148326396942,-0.1730208694934845,0.20564725995063782,-0.32519927620887756,-0.2989387810230255,1.272314429283142,-0.2984989285469055,-0.09604860842227936,-0.34274205565452576,-0.24642544984817505,-0.027958542108535767,0.1225629448890686,0.0014663898618891835
worker_00065,0.21625490486621857,-0.017207184806466103,-0.2799740731716156,0.0426664762198925,-0.4346792995929718,0.12457939237356186,-0.34350886940956116,0.5970838665962219,-0.28117454051971436,-0.16304023563861847,-0.0521402582526207,0.0436597540974617,-0.30146080255508423,-0.1009608656167984,-0.14570684731006622,0.2759016454219818,-0.0829913318157196,0.12488612532615662,-0.19582925736904144,0.5436737537384033,-0.06352955847978592,-0.28016558289527893,0.17207203805446625,0.35583195090293884,0.12878885865211487,0.5091209411621094,0.12990503013134003,-0.39377060532569885,0.30274805426597595,0.1585385650396347,-0.030306965112686157,0.030459512025117874,0.5703767538070679,-0.4398218095302582,-0.40255457162857056,0.12492796033620834,0.1390499323606491,-0.3361067771911621,0.03829912096261978,0.16386505961418152,0.006161792669445276,0.0780220702290535,0.33351853489875793,-0.24403934180736542,0.048614632338285446,0.3565518260002136,-0.009340161457657814,-0.2712849974632263,0.0973333790898323,-0.13377945125102997,0.20468425750732422,0.1507222205400467,0.20884017646312714,0.38021713495254517,0.281826913356781,-0.3628975450992584,0.9732003808021545,-0.0593164898455143,-0.2850125730037689,0.11126405000686646,-0.3168134093284607,-0.09423059225082397,0.07368195801973343,-0.0038142548874020576
worker_00099,-0.08162211626768112,-0.011321787722408772,-0.15606527030467987,-0.28086310625076294,-0.14757636189460754,0.4015503525733948,-0.5778530836105347,-0.1583806574344635,-0.2842221260070801,-0.4275854825973511,-0.26431283354759216,0.09919760376214981,0.13745632767677307,0.28112009167671204,-0.25768205523490906,0.1103399321436882,0.12214241921901703,-0.06935647875070572,-0.031843751668930054,-0.16007348895072937,-0.3052629828453064,0.05201563239097595,-0.21118971705436707,0.015493758022785187,-0.09298023581504822,0.018508242443203926,-0.0420885793864727,-0.2936633825302124,-0.08231645822525024,0.19422124326229095,0.09688183665275574,-0.26368021965026855,0.408647745847702,-0.18258580565452576,0.22434832155704498,0.20630300045013428,0.37548351287841797,-0.0847700983285904,-0.09243278950452805,0.4092206060886383,-0.7313662767410278,0.06194612383842468,-0.30348217487335205,0.07503771036863327,0.6514869928359985,0.3841325044631958,-0.1952177733182907,-0.6261062026023865,-0.31557443737983704,0.5060683488845825,0.5512862205505371,0.029398998245596886,-0.18422222137451172,0.3939693868160248,-0.016278045251965523,0.08509014546871185,1.3064262866973877,-0.09479247033596039,-0.159312441945076,-0.44074806571006775,0.07887596637010574,-0.22454939782619476,0.012716874480247498,-0.025474410504102707
worker_00141,-0.10139556229114532,0.014806903898715973,0.4567703604698181,0.23378798365592957,-0.07632248848676682,0.11680661141872406,-0.18630540370941162,0.044112056493759155,-0.00827531237155199,0.5301189422607422,-0.1497829258441925,-0.004184517543762922,0.06194668635725975,0.15815964341163635,-0.19645747542381287,-0.0015437453985214233,0.20189069211483002,-0.2793233394622803,-0.7477052211761475,0.23191668093204498,-0.49480050802230835,-0.35239377617836,-0.1420370191335678,-0.17084872722625732,-0.1847832202911377,0.3033245801925659,0.40943074226379395,0.005169449839740992,0.30271244049072266,0.04966678097844124,-0.39996930956840515,-0.13064612448215485,-0.2523590922355652,-0.3976779878139496,0.19848547875881195,0.005137460306286812,0.07134410738945007,0.08457768708467484,0.43496522307395935,0.2726314961910248,-0.37800243496894836,0.27975088357925415,-0.23785853385925293,0.19456921517848969,-0.14301803708076477,-0.002816053107380867,-0.3746301531791687,0.03580351546406746,-0.07747326791286469,0.09261937439441681,-0.11375147849321365,-0.1731605976819992,-0.30312448740005493,0.08953151106834412,-0.3316361606121063,0.14447730779647827,0.8283750414848328,0.266185462474823,-0.04223357513546944,-0.3879442811012268,-0.1015825942158699,0.13477040827274323,-0.47428515553474426,0.07782965153455734
worker_00201,0.17966391146183014,0.1846294105052948,0.5360373854637146,0.0848822146654129,-0.061817072331905365,0.2332880049943924,-0.21201129257678986,-0.5142073035240173,-0.6868531703948975,0.5540343523025513,0.2490028738975525,0.09704636037349701,-0.1398335099220276,0.1151600331068039,-0.3675764799118042,0.4959789216518402,0.608714759349823,0.37293192744255066,0.03765895217657089,0.08275401592254639,-0.543268084526062,-0.58380526304245,-0.21108055114746094,0.3019384443759918,-0.12689420580863953,0.21997591853141785,-0.0958346500992775,0.0023101321421563625,-0.3903859257698059,-0.024264715611934662,-0.07987935096025467,0.33959466218948364,-0.41414308547973633,-0.21788623929023743,-0.08579473942518234,-0.03774432837963104,0.037056803703308105,-0.10496346652507782,0.06748231500387192,0.4212360978126526,-0.029241930693387985,0.403104692697525,0.06310972571372986,-0.19687946140766144,0.5658948421478271,0.10191157460212708,-0.08748956769704819,0.21136459708213806,0.12698805332183838,-0.26833590865135193,0.21733812987804413,-0.05959976837038994,-0.5679256319999695,0.08326078951358795,0.1458282321691513,0.15397433936595917,0.619288444519043,-0.10409455001354218,-0.2212149202823639,-0.19069065153598785,-0.15476831793785095,0.2551949620246887,-0.07158902287483215,0.12712249159812927
worker_00239,0.17412137985229492,-0.10808766633272171,-0.39121919870376587,0.14125770330429077,0.3997599482536316,-0.3976384997367859,-0.30728602409362793,0.022667091339826584,0.1091683879494667,0.42991626262664795,-0.2517801523208618,0.6140865683555603,-0.14385737478733063,-0.04470370337367058,0.41612040996551514,0.3311975598335266,-0.10762248188257217,0.18470558524131775,-0.3080897331237793,-0.04034503176808357,-0.15107296407222748,-0.5398625135421753,0.008112755604088306,-0.3285878300666809,-0.049932487308979034,0.6552990674972534,0.0695962905883789,-0.11587831377983093,0.20291481912136078,-0.14923244714736938,0.11041229963302612,0.16003426909446716,0.04665347561240196,0.23068268597126007,0.2684593200683594,0.47777506709098816,0.3761592209339142,0.24089057743549347,-0.07179079204797745,0.21040622889995575,-0.19996124505996704,0.19087877869606018,-0.5858737826347351,-0.08896997570991516,0.093901127576828,0.2887795865535736,0.2280169278383255,-0.11584500223398209,-0.12732885777950287,0.002130229491740465,0.11178003251552582,-0.4099210202693939,-0.12010218948125839,0.4554224908351898,0.11898139864206314,-0.3353699743747711,0.7534353137016296,-0.20326656103134155,-0.07711312174797058,-0.3678743243217468,0.13713432848453522,0.222612202167511,-0.14113999903202057,-0.2969670593738556
worker_00240,0.35692355036735535,0.4305545389652252,-0.04836833477020264,0.055518634617328644,0.3976019620895386,0.02307768352329731,0.02507607825100422,-0.27856871485710144,-0.11019423604011536,0.29501163959503174,0.26102301478385925,-0.06273610144853592,-0.2828062176704407,0.48971664905548096,-0.14242865145206451,-0.354566752910614,0.1227388083934784,-0.6731639504432678,-0.16692881286144257,0.0936177670955658,-0.5711583495140076,-0.32357385754585266,0.11481023579835892,-0.29447394609451294,-0.11011596024036407,0.30174827575683594,-0.2988183796405792,-0.03338466212153435,0.1042478010058403,0.5282068252563477,-0.0076943738386034966,-0.46408918499946594,-0.1477922648191452,-0.11527746170759201,0.1816849261522293,-0.2991876006126404,0.12524078786373138,-0.18484096229076385,0.061577558517456055,-0.4705573618412018,0.17289435863494873,0.024182718247175217,0.22258269786834717,-0.27031210064888,0.15769818425178528,0.1437290906906128,0.35107243061065674,0.07611840218305588,0.0501837357878685,-0.14229248464107513,-0.08519815653562546,0.7727023363113403,0.26936328411102295,0.1915481984615326,0.48275327682495117,0.054814212024211884,1.063293695449829,0.10337456315755844,-0.2959436774253845,-0.00121953128837049,-0.15574905276298523,0.1646127551794052,-0.2037680596113205,0.27457743883132935
worker_00180,-0.34233832359313965,-0.34966951608657837,0.2002614140510559,0.19803868234157562,0.05882909893989563,-0.4084412455558777,0.3108986020088196,0.09492629766464233,-0.23538848757743835,-0.1734965443611145,-0.21658378839492798,0.11051635444164276,-0.09702368080615997,-0.11708873510360718,0.04901590198278427,0.05553092062473297,-0.2623368799686432,0.495017409324646,-0.6485269069671631,-0.11098214983940125,-0.19718530774116516,-0.4446084797382355,-0.24486620724201202,-0.23779794573783875,-0.13599388301372528,-0.0462539903819561,-0.7615634202957153,0.18977661430835724,-0.366990864276886,0.11404687166213989,-0.1976688951253891,0.06585097312927246,-0.11049291491508484,-0.26863959431648254,-0.09812669456005096,0.42156022787094116,0.33290961384773254,0.6348395943641663,0.10115072876214981,0.24252073466777802,0.06409098207950592,-0.26957619190216064,0.22856222093105316,0.07039112597703934,0.23841966688632965,0.037884440273046494,0.1321629285812378,-0.017400242388248444,0.43218353390693665,0.05717920884490013,-0.3352358341217041,0.38044172525405884,-0.07282907515764236,0.3339492082595825,0.6861104369163513,-0.08165546506643295,1.1256163120269775,-0.1406460553407669,0.07645480334758759,-0.06773408502340317,-0.3722623586654663,0.14349465072155,-0.06891355663537979,-0.029821421951055527
worker_00111,0.21092496812343597,-0.13745389878749847,0.624428927898407,-0.22676965594291687,-0.06225642189383507,-0.04030805826187134,-0.18560759723186493,0.16243445873260498,-0.3644954264163971,0.1203761175274849,-0.1591385304927826,0.07286199927330017,0.006042745430022478,-0.002993062837049365,0.12190218269824982,-0.3879835605621338,-0.05668134614825249,0.12234841287136078,-0.020031532272696495,-0.3374500274658203,0.5112281441688538,-0.8404289484024048,0.07474850118160248,-0.2516036033630371,-0.18184635043144226,0.26746657490730286,-0.4394283592700958,-0.1834591031074524,-0.1994514912366867,0.4557552933692932,-0.11385553330183029,0.11257925629615784,0.2368611842393875,0.38877198100090027,0.12175916135311127,-0.07508013397455215,-0.1804324984550476,0.23135536909103394,-0.14357739686965942,0.05831902101635933,0.3113691210746765,0.08192194998264313,-0.4954034388065338,-0.007763496600091457,-0.2128954827785492,0.05803482234477997,-0.18368352949619293,-0.006188816390931606,0.20471636950969696,-0.26167741417884827,-0.12296116352081299,-0.09084662795066833,-0.3927772641181946,0.31729912757873535,0.19564074277877808,-0.34798163175582886,0.8233569264411926,-0.1740971952676773,-0.04383593425154686,-0.21633800864219666,0.22903010249137878,-0.3190535604953766,-0.08769271522760391,0.5480037927627563
worker_00015,-0.1628483235836029,0.16608601808547974,-0.0368775799870491,-0.048937298357486725,-0.37886008620262146,0.2183564305305481,-0.2681647539138794,0.07055933773517609,-0.4729379415512085,0.1374979466199875,-0.1995377242565155,0.29206281900405884,4.0490180253982544e-05,0.04076803848147392,-0.5264850854873657,-0.23145975172519684,0.08502569049596786,0.12724463641643524,0.18838933110237122,-0.4902487099170685,-0.5865923166275024,-0.4195170998573303,-0.311045378446579,-0.02867213636636734,-0.6299363374710083,0.0818815603852272,0.08254187554121017,0.30529406666755676,-0.5259280204772949,-0.438561350107193,0.06956024467945099,0.17222686111927032,0.040762774646282196,0.2862806022167206,-0.00894948560744524,0.398730993270874,0.07885414361953735,-0.4130876362323761,0.37320220470428467,-0.5251009464263916,0.06883785128593445,0.3405166268348694,-0.22904007136821747,0.28431013226509094,0.16742374002933502,0.43646711111068726,-0.13810239732265472,0.24841058254241943,-0.49295392632484436,-0.061883360147476196,0.14009857177734375,0.017471328377723694,-0.024450425058603287,-0.13171285390853882,-0.12703725695610046,-0.3482448160648346,0.6591787338256836,-0.0016213953495025635,0.3032745122909546,0.10495950281620026,-0.38747045397758484,0.24768877029418945,0.34753724932670593,0.029767625033855438
worker_00248,-0.026923248544335365,0.047590769827365875,-0.09629079699516296,-0.2222980409860611,-0.13060593605041504,0.1118955910205841,-0.01653280109167099,-0.4680746793746948,-1.1002678871154785,0.30922362208366394,0.33377784490585327,0.19119904935359955,0.253416508436203,-0.20518893003463745,-0.1251472383737564,0.2437797635793686,-0.11400297284126282,-0.12543368339538574,-0.15948301553726196,-0.06760329008102417,0.3209419548511505,-0.03664369508624077,0.2651161253452301,0.15119202435016632,0.010000206530094147,0.30140894651412964,0.293705552816391,-0.19750367105007172,0.14564381539821625,0.20864549279212952,0.33372756838798523,-0.14505364000797272,-0.006441821344196796,0.6774832010269165,-0.1470099538564682,0.4263118505477905,0.23802247643470764,0.03474265709519386,0.27831071615219116,-0.216571643948555,-0.011121043004095554,0.0362580381333828,0.23037253320217133,0.037523943930864334,0.36796557903289795,0.5018885731697083,-0.18038427829742432,-0.0312914177775383,-0.20026864111423492,-0.24488329887390137,0.18413731455802917,-0.2409878671169281,-0.027346303686499596,0.2372412532567978,-0.24572916328907013,0.22718819975852966,0.8462134599685669,-0.21591025590896606,-0.2116864174604416,0.09893183410167694,-0.024608707055449486,0.01162587571889162,-0.012362143956124783,-0.1190975084900856
worker_00041,0.3836263418197632,0.06048528105020523,0.12051713466644287,-0.2534116208553314,0.4290923774242401,-0.25332677364349365,-0.13652317225933075,0.4544779062271118,-0.8940919041633606,-0.2628299295902252,0.10929158329963684,-0.20041704177856445,0.25170522928237915,-0.08119766414165497,0.2790448069572449,0.01870804652571678,0.07156216353178024,-0.0934695154428482,0.059764564037323,0.3542097508907318,-0.304464727640152,-0.6162058115005493,0.00960094016045332,0.026384789496660233,-0.26160648465156555,0.4624088406562805,-0.22072568535804749,-0.04022104665637016,0.24015496671199799,0.19453710317611694,0.05813879519701004,-0.4650782644748688,0.04381608963012695,0.13479052484035492,0.08742538094520569,-0.09004282206296921,-0.14625495672225952,0.2704649567604065,-0.35737642645835876,-0.21099649369716644,-0.5130158066749573,0.35482755303382874,0.1576811820268631,-0.40790677070617676,0.13842089474201202,0.6984947919845581,-0.3344570994377136,0.13738825917243958,-0.002660684287548065,0.13511547446250916,-0.07458063960075378,-0.4684552848339081,0.3579098880290985,-0.058345992118120193,-0.13288040459156036,-0.10603770613670349,0.596883237361908,-0.024047749117016792,0.010173220187425613,0.4829179048538208,-0.09426183998584747,-0.553349494934082,-0.11584802716970444,0.09426537156105042
worker_00177,0.3681904375553131,-0.26083385944366455,0.0668233186006546,0.33089306950569153,0.1728353053331375,0.48426029086112976,-0.2509050667285919,0.3344092071056366,0.16739901900291443,-0.00025058627943508327,-0.25148895382881165,0.14648640155792236,-0.3695145547389984,0.1627490371465683,-0.0781915932893753,0.2222047597169876,0.2728897035121918,-0.0857427641749382,-0.01885232888162136,0.2896307408809662,0.2858474850654602,0.04730237275362015,0.0005744530353695154,0.17554661631584167,-0.5552700757980347,-0.10044727474451065,-0.13763555884361267,0.2177344262599945,-0.5550812482833862,-0.12836018204689026,-0.03846840560436249,-0.1836017519235611,0.018588632345199585,0.09243174642324448,0.13250334560871124,0.02585778199136257,0.10549990087747574,-0.2612352669239044,-0.1425175815820694,-0.3930927813053131,-0.27752792835235596,-0.11468121409416199,0.46788695454597473,-0.3321060240268707,-0.523108184337616,-0.10452880710363388,-0.11301980912685394,0.4371519982814789,0.07617257535457611,-0.25416067242622375,0.2128620147705078,-0.7055452466011047,-0.14258307218551636,0.3218679428100586,-0.16955675184726715,0.33135586977005005,1.2437323331832886,-0.31147268414497375,-0.11081055551767349,0.08447220176458359,0.1287107914686203,-0.0033095688559114933,0.06828874349594116,-0.053740471601486206
worker_00016,0.005475786980241537,-0.3189360797405243,0.21353928744792938,-0.13398724794387817,-0.10604315251111984,-0.25852489471435547,-0.010881109163165092,0.1208014115691185,-0.2333562970161438,-0.13564413785934448,0.0022382899187505245,0.6322450637817383,-0.15975716710090637,-0.24737586081027985,0.23839963972568512,0.2545304596424103,0.3201174736022949,0.24255119264125824,-0.2687082290649414,0.10032470524311066,-0.37366536259651184,-0.17912502586841583,0.092815101146698,0.1060297042131424,0.34242361783981323,0.6127524971961975,-0.17444413900375366,0.1474205106496811,-0.01863124780356884,-0.07339435070753098,0.8785735368728638,-0.2869967520236969,-0.45854729413986206,-0.5906437039375305,0.12421716749668121,0.0665624812245369,0.5274678468704224,0.3163633644580841,0.6608415842056274,0.05687347427010536,-0.24259266257286072,0.14079032838344574,0.04763718321919441,-0.10892312973737717,0.2297499030828476,0.23575223982334137,-0.06441815942525864,0.08068025857210159,0.37268534302711487,-0.010097323916852474,-0.10527368634939194,0.05170741677284241,-0.16485464572906494,-0.034955061972141266,-0.06399863958358765,0.7296344041824341,1.2368147373199463,0.24721010029315948,0.05934158340096474,0.19940467178821564,0.5253105163574219,-0.24213893711566925,0.024004649370908737,0.06664437800645828
worker_00088,-0.03981449082493782,0.04482864588499069,-0.09957101941108704,0.48215216398239136,-0.09800197929143906,-0.08865190297365189,0.5695751309394836,0.300466388463974,-0.7715324759483337,0.17397959530353546,0.19461281597614288,-0.04288317263126373,-0.2112441211938858,0.21895897388458252,0.11518145352602005,0.32463935017585754,-0.3174801468849182,-0.015599042177200317,0.21436373889446259,0.14496511220932007,0.03203588351607323,-0.19263885915279388,-0.2917499840259552,-0.31622636318206787,-0.1958819180727005,0.26663610339164734,-0.06211555004119873,-0.07183284312486649,0.02109374850988388,0.24114073812961578,-0.03648797795176506,0.25639981031417847,0.3243001401424408,0.08067288994789124,0.26584121584892273,0.4321807026863098,-0.04785602539777756,0.4063085615634918,-0.3419426679611206,0.12917368113994598,-0.20414981245994568,-0.19588424265384674,-0.18292266130447388,-0.03690396621823311,0.023575151339173317,0.7062922120094299,-0.41201427578926086,0.6169434785842896,0.16585852205753326,-0.5987439751625061,0.033093344420194626,-0.21276789903640747,-0.051708851009607315,0.2658335864543915,-0.2915586233139038,-0.17589446902275085,0.7636388540267944,-0.47105857729911804,0.16810739040374756,-0.15425053238868713,-0.26759859919548035,0.02071952074766159,0.1724422127008438,0.029595080763101578
worker_00071,-0.08996540307998657,-0.2613562047481537,-0.2957014739513397,0.4928432106971741,-0.24936456978321075,0.10246869176626205,0.15898318588733673,-0.17716290056705475,-0.28516119718551636,0.4437742829322815,0.2522369921207428,0.34786316752433777,-0.14011986553668976,0.260071337223053,-0.3849378526210785,-0.002175417263060808,0.15970538556575775,-0.36325764656066895,-0.1886269450187683,-0.058956924825906754,-0.2470548301935196,-0.7027137875556946,0.0790255218744278,0.06724423915147781,-0.08835937827825546,0.16073516011238098,-0.45072999596595764,0.3785204589366913,-0.1728803664445877,-0.4715072512626648,-0.23769275844097137,-0.4017854332923889,-0.01434367522597313,-0.1492656022310257,-0.1332886517047882,-0.1484636664390564,0.3725038170814514,-0.15510280430316925,0.1028914600610733,0.3263757824897766,-0.21945390105247498,0.09145327657461166,0.07901936024427414,0.043767739087343216,-0.23583923280239105,-0.0512351430952549,-0.1705416887998581,0.6293150186538696,-0.16531209647655487,-0.36199647188186646,0.01278489176183939,0.16557878255844116,0.5101270079612732,0.2696588933467865,-0.11442360281944275,-0.3886794447898865,0.5077585577964783,0.41691964864730835,0.13641105592250824,0.3566373586654663,0.29082760214805603,-0.14677001535892487,-0.25748947262763977,-0.11723200976848602
worker_00246,-0.0735512375831604,0.02851971425116062,0.017109807580709457,0.18502528965473175,0.21228548884391785,0.2573300898075104,-0.03269018977880478,0.14971409738063812,0.00866214744746685,0.25889450311660767,-0.1321696788072586,-0.0003089883830398321,-0.28797611594200134,0.5171111226081848,-0.12097085267305374,0.11882924288511276,0.24886728823184967,-0.17528308928012848,0.19995427131652832,0.5471842885017395,-0.3614348769187927,0.06401808559894562,0.16243809461593628,-0.5227066278457642,0.07436149567365646,0.22297319769859314,-0.479574590921402,0.32909196615219116,0.11689752340316772,0.3874349594116211,0.38196074962615967,-0.2274617701768875,-0.005882094148546457,0.30176472663879395,-0.06737371534109116,-0.018502462655305862,0.3804549276828766,0.5491117835044861,0.22808077931404114,0.24979466199874878,0.08988494426012039,-0.09055104106664658,0.1564664989709854,-0.06467839330434799,-0.210785374045372,0.49906137585639954,-0.7708426713943481,-5.5797863751649857e-05,-0.06307269632816315,-0.0439516082406044,-0.06420262157917023,-0.2521606981754303,-0.28469961881637573,0.4914383292198181,-0.2799857556819916,-0.004792440216988325,0.9354186654090881,-0.11440128833055496,-0.008587159216403961,0.029247386381030083,-0.15343515574932098,-0.530781090259552,-0.7118846774101257,0.2883095443248749
worker_00008,-0.03606298565864563,0.1477522999048233,0.04733685776591301,-0.4525253474712372,0.015157127752900124,-0.012327343225479126,0.4027464687824249,0.0553894080221653,-0.047680459916591644,0.48015114665031433,0.06066955626010895,0.31440818309783936,-0.27839770913124084,0.14243192970752716,-0.3669528663158417,0.04507409781217575,-0.002093615010380745,-0.11681873351335526,-0.21043001115322113,0.06967505812644958,0.019391540437936783,-0.6039376258850098,-0.09653320908546448,0.14505521953105927,-0.46945539116859436,-0.29094576835632324,0.02093307115137577,-0.401075541973114,-0.049374040216207504,0.2010921686887741,-0.3831753730773926,-0.16366495192050934,-0.1140265092253685,0.16545066237449646,0.345539391040802,0.124067522585392,0.3286810517311096,-0.04876617714762688,0.025255175307393074,0.06470347940921783,-0.4575282633304596,-0.2925874888896942,-0.28702569007873535,-0.15872713923454285,0.13622596859931946,0.43226349353790283,0.06312570720911026,-0.27302005887031555,-0.34366610646247864,0.3829202651977539,0.0769607350230217,0.38409101963043213,0.42319780588150024,0.5084282755851746,-0.32164880633354187,-0.014282338321208954,0.8436809778213501,-0.030256139114499092,0.01350419595837593,0.10996061563491821,0.344940721988678,-0.1284843385219574,-0.11397013068199158,-0.22034037113189697
worker_00184,-0.05744205787777901,-0.3591456711292267,0.07857823371887207,0.39714524149894714,0.18943187594413757,-0.2786027789115906,-0.04859588295221329,-0.03276003524661064,-0.2087423950433731,-0.1275714486837387,-0.1424919068813324,0.0647188127040863,0.25802376866340637,0.2677134573459625,0.17388229072093964,-0.2824417054653168,-0.04524889215826988,-0.3888436555862427,-0.034468043595552444,-0.025857558473944664,0.12712155282497406,-0.6977027058601379,0.337651789188385,0.01965419016778469,-0.07124258577823639,0.42544329166412354,0.14583250880241394,0.20582523941993713,0.37763485312461853,-0.10239363461732864,0.01450403779745102,-0.08903451263904572,-0.07519504427909851,0.2865893542766571,-0.11928253620862961,-0.41041430830955505,0.0031502805650234222,-0.166807621717453,0.15493062138557434,0.3434658348560333,-0.09139826148748398,-0.2097647488117218,-0.05533218756318092,-0.3799118995666504,0.00902367290109396,0.48989227414131165,-0.22652192413806915,-0.1471804976463318,-0.14266866445541382,-0.12908053398132324,0.1074167937040329,0.13347619771957397,-0.04982936754822731,-0.15135109424591064,0.20166538655757904,-0.5758601427078247,0.9271845817565918,0.0648762509226799,-0.3462493419647217,-0.027083082124590874,-0.3959785997867584,-0.4631466567516327,0.0647464469075203,-0.04706326872110367
worker_00081,-0.18644067645072937,-0.019172189757227898,-0.015834487974643707,-0.10852652043104172,-0.07311660051345825,0.09624909609556198,-0.1717526614665985,0.40322887897491455,-0.4516020119190216,0.3904922306537628,-0.013349805027246475,-0.1678217202425003,-0.025154493749141693,0.3623960316181183,-0.3027692437171936,0.5062341094017029,-0.35506656765937805,-0.3176784813404083,-0.3204280138015747,-0.13756145536899567,0.24030974507331848,-0.44937700033187866,0.05393793061375618,0.07542668282985687,0.14211903512477875,0.4591403007507324,0.2587366998195648,-0.03151664882898331,-0.0159290824085474,0.1820501834154129,0.5187104344367981,0.07766620069742203,-0.4437267482280731,0.13305100798606873,-0.18583592772483826,-0.2150549292564392,0.3539164364337921,-0.09985341876745224,-0.5292766094207764,-0.06701651215553284,-0.029700983315706253,0.0099850008264184,0.016744118183851242,0.033245429396629333,0.27240708470344543,0.6237493753433228,0.13889575004577637,0.510195255279541,-0.04170307517051697,-0.16961005330085754,-0.194235160946846,-0.0036860178224742413,0.164922297000885,0.187416210770607,0.3050391674041748,0.20323707163333893,0.6924232244491577,-0.09506336599588394,0.2623988687992096,0.09745080769062042,0.3438776135444641,-0.07517017424106598,0.3597421646118164,0.20571815967559814
worker_00125,-0.3804924488067627,-0.09721168875694275,0.38732290267944336,-0.2895108759403229,0.18444512784481049,0.26402121782302856,0.15480834245681763,-0.116170734167099,-0.2423034906387329,0.15556040406227112,0.24999867379665375,-0.08450212329626083,0.0763520821928978,0.1314394772052765,-0.5613628625869751,0.17541758716106415,-0.20722535252571106,0.26935499906539917,-0.0569603331387043,-0.3462124466896057,0.06533414870500565,-0.4003294110298157,0.406687468290329,0.0964023768901825,0.09709573537111282,0.5699118971824646,0.17743919789791107,-0.12201715260744095,0.1167680025100708,-0.12524870038032532,-0.32568836212158203,-0.2518637478351593,0.43593668937683105,-0.4448048770427704,0.3897075355052948,-0.47044798731803894,0.1466868668794632,-0.19943080842494965,0.12522771954536438,0.13019828498363495,0.17650410532951355,0.26328787207603455,-0.40131229162216187,0.3449762761592865,-0.2556025981903076,0.04859965667128563,0.09326986968517303,0.21869564056396484,0.12014409899711609,-0.017892928794026375,0.26580071449279785,-0.2119726985692978,0.06152672320604324,0.6749694347381592,-0.06521531194448471,0.09897357225418091,0.5729682445526123,0.010958477854728699,-0.17655357718467712,0.18325546383857727,-0.07254613935947418,-0.17629198729991913,0.13357609510421753,-0.4475853443145752
worker_00118,-0.019501473754644394,-0.10032486170530319,0.12569591403007507,0.4042462408542633,0.08518341183662415,-0.10600494593381882,0.39616858959198,-0.3686300814151764,-0.41260528564453125,0.0701652318239212,0.29579779505729675,-0.002915214980021119,0.02678431198000908,0.4427308142185211,-0.04010413587093353,0.13671749830245972,-0.1325666457414627,-0.4543090760707855,-0.264741450548172,0.20886075496673584,0.03807750344276428,-0.17068389058113098,-0.01611553318798542,0.19508273899555206,0.15401074290275574,0.17694546282291412,-0.23523534834384918,0.08929350972175598,-0.39756473898887634,0.0793096125125885,-0.03761601820588112,0.10058102756738663,0.17975299060344696,0.07469549775123596,-0.06722032278776169,0.2773326337337494,-0.46216070652008057,-0.05655023455619812,0.2186247557401657,0.29830503463745117,0.26773467659950256,0.09032457321882248,0.24923361837863922,0.30810508131980896,0.7475712895393372,0.283259779214859,-0.7725026607513428,-0.48640114068984985,-0.4717073142528534,0.32797977328300476,0.17216382920742035,0.15945754945278168,0.2718833088874817,0.09732672572135925,0.23593226075172424,0.161729097366333,0.8427226543426514,-0.07072878628969193,-0.2544366121292114,-0.2860654294490814,-0.05683092027902603,0.20662733912467957,-0.17427583038806915,-0.019200477749109268
worker_00229,-0.0775115042924881,-0.08564247936010361,-0.17952433228492737,0.02780606411397457,0.2354339361190796,0.05398234724998474,0.21690112352371216,0.06168079748749733,-0.04485272243618965,0.28249591588974,0.07975339144468307,-0.3716678023338318,-0.1891585886478424,0.3099418878555298,-0.25980958342552185,-0.38607826828956604,-0.001743821776472032,-0.120735302567482,-0.15593403577804565,-0.0630091056227684,0.23641251027584076,-0.02790158987045288,0.3677618205547333,-0.1209198385477066,-0.37340590357780457,0.01434763427823782,-0.2440260946750641,-0.14203397929668427,-0.5746194124221802,-0.4080487787723541,0.3292882442474365,-0.1370140165090561,0.3725413978099823,-0.15521012246608734,0.4334067702293396,0.10239219665527344,0.2603384852409363,0.28444400429725647,-0.2619607150554657,-0.276109904050827,-0.10976429283618927,0.5830016732215881,-0.07544748485088348,-0.17639200389385223,-0.20150044560432434,0.8354297280311584,-0.13822278380393982,0.14296242594718933,0.283434122800827,-0.057420432567596436,-0.02307918295264244,0.24571527540683746,0.20515121519565582,0.0279241930693388,0.6651148796081543,-0.42281585931777954,0.6055581569671631,-0.4733072519302368,0.07985006272792816,0.5673355460166931,-0.3229193687438965,0.08248403668403625,-0.018284866586327553,0.34262874722480774
worker_00024,0.172599196434021,-0.03449714928865433,0.39857161045074463,0.0571303591132164,-0.12680023908615112,0.13134627044200897,0.16104578971862793,0.06336017698049545,0.6884616017341614,-0.10834136605262756,0.15650931000709534,0.03533484414219856,-0.08229341357946396,0.40140652656555176,0.0001351623795926571,0.19049020111560822,0.15772034227848053,0.025798356160521507,0.0816725417971611,-0.13805444538593292,0.06387034058570862,-0.5066104531288147,0.609320878982544,-0.02405581995844841,0.2183247059583664,-0.053189534693956375,-0.05479817092418671,-0.039712004363536835,0.3357182741165161,0.3037118911743164,0.18325549364089966,0.047715574502944946,-0.005349238868802786,-0.6314743161201477,-0.0964120626449585,0.34653493762016296,-0.23551897704601288,0.17977336049079895,-0.3905462324619293,-0.18820713460445404,-0.2061293125152588,-0.43356195092201233,0.2795625925064087,-0.0043528517708182335,0.18057775497436523,0.42447882890701294,-0.0591481551527977,0.5595011115074158,-0.09392561763525009,0.06018995866179466,0.003893913235515356,-0.16453778743743896,-0.22850842773914337,0.168953076004982,-0.1592848151922226,-0.18901154398918152,0.795073390007019,0.39784693717956543,-0.10645852982997894,-0.14361095428466797,-0.2874159514904022,0.010445172898471355,-0.12603579461574554,0.11080659925937653
worker_00042,-0.0439460314810276,0.028175584971904755,-0.013842429965734482,-0.5621598362922668,0.33726727962493896,-0.30777978897094727,0.014488490298390388,-0.3063400983810425,-0.008865178562700748,0.0854373425245285,-0.11707042157649994,0.16873343288898468,0.43023553490638733,0.009846270084381104,0.10888529568910599,-0.046658337116241455,0.04638595134019852,0.06478572636842728,0.02659408003091812,0.1928175985813141,-0.10471087694168091,0.03636755421757698,-0.1535712480545044,0.05992260202765465,-0.0033665206283330917,0.49681100249290466,0.11088046431541443,0.04215046018362045,0.03386450558900833,0.2524527311325073,-0.643840491771698,-0.057995472103357315,0.35975515842437744,0.06298816204071045,0.16092196106910706,-0.13701093196868896,-0.19803373515605927,-0.1769232153892517,0.10633806884288788,-0.028820045292377472,0.1437220722436905,0.3431348502635956,0.0291163120418787,-0.0154557004570961,-0.2361370474100113,0.1632024496793747,-0.062079474329948425,0.29918941855430603,0.09913695603609085,0.19106483459472656,-0.3043653070926666,0.07471904903650284,-0.07076358795166016,0.32170218229293823,-0.11480297893285751,0.1582196205854416,1.1083370447158813,-0.24361790716648102,-0.08988092839717865,-0.032489076256752014,0.08093240112066269,-0.3038969039916992,-0.5844990611076355,0.11948882043361664
worker_00040,-0.33757367730140686,-0.11349299550056458,-0.18519246578216553,-0.11412712186574936,0.08170143514871597,0.30031391978263855,-0.2331288605928421,-0.2897651195526123,0.012207156047224998,-0.025610603392124176,0.14911973476409912,0.36806440353393555,-0.13103151321411133,-0.29232943058013916,0.25776559114456177,-0.5958278179168701,-0.01605149358510971,0.1968829184770584,0.13817042112350464,-0.043546970933675766,-0.2068474292755127,-0.25148454308509827,-0.17751868069171906,0.2266441285610199,0.2720291018486023,0.13888667523860931,0.6265314221382141,0.3349263072013855,-0.04111173748970032,-0.3120618462562561,0.11348440498113632,-0.5221459865570068,0.047279879450798035,-0.3106832802295685,0.5431544780731201,0.3775631785392761,0.31935256719589233,0.5236566066741943,0.051532939076423645,-0.042948853224515915,-0.061803605407476425,-0.0635647252202034,-0.1665111780166626,0.24614562094211578,0.08844101428985596,0.8127598762512207,-0.3080739378929138,0.13513018190860748,0.18715853989124298,-0.32199206948280334,-0.5415534377098083,0.04797787964344025,-0.28473129868507385,0.06985634565353394,0.10489737242460251,0.18393447995185852,0.9021714329719543,0.27009469270706177,-0.5459603667259216,-0.3797181248664856,-0.4639095664024353,-0.29892343282699585,0.26736360788345337,-0.002087200991809368
worker_00168,-0.28563711047172546,0.36289918422698975,-0.03602859750390053,-0.24930451810359955,-0.07836689800024033,-0.058248069137334824,-0.21407543122768402,0.5042409300804138,-0.03211430087685585,-0.07030458748340607,0.042063020169734955,-0.047392867505550385,0.3216688930988312,0.1742130070924759,0.7044093608856201,0.21930542588233948,-0.06024866923689842,0.31484127044677734,-0.5750074982643127,0.1494596153497696,0.0925631895661354,-0.2047886997461319,-0.19685445725917816,-0.10616356134414673,0.24589627981185913,-0.08838167041540146,-0.2593761384487152,-0.050317149609327316,-0.11822216212749481,-0.0020709247328341007,0.6497842669487,0.320308119058609,0.053404394537210464,-0.05189095437526703,0.2463943362236023,0.26492127776145935,0.13631244003772736,-0.10794028639793396,-0.4622466266155243,-0.3367713987827301,0.3855705261230469,0.21044370532035828,0.40453624725341797,-0.20014607906341553,-0.18550914525985718,-0.06586695462465286,0.023275267332792282,0.11795084923505783,0.3712010979652405,0.19454020261764526,0.2187989205121994,0.0886489748954773,0.2764369249343872,0.7235639691352844,0.20193390548229218,0.31803497672080994,0.8776534795761108,-0.12271010875701904,-0.19395802915096283,0.7097671031951904,0.20367120206356049,0.18787755072116852,-0.17507372796535492,0.017808441072702408
worker_00064,-0.19467046856880188,0.5260249376296997,0.08500871807336807,-0.03659800812602043,0.37419119477272034,-0.1866549253463745,0.10087480396032333,0.45908883213996887,-0.015132751315832138,0.1241351068019867,-0.26130926609039307,-0.008283372968435287,0.39524441957473755,0.6361414194107056,-0.2707338035106659,0.10599730163812637,-0.6817987561225891,-0.2360839545726776,-0.047786515206098557,0.18088309466838837,0.19622807204723358,-0.7472511529922485,0.01673692651093006,0.03609718754887581,0.08712600916624069,0.05621057376265526,0.19383560121059418,-0.375975638628006,-0.18732525408267975,-0.20744022727012634,-0.1516055166721344,-0.22342133522033691,0.4237469732761383,-0.30261802673339844,0.4265550971031189,0.09954540431499481,-0.05773976817727089,0.55369633436203,0.009881924837827682,-0.13158385455608368,0.08350551873445511,-0.6296401023864746,-0.41731154918670654,-0.47636494040489197,0.2680138051509857,0.4232436716556549,-0.2262062281370163,-0.5839664936065674,-0.6934354305267334,-0.0931689441204071,-0.17273831367492676,0.0570470429956913,-0.4523472487926483,0.20018915832042694,-0.41377773880958557,0.4122900068759918,0.921079695224762,-0.17487689852714539,-0.16217179596424103,0.05606827884912491,0.36187124252319336,0.1144629642367363,-0.015495017170906067,0.029785150662064552
worker_00126,-0.43992218375205994,0.2342902421951294,0.22707773745059967,0.3233760893344879,0.04219118505716324,0.4168143570423126,0.21545638144016266,0.1732102930545807,0.4057326018810272,-0.14048458635807037,0.49652981758117676,0.25411567091941833,0.40892165899276733,0.3724159002304077,-0.22828568518161774,-9.347274317406118e-05,-0.4271053969860077,0.0685005635023117,-0.33417418599128723,-0.15772102773189545,0.29318609833717346,0.12436097860336304,0.028716327622532845,0.020434875041246414,0.666209876537323,0.41221967339515686,0.448077529668808,0.036508649587631226,0.0801735520362854,-0.12355775386095047,-0.09641466289758682,-0.2802046239376068,0.3231421709060669,-0.021945765241980553,0.1371997594833374,0.2433772087097168,0.05500570312142372,-0.18890562653541565,-0.5922324657440186,0.28569185733795166,-0.4911119043827057,0.1818886399269104,0.0676947683095932,-0.0863204225897789,0.05839597061276436,0.23824654519557953,0.1979813426733017,0.23020055890083313,0.284915566444397,0.08444562554359436,-0.04960319399833679,-0.25309616327285767,0.4582887291908264,0.572365939617157,-0.02155117876827717,-0.2044045478105545,1.1974011659622192,-0.1349867582321167,0.013023458421230316,0.23772381246089935,0.2774737477302551,0.06762897968292236,-0.5349737405776978,0.4684388339519501
worker_00068,0.04988967999815941,-0.42852288484573364,0.20304805040359497,0.13246332108974457,-0.09519458562135696,0.12878936529159546,-0.16620880365371704,-0.2582589387893677,0.11959541589021683,0.03928997367620468,0.7620507478713989,0.03790022432804108,0.3434108793735504,-0.27652090787887573,0.22332635521888733,-0.14287211000919342,-0.4826759696006775,0.2534009516239166,-0.08009728789329529,0.35900819301605225,0.05824252963066101,-0.7068309187889099,0.21892182528972626,0.14625588059425354,-0.2044149488210678,-0.18605375289916992,0.061824217438697815,-0.11142835766077042,-0.3159957528114319,-0.023094432428479195,0.15959475934505463,0.03871547803282738,-0.6706147789955139,-0.1604212373495102,-0.10298341512680054,0.10685176402330399,-0.28724732995033264,-0.10016921162605286,-0.20797263085842133,0.2541370987892151,-0.18492737412452698,-0.3766518235206604,-0.14190788567066193,-0.25742045044898987,0.40062859654426575,0.30797144770622253,-0.3767048716545105,0.4246865212917328,-0.15438447892665863,-0.055293381214141846,-0.19214442372322083,-0.044007308781147,0.3765862286090851,0.1378142237663269,-0.18158350884914398,-0.27638956904411316,0.6794182062149048,0.18311074376106262,0.4667377471923828,0.2884148955345154,-0.03745124861598015,-0.12457011640071869,-0.028338301926851273,-0.2140483260154724
worker_00178,-0.06804826855659485,-0.3257542550563812,0.3084836006164551,0.19348827004432678,-0.13935859501361847,-0.13274286687374115,-0.06325013935565948,-0.03184213489294052,-0.09797006845474243,0.3194159269332886,0.13615916669368744,0.06263785809278488,-0.03042244166135788,0.4792420268058777,-0.061904266476631165,-0.22800803184509277,0.29663652181625366,0.4391228258609772,-0.19548554718494415,-0.019289126619696617,0.35283318161964417,0.27801206707954407,0.1548064798116684,-0.48117756843566895,0.029738159850239754,0.1184442862868309,0.33638885617256165,0.33965787291526794,0.3286847770214081,-0.24895384907722473,0.22411376237869263,0.32077181339263916,-0.05864725261926651,-0.18000641465187073,0.1421690583229065,0.24535800516605377,-0.1394437700510025,0.2449236363172531,0.03660435974597931,0.28158077597618103,0.1605539321899414,0.010416509583592415,-0.019870346412062645,-0.1462315320968628,-0.3192635178565979,-0.012975618243217468,0.09340354800224304,-0.3383336663246155,0.1662023663520813,-0.3986542522907257,-0.6333910226821899,-0.3011854588985443,0.22834055125713348,0.5307862758636475,0.3907935619354248,-0.13792172074317932,1.1574933528900146,0.23295080661773682,-0.3520234525203705,0.6446810364723206,0.467433899641037,-0.12607793509960175,-0.39318445324897766,-0.5730408430099487
worker_00007,0.11430630087852478,-0.08670807629823685,-0.03525444492697716,-0.016006510704755783,0.06663141399621964,0.08098700642585754,0.1996823102235794,-0.0481954962015152,-0.4350786507129669,-0.10592049360275269,-0.2710888087749481,-0.21008317172527313,-0.03799080848693848,0.3823130428791046,-0.19774991273880005,0.2684345245361328,-0.13067206740379333,0.12762323021888733,0.4762439727783203,0.07544929534196854,0.2991979122161865,-0.23061376810073853,0.5264172554016113,-0.5580735802650452,0.1465945541858673,0.03423193097114563,0.018561765551567078,0.20183700323104858,0.040552861988544464,0.14031031727790833,-0.03843507543206215,-0.024699466302990913,-0.2730371654033661,-0.3272312581539154,-0.1374521553516388,0.15155988931655884,-0.5329564213752747,0.06748498231172562,-0.46527257561683655,0.16324551403522491,0.18899933993816376,0.5917078852653503,0.3084994852542877,-0.1314990222454071,0.23283642530441284,0.06307264417409897,-0.3857179284095764,0.4368380606174469,-0.637864887714386,-0.2733345627784729,-0.013141287490725517,-0.3117075562477112,0.2767936885356903,0.45296260714530945,0.4626869261264801,-0.4658544361591339,0.49123820662498474,0.1540062129497528,0.3432543873786926,0.5999748706817627,0.13498035073280334,0.4000948369503021,-0.276621013879776,-0.006294017191976309
worker_00155,-0.5473343729972839,-0.33480504155158997,-0.1899612843990326,-0.16886404156684875,-0.07748354226350784,-0.2194550335407257,0.19671891629695892,-0.28194618225097656,-0.06811842322349548,0.2335178107023239,-0.1785002052783966,0.20872870087623596,-0.058950189501047134,0.07059122622013092,-0.33512651920318604,-0.18153613805770874,0.1753511279821396,-0.1560739278793335,0.3552949130535126,0.43714073300361633,-0.19378648698329926,-0.4230278432369232,0.36596184968948364,-0.3010631203651428,0.6631051301956177,-0.04658041521906853,-0.022558685392141342,-0.11796268075704575,0.09812361001968384,0.4253261685371399,0.042467404156923294,0.08071380853652954,-0.19420050084590912,-0.5171608328819275,-0.2523546516895294,-0.22004768252372742,0.3038426637649536,0.24524395167827606,0.06373339146375656,-0.168685182929039,-0.4704878628253937,0.17830508947372437,0.3599591553211212,0.35059916973114014,-0.162261500954628,0.06115119159221649,-0.24750801920890808,0.4553464949131012,0.28536921739578247,0.16809511184692383,-0.3447017967700958,0.17014403641223907,-0.3027234971523285,0.18976761400699615,0.24133390188217163,-0.4833681881427765,1.0501664876937866,-0.22456777095794678,0.1279277503490448,-0.0062173279002308846,0.3881160318851471,0.3983026444911957,0.10088900476694107,0.18715159595012665
worker_00026,0.2311699390411377,0.2333437204360962,0.3320390284061432,-0.681262195110321,0.026883255690336227,0.18397778272628784,-0.29985782504081726,0.4598585069179535,0.29403749108314514,0.04960004612803459,-0.09691765159368515,0.07973793894052505,0.27217409014701843,0.14027920365333557,-0.24600403010845184,-0.6062840819358826,-0.14151865243911743,-0.14978241920471191,0.00857375655323267,0.2436867356300354,-0.06143500655889511,-0.3965648412704468,0.006344792433083057,-0.22249644994735718,0.024718236178159714,0.550129234790802,-0.2670537531375885,-0.04704896733164787,0.1413748860359192,-0.08724966645240784,-0.19607600569725037,0.15934397280216217,-0.05179639905691147,-0.17617128789424896,-0.3406829237937927,-0.177458256483078,-0.2429058700799942,-0.08864390850067139,0.22580860555171967,0.22719448804855347,-0.39791274070739746,0.01009903009980917,0.3943166732788086,-0.22607243061065674,-0.11583840101957321,-0.16568218171596527,-0.17513488233089447,-0.20187340676784515,-0.23766981065273285,-0.094031922519207,0.08125344663858414,0.1567687690258026,-0.19748207926750183,0.1329004168510437,-0.4492691457271576,-0.08771916478872299,1.0493416786193848,0.23735682666301727,0.38278928399086,-0.15935194492340088,-0.6469969749450684,0.30838441848754883,-0.005707159172743559,0.13717994093894958
worker_00151,-0.5947866439819336,0.005430994555354118,-0.8284019827842712,0.22460022568702698,0.02792629785835743,-0.15078166127204895,-0.012383116409182549,0.028409061953425407,0.11745177209377289,0.23394931852817535,0.0702817440032959,0.08161609619855881,-0.24352386593818665,0.02910313569009304,0.2572384178638458,-0.3520585894584656,0.07974165678024292,-0.23688288033008575,-0.05763235688209534,0.2190466821193695,-0.42809465527534485,-0.1609279215335846,0.037538498640060425,0.5713867545127869,0.3344775438308716,0.03576149418950081,-0.0974321961402893,-0.1538357436656952,-0.3061918020248413,0.07990173995494843,0.14714692533016205,0.3243083357810974,0.03423718735575676,-0.09326571226119995,-0.011746121570467949,0.4850011169910431,0.329273521900177,0.3191525936126709,-0.3381018340587616,-0.3175395429134369,0.01276172325015068,0.16005142033100128,0.062098030000925064,0.01870349794626236,0.4808906316757202,0.4972064793109894,-0.36465927958488464,0.2781790792942047,0.02217773161828518,0.2903146743774414,-0.3786827027797699,-0.00980998296290636,0.018367920070886612,0.40311509370803833,0.5409525632858276,-0.5174131989479065,0.673934280872345,0.2816879153251648,-0.002848690375685692,0.020533787086606026,0.005536103621125221,0.017260463908314705,-0.15081991255283356,-0.001529438653960824
worker_00107,-0.45611172914505005,0.1975259780883789,0.33576104044914246,-0.12959103286266327,0.16171254217624664,-0.06351090222597122,-0.190594881772995,-0.3963412940502167,0.04047830402851105,0.2366728037595749,-0.11255615204572678,0.4947099983692169,0.07048787921667099,-0.22052517533302307,-0.5731398463249207,-0.04131164029240608,-0.13024656474590302,0.05651536583900452,-0.11826830357313156,0.033661458641290665,-0.2523947060108185,-0.2968772053718567,0.0746588408946991,0.18211278319358826,-0.08965098857879639,0.27482402324676514,0.1216924861073494,0.06830079853534698,-0.34599626064300537,-0.03587541729211807,0.054109636694192886,0.45197391510009766,0.22548475861549377,0.12174201011657715,-0.007141812704503536,-0.055580928921699524,-0.3990256190299988,0.027139564976096153,0.23549114167690277,-0.2336805909872055,0.2533091902732849,-0.22789350152015686,0.17785803973674774,0.019666507840156555,0.04972638934850693,-0.1526133120059967,-0.26399320363998413,0.585750937461853,-0.02670351415872574,-0.06492333859205246,-0.018780551850795746,-0.08275682479143143,0.06649245321750641,0.244328111410141,0.17856694757938385,-0.3710891604423523,0.7383501529693604,-0.4303225576877594,-0.2738088071346283,0.10798703134059906,0.03264998272061348,-0.21615132689476013,0.08281611651182175,-0.3174585998058319
worker_00089,0.1351640224456787,-0.1929323673248291,0.34457194805145264,-0.3341105282306671,0.3697942793369293,-0.22950458526611328,0.562721312046051,0.47071507573127747,-0.16473503410816193,0.055634260177612305,-0.08625206351280212,-0.11300338804721832,0.12277650088071823,0.44019585847854614,0.5562125444412231,-0.24118174612522125,-0.089602991938591,-0.07008865475654602,0.10865258425474167,-0.2980237603187561,0.48528632521629333,-0.4561959505081177,-0.0873563215136528,-0.3566197454929352,-0.20896367728710175,-0.44195273518562317,-0.04462730884552002,0.11864998936653137,0.06724035739898682,-0.14028102159500122,0.32135486602783203,-0.427110493183136,0.07412800937891006,-0.29950445890426636,0.01055282261222601,0.08560388535261154,0.23512019217014313,0.2244807779788971,0.05777542665600777,0.396350234746933,0.4599916636943817,-0.21889087557792664,0.23844651877880096,0.11177995800971985,0.6476566195487976,0.4268746078014374,0.0635891929268837,-0.13969379663467407,-0.2802421748638153,0.028868261724710464,-0.40081295371055603,-0.035371068865060806,0.0568181574344635,0.1374453604221344,-0.2961420714855194,-0.46412914991378784,1.0682533979415894,0.030352802947163582,0.06289054453372955,0.2539385259151459,-0.3747982680797577,-0.31492528319358826,-0.006149576045572758,0.009159591048955917
worker_00114,-0.13322053849697113,0.25909745693206787,0.32807043194770813,-0.3902095854282379,-0.5819884538650513,0.12762901186943054,-0.046690378338098526,0.47823330760002136,0.12339942157268524,-0.12594930827617645,-0.17173555493354797,0.060087792575359344,-0.08398865163326263,0.19499221444129944,0.04185809567570686,0.047982875257730484,-0.31413325667381287,0.15394508838653564,-0.13130713999271393,-0.03200814127922058,0.4799693822860718,-0.7016558647155762,0.22422978281974792,0.0438755601644516,-0.293000727891922,0.3186183273792267,0.44472214579582214,-0.14615410566329956,0.1312662959098816,0.28689372539520264,0.25770440697669983,0.08440496027469635,-0.16806378960609436,-0.1057131215929985,-0.4266681969165802,0.13186326622962952,0.3428820073604584,0.22987884283065796,0.2951529026031494,0.15319129824638367,-0.09473875910043716,-0.19592031836509705,-0.28784236311912537,0.25131458044052124,-0.06361319869756699,0.5618233680725098,-0.4973944127559662,0.272878497838974,-0.08905509114265442,-0.008998769335448742,-0.2222474217414856,0.03743403032422066,0.020603200420737267,-0.07423149049282074,-0.10173384100198746,0.2879360020160675,0.8663797974586487,0.053057968616485596,-0.13790598511695862,0.00026820696075446904,0.35241955518722534,-0.405574232339859,-0.04457893222570419,0.20452769100666046
worker_00056,-0.14813412725925446,-0.034170664846897125,-0.5612664818763733,-0.2931579351425171,-0.32504594326019287,0.29096463322639465,0.5742025971412659,8.509494364261627e-05,-0.49379366636276245,-0.24232059717178345,0.46810072660446167,-0.41141802072525024,0.0929177775979042,0.40442487597465515,0.454685240983963,0.10650677978992462,0.3563399314880371,-0.030302904546260834,-0.5911462306976318,-0.24561025202274323,-0.3384591042995453,-0.30196523666381836,0.4568690061569214,-0.07537456601858139,0.2285691350698471,0.3979036211967468,0.18887163698673248,-0.1955040693283081,0.15433023869991302,-0.07076968997716904,0.29616212844848633,0.255593478679657,-0.41841402649879456,-0.09453051537275314,0.47256314754486084,0.5176524519920349,-0.39729592204093933,0.2049725204706192,-0.07142254710197449,-0.28202885389328003,-0.08852574974298477,-0.29325243830680847,-0.23591677844524384,0.14230772852897644,-0.34053871035575867,0.3959096670150757,-0.535476803779602,0.5766412019729614,-0.07468041777610779,-0.1214253231883049,-0.14954736828804016,0.03101220726966858,-0.09608618170022964,0.16444873809814453,0.07913204282522202,-0.1682322919368744,0.45816048979759216,-0.6737996935844421,0.07826893776655197,0.26397478580474854,0.26468008756637573,-0.34841519594192505,-0.14095880091190338,0.12966439127922058
worker_00224,0.36876848340034485,-0.38111478090286255,-0.30395177006721497,0.3240818679332733,0.033981338143348694,-0.19777844846248627,-0.14846450090408325,-0.292940229177475,0.15654218196868896,-0.1608593761920929,-0.08933288604021072,0.1416846066713333,-0.054673511534929276,0.2271045446395874,-0.1622960865497589,-0.39214786887168884,-0.036412887275218964,0.37886011600494385,-0.3134494721889496,-0.14071565866470337,0.08646578341722488,-0.36753544211387634,0.12621600925922394,0.09141223132610321,-0.24058911204338074,-0.05049063265323639,0.033917732536792755,0.0494823195040226,-0.1606711894273758,-0.13188323378562927,-0.2858770489692688,-0.12158200144767761,0.06559106707572937,0.049842290580272675,0.07139946520328522,0.40685147047042847,0.27021318674087524,0.29445406794548035,-0.21839728951454163,0.1914358139038086,-0.23504234850406647,0.16169923543930054,-0.24110153317451477,0.31434786319732666,0.10724040120840073,0.6876431107521057,0.028125058859586716,0.19366216659545898,0.31456077098846436,-0.1914600133895874,0.1927362084388733,-0.055763326585292816,0.03125832974910736,0.39098307490348816,0.09487239271402359,-0.4430384039878845,0.9102494716644287,0.43176671862602234,0.16083332896232605,0.2602221369743347,0.06702371686697006,0.10808610171079636,0.4103895127773285,0.21341674029827118
worker_00238,-0.22808107733726501,-0.1537560224533081,0.5062846541404724,-0.6440486907958984,-0.06556770205497742,0.09666566550731659,0.07908089458942413,-0.29731547832489014,0.27896374464035034,-0.33622246980667114,0.0941210463643074,-0.19457747042179108,0.15237009525299072,0.2872381806373596,0.5930081605911255,0.38195446133613586,-0.5215553045272827,-0.38230347633361816,-0.20228669047355652,-0.007788794115185738,-0.12653540074825287,-0.22044505178928375,0.031905144453048706,0.2651168704032898,-0.14252126216888428,0.06250601261854172,-0.08375579118728638,0.3930822014808655,0.31772536039352417,0.02554897591471672,-0.1274421513080597,0.1801128089427948,0.46113499999046326,-0.2232704609632492,-0.14156046509742737,0.09496306627988815,-0.062241654843091965,-0.2293030172586441,0.023459715768694878,0.3224374055862427,0.3884211480617523,0.3384166359901428,-0.39650988578796387,-0.3869222104549408,0.37124815583229065,0.4461410939693451,0.7221462726593018,0.2946893870830536,0.2534444034099579,-0.11865907162427902,0.366735577583313,-0.12983864545822144,0.3413124978542328,0.2502615749835968,0.0968942865729332,-0.5298126935958862,1.2130080461502075,-0.14705704152584076,-0.49398523569107056,-0.15409402549266815,-0.07417397946119308,-0.497720330953598,0.19296108186244965,0.19638116657733917
worker_00226,-0.016818374395370483,-0.011114230379462242,0.1538189798593521,-0.23967064917087555,-0.3647732436656952,-0.12527495622634888,-0.06981801986694336,0.17012673616409302,0.3850197196006775,0.049860160797834396,0.28440460562705994,-0.02713187411427498,0.004709003493189812,-0.06083862856030464,-0.11566032469272614,0.031085873022675514,0.19516372680664062,0.4944310784339905,0.1205667033791542,-0.12598133087158203,0.1599825620651245,-0.5136289596557617,0.15874426066875458,-0.018264900892972946,0.06262019276618958,0.37906742095947266,0.08325362205505371,0.10978534072637558,0.17448629438877106,-0.03842251002788544,-0.25924137234687805,0.015572665259242058,-0.2711573839187622,0.302297443151474,0.20037278532981873,-0.07274090498685837,-0.08669142425060272,-0.4144419729709625,-0.11324281990528107,0.09787460416555405,-0.15283752977848053,0.31107303500175476,0.4401742219924927,-0.07580073177814484,-0.2969096899032593,-0.09589719772338867,-0.27877339720726013,0.14259926974773407,-0.34604552388191223,-0.22644400596618652,-0.07196201384067535,0.06803276389837265,0.18772141635417938,0.7288339734077454,-0.11754412949085236,0.25930055975914,0.9859156608581543,0.29010704159736633,-0.16461363434791565,-0.3145478069782257,-0.26917481422424316,0.001925096963532269,-0.23420317471027374,0.01796489581465721
worker_00031,0.1405237913131714,-0.19229662418365479,0.005460629239678383,-0.1001351848244667,0.05457960441708565,-0.11558051407337189,0.06824222207069397,-0.051271580159664154,-0.28905242681503296,-0.028424343094229698,0.14456342160701752,0.1768559217453003,-0.07746605575084686,0.4264172315597534,-0.043656088411808014,-0.5327377915382385,0.08534649759531021,-0.20101022720336914,-0.13909322023391724,0.24840261042118073,0.2138124704360962,-0.24377813935279846,0.07853733748197556,-0.2131081223487854,0.09252528101205826,-0.01725602336227894,0.7858057022094727,-0.39432376623153687,-0.4119454622268677,0.13592801988124847,-0.27710452675819397,-0.2475903481245041,0.1070629134774208,0.09966985136270523,0.040701135993003845,-0.24549880623817444,0.0428997240960598,0.016741948202252388,0.28165069222450256,-0.5685702562332153,-0.07081077992916107,0.1427282840013504,-0.5909054279327393,-0.03190154954791069,-0.5174224972724915,0.18668068945407867,0.21500633656978607,-0.3479662239551544,0.21657094359397888,0.5808618068695068,-0.3716014623641968,-0.17560626566410065,-0.45054373145103455,-0.1148858442902565,0.0011929296888411045,-0.11043746024370193,1.1203618049621582,-0.2922208905220032,0.2588944435119629,0.566123902797699,-0.16317076981067657,-0.44520336389541626,-0.4680151641368866,-0.013545587658882141
worker_00119,0.321625292301178,-0.21377110481262207,0.0514245331287384,0.1994955837726593,0.3278745710849762,0.06917750090360641,-0.22066299617290497,-0.10889517515897751,0.1831265538930893,-0.02121664024889469,0.08038479089736938,-0.20911048352718353,0.19545352458953857,-0.13640442490577698,-0.22775337100028992,0.40950867533683777,-0.25504976511001587,0.3012309670448303,-0.04780071601271629,-0.045638442039489746,-0.005912992637604475,-0.31908556818962097,0.038630031049251556,-0.005330696236342192,0.09985477477312088,0.5172398686408997,-0.092514768242836,-0.016288401558995247,-0.41295260190963745,0.1526089608669281,0.3370312750339508,0.8941501975059509,0.2807347774505615,-0.3953666687011719,0.05955614149570465,-0.04370087757706642,0.3436930477619171,-0.22828218340873718,-0.002992392983287573,0.1801728457212448,-0.12436144798994064,0.1055254116654396,-0.0482867956161499,0.23599834740161896,0.07311870902776718,-0.21301567554473877,0.4427490234375,-0.1527111530303955,0.008805474266409874,0.1669166386127472,0.051023513078689575,0.07091110199689865,-0.1556074172258377,-0.04675060510635376,-0.2916867733001709,-0.062374185770750046,1.0022532939910889,-0.1560857743024826,0.6975069642066956,0.030623452737927437,0.03718780353665352,0.3833300769329071,-0.3752170205116272,0.017608650028705597
worker_00079,-0.26729118824005127,0.214236319065094,0.549667239189148,-0.16187036037445068,-0.032993197441101074,0.022341493517160416,-0.19603754580020905,0.021674804389476776,-0.3768361508846283,0.5055835247039795,0.12949632108211517,0.1464446485042572,0.11716520041227341,-0.6284677386283875,-0.07655253261327744,-0.2638610899448395,0.0626368373632431,-0.12444786727428436,0.2189916968345642,-0.006427421700209379,-0.48364198207855225,-0.4064122438430786,-0.011339820921421051,-0.5948416590690613,-0.17942918837070465,0.3303704559803009,-0.05921575427055359,-0.05881362408399582,0.12198144197463989,0.26665276288986206,-0.15446819365024567,0.1414364129304886,0.46124714612960815,0.05249009281396866,-0.33191245794296265,0.4282372295856476,0.3845328986644745,0.2760781943798065,-0.21199534833431244,-0.17369921505451202,0.5189929008483887,-0.31245508790016174,0.14198549091815948,-0.18233482539653778,-0.25560256838798523,0.33505067229270935,0.022858738899230957,0.267417311668396,-0.2992987036705017,0.22966353595256805,0.05483589693903923,-0.25968125462532043,-0.4119061231613159,0.3539952039718628,0.25297126173973083,0.15009863674640656,0.5010051727294922,0.331095427274704,-0.101134292781353,0.21213452517986298,-0.09002599865198135,-0.15784959495067596,-0.5895981192588806,0.1766919195652008
worker_00006,0.18244394659996033,0.10815310478210449,0.23288676142692566,0.49099454283714294,0.18056240677833557,-0.11012855917215347,-0.45013126730918884,-0.024333922192454338,-0.1211000382900238,0.6663346290588379,-0.0908193290233612,-0.03951374813914299,-0.12361321598291397,-0.17280660569667816,0.5902493596076965,-0.30273905396461487,0.4157316982746124,-0.4209846556186676,0.29561030864715576,-0.25368666648864746,0.20029690861701965,-0.20888927578926086,0.06532862037420273,-0.2233814299106598,0.28165870904922485,0.29939085245132446,-0.2531284987926483,-0.49539676308631897,-0.020780405029654503,-0.14244498312473297,0.39276841282844543,-0.2956692576408386,0.05815587937831879,-0.3479219079017639,-0.2089286893606186,0.631213366985321,-0.4563360810279846,0.3288530707359314,-0.012552530504763126,0.18910136818885803,-0.4987851679325104,0.1964631825685501,-0.07326027005910873,0.24499675631523132,0.26982083916664124,0.3984651267528534,-0.07857336103916168,0.36012864112854004,0.19303150475025177,0.4615938663482666,-0.09334085881710052,0.01577579230070114,0.11423961073160172,0.6761196851730347,-0.19756613671779633,0.23499345779418945,0.5504429340362549,-0.11131536960601807,0.09198608994483948,0.09280692040920258,-0.07661593705415726,-0.07834741473197937,0.1605793535709381,0.18927595019340515
worker_00234,0.17590036988258362,0.13269448280334473,0.11754580587148666,0.11490942537784576,-0.060284048318862915,-0.18063966929912567,-0.00552191399037838,-0.47767865657806396,0.573941171169281,0.32080501317977905,0.14167571067810059,-0.010402917861938477,-0.21407535672187805,-0.043075915426015854,0.4429171681404114,0.1687883883714676,0.16577953100204468,0.21869370341300964,0.2670517861843109,-0.0014177190605551004,-0.18326124548912048,-0.3450922966003418,0.2513863146305084,-0.39924538135528564,0.06315134465694427,0.11958923935890198,0.242554172873497,-0.25973740220069885,-0.26757773756980896,-0.45739591121673584,-0.024252651259303093,-0.33896416425704956,0.08876398950815201,0.21368896961212158,-0.15740327537059784,0.049640558660030365,-0.4677110016345978,0.2927244007587433,-0.13658812642097473,-0.2542852759361267,-0.023354429751634598,-0.11206059902906418,0.2300167977809906,0.45470380783081055,0.19106407463550568,0.796615719795227,0.07568281143903732,0.4481848180294037,-0.10469279438257217,0.18180905282497406,0.5049086213111877,-0.27177074551582336,-0.016468409448862076,0.17661413550376892,0.28674381971359253,0.5154370665550232,1.0234766006469727,-0.12859775125980377,-0.20011550188064575,0.1992044746875763,0.3571746349334717,-0.027854010462760925,-0.041268669068813324,0.05881510674953461
worker_00033,-0.11253509670495987,-0.5607132315635681,-0.0012429740745574236,-0.43149349093437195,-0.05522534251213074,0.18834206461906433,0.6727299094200134,-0.1987650841474533,-0.16460536420345306,0.07928302139043808,-0.3294026255607605,-0.025863921269774437,0.024897722527384758,-0.10962125658988953,0.3850952088832855,-0.2369263768196106,-0.03605033829808235,-0.18394093215465546,0.3043113350868225,-0.10481391102075577,-0.28313836455345154,-0.7325811386108398,-0.07512707263231277,-0.4187597632408142,-0.08996035903692245,0.24561794102191925,-0.024326138198375702,-0.34238481521606445,0.04367120936512947,-0.43422842025756836,0.04944884404540062,0.28308895230293274,-0.2756248414516449,-0.2523352801799774,0.20875278115272522,0.032209888100624084,-0.41659411787986755,-0.019032681360840797,-0.07099451869726181,-0.017300672829151154,-0.12158893048763275,-0.1823471635580063,0.023149866610765457,0.13399359583854675,0.025739314034581184,0.5338649749755859,0.09240411221981049,-0.25740814208984375,-0.20005425810813904,-0.01780705899000168,-0.010960869491100311,-0.3421345055103302,0.9424104690551758,0.0657060295343399,-0.0017288875533267856,-0.1554408073425293,0.9274730682373047,-0.1576925665140152,-0.5781829357147217,-0.10638384521007538,0.48453837633132935,-0.5753124952316284,0.3551956117153168,-0.03544861450791359
worker_00055,0.06732094287872314,0.08768513798713684,0.20555679500102997,0.4663222134113312,0.1993657946586609,-0.4802199602127075,0.00017239130102097988,0.2616843581199646,0.20052625238895416,0.2711256444454193,-0.2409900575876236,-0.41746407747268677,-0.2678588032722473,-0.016761843115091324,0.24164938926696777,-0.10023551434278488,0.2975305914878845,-0.30512285232543945,0.3422650694847107,0.39040660858154297,0.5680722594261169,-0.26355427503585815,-0.1869996041059494,-0.3156927525997162,-0.08057370036840439,0.28090277314186096,0.07450675964355469,-0.1518561691045761,0.14480456709861755,0.12792575359344482,-0.14765794575214386,0.222224161028862,-0.03772415593266487,-0.30841168761253357,0.21472379565238953,-0.4067958891391754,-0.2397647351026535,-0.17462526261806488,0.10740973055362701,0.17478182911872864,-0.08126071840524673,0.34416529536247253,0.09783077985048294,-0.020703153684735298,0.07418607920408249,0.35565435886383057,-0.03170505911111832,-0.262935996055603,-0.40137526392936707,0.232510045170784,0.31505873799324036,-0.2500225603580475,0.14721812307834625,0.3883925676345825,0.20209412276744843,-0.028691837564110756,0.9516006112098694,0.3016413450241089,-0.27122706174850464,0.07117198407649994,0.10895165055990219,-0.06388488411903381,0.20226868987083435,-0.08489225804805756
worker_00208,-0.09150471538305283,-0.18607459962368011,0.16011878848075867,-0.3725937306880951,0.08440367132425308,-0.09002161026000977,0.07739505171775818,0.04821443930268288,-0.12839733064174652,0.1830722540616989,0.23074941337108612,0.22624921798706055,-0.013342272490262985,0.06755713373422623,-0.3133173882961273,0.009108928963541985,-0.33285167813301086,-0.01546887494623661,0.014862006530165672,0.4258808195590973,-0.02464916557073593,-0.18968433141708374,-0.08918053656816483,0.12430492788553238,0.10106519609689713,0.428730309009552,0.09421287477016449,0.07012248039245605,-0.3601187467575073,-0.35079702734947205,0.09403006732463837,0.32446348667144775,-0.05386442318558693,0.022075243294239044,0.07494745403528214,-0.11173241585493088,-0.2920258641242981,-0.16951383650302887,0.03946887329220772,-0.22500954568386078,0.02387218177318573,0.45404621958732605,-0.09903468191623688,0.08032798767089844,0.21442218124866486,0.6672627925872803,-0.2380191534757614,-0.6003146171569824,0.0431390106678009,0.1644412875175476,-0.022378182038664818,0.16516384482383728,-0.04883180186152458,0.04248899593949318,0.24812713265419006,-0.02407129667699337,0.7826434969902039,0.24560032784938812,-0.5699547529220581,0.09648844599723816,0.13695445656776428,0.9039273262023926,0.2466956079006195,-0.31712451577186584
worker_00117,0.11630912125110626,-0.38698679208755493,0.4423067271709442,0.5299370288848877,-0.013070418499410152,-0.008218747563660145,0.15421421825885773,-0.14780117571353912,0.27346882224082947,0.7016435265541077,-0.1300676316022873,0.6351773142814636,0.053516849875450134,0.0869978591799736,-0.27091819047927856,0.09107064455747604,-0.2691001892089844,-0.029912758618593216,0.383588582277298,-0.19604900479316711,-0.28646978735923767,0.1788266897201538,-0.16023394465446472,-0.357703298330307,-0.26176097989082336,0.13299131393432617,-0.1154991090297699,-0.2601522207260132,-0.04067389294505119,-0.29761892557144165,-0.3604603707790375,-0.16661962866783142,-0.3126707077026367,0.12117540836334229,-0.5407589673995972,0.2176063507795334,-0.4487726092338562,0.06223680451512337,-0.2060832679271698,0.11927931010723114,-0.4007871448993683,-0.18345561623573303,0.05655809864401817,-0.01932923123240471,0.2431418001651764,0.4985445439815521,0.006544711068272591,-0.01634856127202511,-0.21419782936573029,-0.11698159575462341,0.1892249882221222,-0.08999055624008179,-0.028354523703455925,0.5941551327705383,0.4986411929130554,-0.27223512530326843,0.8318395614624023,-0.00935982633382082,-0.14152321219444275,0.21276000142097473,0.6367594599723816,0.21307097375392914,-0.5594033002853394,0.12616188824176788
